375 128
10082 0.409035 0.0636855 0.215727 -0.0880789 0.00318098 0.0298988 -0.10095 -0.204547 0.156991 0.0557442 0.129023 0.255526 -0.126741 0.209888 0.12812 -0.0940231 -0.350947 0.142825 0.131188 0.261703 -0.030877 -0.106936 0.452251 0.122155 -0.0178224 0.102817 -0.107956 0.3526 0.0984999 0.152975 0.200835 0.0355763 -0.10204 -0.156363 0.289853 -0.0397188 0.175729 0.052465 0.14519 0.103277 -0.0819088 -0.136971 -0.0331875 0.237331 0.00254792 0.0495886 -0.0954366 -0.205937 -0.0197158 -0.0501837 0.0254261 0.0200038 0.0538948 -0.209423 -0.20001 0.0998591 0.374286 0.0977445 0.0526246 -0.119192 0.0400439 0.128463 -0.0973232 -0.0132513 -0.313543 0.0177172 0.126589 -0.312087 0.0585292 -0.136466 0.0196373 -0.093622 -0.063452 -0.145053 -0.114681 0.2779 0.242472 0.416096 -0.124972 -0.209953 -0.256661 -0.0866652 -0.0316287 0.0605207 0.0981286 -0.113599 -0.259005 -0.277539 -0.0418665 -0.150754 0.206224 -0.0196826 0.133674 0.214655 -0.0226409 0.0749711 -0.178326 -0.139449 0.123781 -0.162726 0.0270648 0.135894 -0.0174048 -0.11155 -0.0026951 0.346313 -0.287327 0.395864 -0.0797138 -0.157711 0.127697 0.204638 0.191629 0.00817249 0.0780088 -0.0803178 -0.0715905 0.103796 -0.440258 -0.190969 -0.123834 -0.212514 0.123529 -0.202448 0.0862949 0.0232594 0.0190822 -0.0239578
Andreas-Vladimir 0.134358 -0.311175 0.117041 -0.264514 0.0151117 -0.254684 -0.306477 0.29482 -0.0188217 0.0513057 -0.151529 -0.0954793 -0.103708 -0.0372709 -0.0360716 0.14757 0.00494013 0.0179891 -0.00026656 -0.12562 0.234195 0.032113 -0.277076 0.00419411 0.428566 0.260198 -0.148647 0.36286 0.0473706 0.179651 0.0271822 0.261366 -0.304408 0.202406 0.136658 0.254542 0.0200296 0.1776 0.274619 0.31659 0.0704423 -0.0885698 -0.150617 -0.172461 0.125638 0.0874873 0.112428 -0.19891 0.209889 0.370064 -0.0216807 0.155428 0.171996 -0.0504095 -0.569181 0.11761 0.474356 0.0760577 0.361789 -0.368761 -0.13767 -0.236277 0.133293 -0.101446 0.0932297 0.175062 0.343056 0.0358883 -0.115948 0.133139 -0.469817 -0.139344 0.337601 -0.193357 -0.0775628 0.346771 -0.110741 0.100281 0.344256 -0.062236 -0.165123 -0.241284 -0.00393237 -0.123172 -0.070662 0.0256943 0.0554722 -0.188813 -0.0211146 -0.0804267 0.00777361 -0.0236059 0.216201 -0.20357 -0.13865 0.0792801 -0.197848 -0.032053 0.227346 0.245545 0.215388 -0.108226 -0.299586 0.0080816 -0.265767 -0.0803284 -0.208379 0.0413864 -0.185077 0.196201 0.0697932 0.0452037 -0.0639947 -0.0805412 -0.0749473 -0.0762085 -0.0242565 -0.0596373 0.120428 -0.0696652 0.0159611 0.35229 0.237595 0.191547 0.0930173 -0.295881 0.151374 -0.313211
Hemerocallis-Yu -0.0278051 0.00741881 -0.239828 0.00460368 0.253699 0.0682256 0.238431 0.092803 0.0792685 -0.0930037 -0.0481445 -0.0971037 -0.051665 0.0262504 -0.0573765 -0.00252341 -0.0178006 -0.141755 0.108746 -0.0131784 0.0305844 -0.0691825 -0.340123 -0.108218 -0.157405 0.0310867 -0.202741 -0.00584159 -0.00408892 -0.164575 -0.0788409 0.0190356 -0.182871 -0.15309 -0.02861 0.187747 -0.0343233 0.00442754 0.0507134 0.186768 0.0539846 0.0487333 0.120523 0.0710049 -0.220364 -0.115006 0.0504959 -0.179274 -5.5231e-05 0.085155 0.0103397 0.217029 0.0226082 0.0529976 0.0684802 0.16788 0.126428 -0.0563924 0.123182 -0.0119961 0.0420889 -0.0295763 0.0283237 -0.0395164 -0.400962 -0.077113 0.123715 0.0836766 0.202607 -0.0894201 0.0462143 0.0770504 0.0149496 -0.194728 -0.0258922 -0.023659 -0.146006 0.17566 0.161851 -0.0898516 0.00623734 -0.0937332 0.0364293 0.0194811 0.0422181 -0.0225737 0.0516784 -0.170277 0.0470255 -0.00379628 0.0280507 0.166723 0.233675 -0.143873 0.0222416 0.220589 0.112324 0.136881 0.228999 -0.0923233 -0.197695 0.103781 -0.0631534 -0.0419025 0.112274 0.0722722 0.0419186 0.281238 -0.177436 0.0325027 0.0749411 0.121519 -0.0740889 0.0678829 -0.0955568 0.275417 0.0690231 0.0245475 -0.00791943 -0.135074 -0.170084 -0.0688294 -0.151098 -0.0639686 0.127404 -0.115351 0.170169 0.0697307
NicolasYu 0.185314 -0.0922354 0.0662804 0.119141 -0.0205165 0.1923 0.140216 -0.16548 -0.0411108 0.0281816 0.149985 -0.321148 -0.125638 -0.188603 0.0582639 -0.212334 0.0711305 0.0114104 -0.0734922 -0.139571 -0.0720864 0.0312542 -0.0489954 -0.122027 0.026703 -0.0234336 -0.192729 0.131443 -0.0135415 -0.0641338 -0.00162935 0.0409335 0.139678 -0.13266 0.00647641 -0.0248613 0.0430958 0.0227068 0.115496 -0.136967 0.0715734 0.0614728 -0.164222 0.137718 -0.11811 -0.0965016 -0.000962116 0.0642012 0.0941703 0.0897813 -0.0530935 0.19345 0.179954 0.0121165 -0.369713 -0.0159107 0.171114 0.000578045 0.36951 0.098009 -0.195196 -0.0436735 -0.166838 0.0611786 -0.257889 -0.197563 -0.123187 -0.437075 0.2226 -0.153784 0.0555692 0.0734962 -0.0792433 -0.044481 -0.215432 -0.154916 -0.0748746 0.215382 -0.154109 -0.0719808 -0.00278137 -0.182536 -0.0229714 0.0751212 -0.137645 0.218422 -0.123839 -0.12178 -0.0719323 0.140494 0.146385 0.0901927 0.23519 0.0963637 0.0497068 -0.134457 0.0669189 -0.0526605 0.224054 0.194512 0.0454129 0.00251042 0.00221105 -0.0850683 0.142043 0.202853 -0.0970515 0.0427851 -0.0480195 0.0121516 0.0322926 0.121302 0.0118807 -0.0258113 0.00678368 0.125523 -0.19353 -0.0850556 -0.0239174 0.0469235 -0.0279757 0.114826 -0.127424 0.0148811 0.212848 0.146672 -0.110788 0.0588849
PeterDeng2 -0.0881858 -0.291698 0.0494267 0.00592673 0.0297748 0.0906528 0.00513491 0.1292 0.104654 0.0647365 0.04816 -0.0475561 -0.129711 -0.0994207 0.225833 -0.158577 0.0971375 0.024471 -0.0213894 -0.116609 0.099787 -0.0747246 0.0592919 0.0342879 0.0530474 0.185033 0.249066 -0.243001 0.030862 -0.0161418 -0.107903 -0.0163668 -0.181431 0.22865 -0.158591 -0.154951 0.0452796 -0.0499315 0.191129 0.0613534 0.128487 -0.204264 -0.110003 -0.226969 0.211685 -0.0513521 -0.0475733 -0.283463 -0.17027 -0.0577107 -0.293666 0.099136 -0.18655 -0.229311 -0.133202 0.12366 -0.307014 -0.0414256 0.124611 -0.270482 0.196489 0.0901051 -0.200396 0.0705479 -0.296007 -0.275752 -0.196824 0.11538 0.113521 -0.126596 -0.0898035 -0.312751 0.0385085 -0.288937 -0.0061004 -0.0134843 -0.0963089 0.103604 0.156238 -0.017808 0.0445412 -0.12032 -0.176866 -0.101697 0.0330421 -0.100584 -0.0843625 -0.17401 -0.0998395 -0.0638669 0.231123 0.00355753 0.587403 0.156942 -0.0506304 0.0991977 0.138519 0.0376198 0.128593 0.0727931 0.149058 -0.136984 -0.155546 -0.0611243 0.11365 0.255123 -0.0189315 0.0250007 -0.0190899 0.181143 -0.0428156 0.0138031 0.00799447 0.108992 -0.0413021 -0.0669927 -0.122935 0.0599926 0.00196865 -0.128717 -0.0255173 -0.00107492 -0.269511 0.0059956 0.145974 0.0795226 0.110242 0.148575
TuringDon 0.0806696 -0.032099 0.0939656 -0.0843598 -0.0842587 0.217599 0.199545 0.182013 0.318997 0.121708 0.0578967 0.170368 -0.00168454 -0.23661 0.100883 0.138707 -0.0132501 -0.104969 -0.325366 0.0898566 -0.126168 -0.0018617 -0.163556 0.0246067 -0.156855 0.00702848 -0.242205 0.0143875 0.216764 -0.0244418 -0.0568386 0.242245 -0.124708 -0.0590243 -0.212103 0.244636 -0.161099 -0.0737465 0.174932 0.176812 0.189791 -0.266808 0.0705446 0.0440319 0.0612716 -0.132714 0.131754 -0.255585 0.0116132 0.0675635 -0.104274 0.182883 0.230593 -0.0908658 0.203854 0.468243 -0.0284775 0.0450403 0.16989 -0.10157 0.0700285 -0.264245 -0.00150836 -0.00242852 -0.0033848 -0.393403 0.0406795 -0.0849851 0.0272688 -0.296762 0.187731 0.111092 -0.0548865 -0.090085 0.0760923 -0.0294942 -0.160741 0.201941 0.1495 -0.0940383 -0.0844759 -0.330103 -0.00688841 0.0397692 -0.19255 -0.225626 -0.141022 -0.200988 -0.352366 0.291988 0.0825109 0.109786 0.0936332 -0.0269133 -0.102947 0.209838 -0.113254 0.00219433 -0.037131 0.143706 0.205162 -0.117278 0.203319 0.0963919 0.130047 0.355015 0.227221 0.0258452 0.0120692 -0.0717097 -0.166698 -0.178887 0.013313 -0.0965998 -0.192367 0.102895 0.039289 0.0871789 -0.0737108 -0.171378 0.170558 -0.2758 -0.192476 -0.275383 -0.00919544 0.00568304 0.184769 0.144767
WxzxzW -0.0954774 -0.474282 0.0370393 -0.218606 0.12682 -0.0392598 0.10164 0.164165 0.191086 -0.028929 0.0782521 -0.123624 0.194794 0.0586715 0.239558 0.0748582 -0.019722 0.246946 -0.0969503 0.0175514 0.000590027 -0.0564376 0.0173465 -0.178922 0.00273394 0.0532858 -0.0319972 0.0324134 0.197891 -0.114896 -0.0102388 -0.0342011 -0.222883 0.231416 -0.000668948 0.113515 0.1118 -0.0918507 0.17311 0.0981223 0.0230966 0.0442157 0.14809 -0.158131 0.0218862 0.167546 -0.0742262 -0.157163 -0.278148 -0.00690177 -0.230333 -0.0131593 -0.110924 0.0261365 0.0614863 -0.108783 -0.0977683 -0.211159 0.206246 -0.16759 -0.0417639 -0.170194 -0.123049 0.0955451 -0.248128 0.151584 -0.0476605 0.0257917 0.154427 -0.00663875 -0.155569 0.20625 -0.000660586 -0.216094 -0.00116713 0.369803 -0.0210181 0.248656 -0.225408 -0.0454593 0.0628837 -0.220389 -0.132219 -0.0470276 0.264887 -0.0711584 -0.0435554 -0.0756116 -0.0941924 -0.0954123 0.125636 -0.13217 0.169556 0.0934779 0.236581 -0.00229843 0.154837 0.0575704 -0.179073 -0.132518 -0.0963481 0.192251 0.124845 -0.233384 -0.0805167 0.100281 0.0174424 0.00937113 0.0681629 0.00402739 -0.119685 0.0932865 0.0291309 0.240327 0.0516282 0.194488 0.0119878 0.109563 0.0712427 -0.153724 -0.168037 -0.169866 -0.116137 0.348724 0.0556745 -0.0831228 -0.213854 0.0289175
YSGG 0.16083 -0.166853 0.0875304 0.209972 0.151186 -0.0978954 0.158694 0.0628474 -0.0440067 -0.180421 0.0388789 0.121681 0.247733 -0.0684115 0.228788 -0.163767 -0.0325695 -0.131788 0.0581167 -0.188962 0.08977 0.154068 -0.117908 -0.234267 0.0720349 -0.0561089 0.0086658 0.0251072 0.0338072 -0.045041 0.22035 0.0958994 -0.0356968 -0.149654 0.219772 0.108321 -0.0752029 0.0358664 0.0308601 0.118607 0.130237 0.031017 0.195124 -0.189353 -0.193709 -0.240153 -0.267259 0.0711571 0.132936 0.0817123 -0.132327 0.250995 0.14678 -0.141753 -0.194379 0.0454974 0.0534592 0.191411 0.296016 0.115952 -0.169726 0.0625992 -0.216574 0.0445851 0.00107816 -0.451447 -0.0531901 0.0314413 0.296527 0.113415 -0.10134 0.234367 -0.0590866 -0.224243 0.0937333 0.088343 0.0377888 0.339928 -0.00282445 -0.132283 -0.0516475 0.0394189 0.0578302 -0.083954 -0.0757266 -0.0114018 -0.0839793 0.0604541 -0.148926 -0.110007 0.0531918 -0.117454 -0.170463 0.136451 0.18488 -0.200964 -0.112484 0.0309196 0.123566 -0.0658004 0.0777093 0.0662485 -0.32877 -0.0781034 0.10067 0.392102 -0.130298 0.0753419 0.437032 0.160169 0.0468182 0.127548 -0.144298 -0.0658817 0.143528 0.0872669 -0.0294276 0.131041 0.0475634 -0.112083 -0.174078 -0.273141 -0.0605483 0.00575001 0.150133 -0.235084 0.09453 -0.18641
bai-ru-bi ng-58 -0.0576829 -0.078043 0.199938 0.106647 0.00183119 -0.174115 0.167006 0.0578036 0.0137747 0.24435 -0.161129 0.177438 0.120418 0.167377 -0.167042 -0.127727 0.243284 0.045629 0.0317399 0.164924 0.0762023 0.120407 0.165509 0.236496 0.0864093 -0.139644 -0.150032 -0.209288 -0.02955 0.133446 -0.000324122 0.0655789 0.0390139 -0.102505 -0.0674672 0.263372 -0.18352 0.248686 -0.220552 0.467576 -0.0409 -0.191178 -0.048606 0.303855 0.196072 0.106164 0.207358 -0.189827 -0.159485 -0.0543078 -0.0137982 0.202188 0.194502 -0.101709 -0.209255 0.142881 -0.245916 -0.161713 0.229067 -0.320086 0.0644272 0.167976 0.0198096 0.0500839 -0.326427 -0.291332 0.0348424 0.213174 -0.055989 -0.17649 0.055491 0.109233 -0.174748 -0.382093 0.224805 0.215611 0.0721651 0.105619 -0.0791331 0.142233 -0.158566 0.291047 -0.140469 -0.034857 0.348828 -0.0721366 -0.0405697 0.195492 -0.0527182 -0.127085 0.222948 -0.104423 0.52078 0.239382 0.0498672 0.126948 -0.302507 -0.0515806 -0.270647 0.173695 0.525789 0.10388 -0.0658825 0.0561205 -0.053092 -0.108663 -0.191847 0.00199492 0.184722 -0.0524072 -0.0163343 0.0122669 0.127621 -0.190779 0.19059 -0.121454 0.0323026 0.0797946 -0.152632 0.226397 0.143282 0.231593 -0.178225 0.206925 0.10808 0.314163 0.119804 -0.098447
bo-cai-28-7 0.0635297 -0.103437 0.0752967 0.0393324 -0.0756303 -0.0123449 0.143038 0.0920903 0.0318123 -0.0767546 0.0757476 -0.0290935 -0.084991 0.0967045 -0.0399375 -0.101826 -0.143606 0.00908727 -0.00527006 0.0207881 0.166797 0.155756 -0.0427152 -0.132097 -0.0141759 -0.0222639 0.0569911 0.151697 -0.0367155 0.260065 0.253346 -0.132621 -0.0207728 -0.0832531 0.248304 0.215668 -0.236289 0.0643004 -0.0987848 -0.0147401 0.204014 -0.0634207 -0.0731065 -0.174943 0.0322304 0.105108 0.0739004 -0.0892871 0.0164857 0.0607013 -0.127235 0.170907 -0.00635716 -0.0178183 -0.0320524 0.0715618 0.107356 0.063676 0.393261 -0.0161361 -0.0481443 -0.0399385 0.0419554 -0.0355986 -0.184801 -0.176836 -0.0533584 -0.0498312 0.0601195 0.062331 -0.0967167 0.18529 0.0499131 -0.264148 -0.0772723 -0.0796283 0.0328821 0.0784739 -0.133376 -0.0896505 0.120877 0.0408752 -0.164668 -0.146883 0.161779 -0.139573 -0.0120652 -0.0564615 -0.0491516 -0.0390444 -0.00254071 0.359674 0.0810876 0.00590102 0.0521462 -0.0619509 -0.00233961 -0.105321 0.0691729 0.0578874 0.0731678 0.124613 0.065256 -0.0399954 -0.0585974 0.112944 -0.0740236 -0.0260493 -0.107389 -0.271482 0.0138294 0.0430416 0.11343 0.120793 0.0597297 0.129046 0.00134249 0.0414255 0.00238896 -0.125217 -0.155251 -0.0332037 0.0454496 0.115208 0.0383408 -0.097317 0.0261402 -0.017914
botongli 0.0679933 -0.17068 -0.0243916 -0.0773185 -0.15233 0.102016 -0.0572584 -0.14999 0.0250574 0.051251 0.187086 0.0606345 0.10414 -0.07582 -0.0507928 0.0755173 0.00806919 -0.109961 0.101311 -0.0159598 0.0771548 0.0273263 -0.00348726 -0.257051 0.182762 0.156105 0.193672 0.0302979 -0.106326 -0.0721192 0.0802879 0.000132862 -0.0873621 -0.408973 0.35347 -0.00943763 -0.0913852 0.158585 -0.0240264 0.00419549 -0.100362 -0.104679 -0.00472704 0.140019 -0.307924 -0.0129438 0.212122 -0.295353 0.0215561 -0.128688 -0.0356453 0.300918 0.258237 0.0628889 -0.2503 -0.114227 -0.280219 0.133198 0.223754 -0.147522 0.198851 -0.106891 0.0992598 0.145783 -0.308174 -0.235791 0.0469275 0.202868 0.224788 0.0611682 -0.123888 0.0606719 -0.000413105 -0.0817159 -0.0921659 0.0273412 0.107788 0.00792873 0.140603 -0.273326 -0.213278 -0.0714486 0.0186125 0.0343928 -0.337692 0.110184 0.0868768 -0.233113 -0.0556876 -0.193154 0.260635 -0.0125016 0.226517 0.0889757 0.00160044 -0.0615479 -0.0884672 -0.39453 -0.0984419 0.221052 -0.0438037 -0.0415432 -0.0478323 0.203974 0.14863 0.146128 -0.0962615 0.248968 -0.0561093 0.06297 -0.061257 0.168267 0.121756 -0.239573 0.238488 -0.223675 -0.070978 -0.106605 0.0492415 0.243912 0.0538298 0.0391531 0.220259 0.291822 0.137847 0.0301234 -0.196101 -0.0256236
calistawang -0.0407601 -0.110275 0.129682 -0.0783475 0.14143 -0.178505 0.0306596 -0.0317853 -0.144849 -0.281664 0.0894927 -0.190669 -0.0328465 0.216669 0.140291 -0.182088 0.0854057 -0.100036 -0.330679 -0.030162 -0.248073 -0.0851044 -0.188496 -0.00141544 0.187664 -0.0600931 0.0700891 0.0577048 0.0188601 0.0929443 0.0885924 -0.0140117 -0.0166641 -0.0890834 0.0508919 0.0348263 -0.0986467 0.0561836 -0.0198486 0.103478 0.093785 -0.0214979 0.1195 -0.255993 0.0723514 0.0594988 0.0994434 0.0493427 -0.294431 -0.180204 -0.0589444 0.191484 0.117236 0.175829 0.0628984 0.22545 0.129882 0.433824 0.34698 -0.17679 -0.122989 -0.238278 -0.0202521 0.0493651 -0.190042 -0.0592284 0.14871 -0.0543475 0.00519059 -0.15793 -0.000669239 -0.163113 -0.0742933 -0.0725836 -0.119812 -0.0862922 -0.0103522 0.08048 0.000201651 -0.213413 0.0525558 -0.313684 -0.15225 -0.124009 0.0906276 0.0687513 -0.0112547 0.0348302 0.145061 -0.0655764 0.116068 0.24418 0.262667 0.0276705 -0.026254 0.0480221 -0.100419 -0.138137 -0.0950265 0.0189147 0.0581953 0.0721523 -0.0330149 -0.13358 -0.169474 -0.0104033 0.0870495 -0.0628733 0.146107 -0.159845 -0.0264067 0.184489 0.105217 0.228337 -0.166092 0.0524952 -0.0911269 0.0732429 -0.244405 -0.236802 -0.0929274 -0.193662 0.110577 0.137233 0.116475 -0.355449 -0.101257 -0.066549
chenqin 0.167124 -0.0813238 0.0574517 -0.00605383 0.0495013 0.113145 -0.208598 0.253942 0.129693 -0.179585 0.19821 -0.251636 0.0364105 -0.0626839 -0.00534785 -0.119288 0.176708 0.0445276 -0.124445 -0.158856 0.232973 0.239688 -0.00677471 -0.249183 0.213107 -0.0126587 0.142325 -0.104966 0.0194666 -0.0756982 -0.0551443 0.0503766 0.169606 -0.187856 -0.0750447 0.0352263 0.0619305 0.0368046 0.00143107 0.19079 -0.00108031 -0.0428141 0.184237 -0.157282 0.0119964 -0.151563 0.159435 -0.0563399 -0.0133512 0.0668197 0.0130296 0.0422048 0.0648874 0.10272 -0.147041 0.182033 0.116271 0.252384 0.233519 0.100658 0.0561768 -0.0933059 -0.043878 0.030532 -0.381452 -0.32255 0.0764715 -0.213002 -0.0158779 0.10728 -0.14316 -0.0532076 -0.0706789 -0.238839 0.0812277 0.0344373 0.0983481 0.167379 -0.180867 -0.00767749 0.144083 -0.177206 -0.111244 -0.100391 -0.0319776 0.179278 0.0391014 -0.196569 0.0397384 0.136981 0.0830772 0.174593 0.230131 0.0805727 -0.0952284 0.101635 -0.0795589 -0.0224472 0.14723 0.0655074 0.14018 0.220365 0.155894 -0.121479 0.11631 -0.158 0.0327812 -0.0989299 0.0644994 0.0737809 -0.139265 -0.00891881 0.202814 0.106345 0.0704545 -0.0903814 -0.0738133 -0.101482 -0.100962 -0.063168 -0.014792 0.00499091 -0.107354 0.122374 0.0863483 0.0297712 -0.304548 0.0697112
cici 0.145 0.0746731 0.0756034 -0.0213075 0.0143679 -0.0289703 -0.0715932 0.0579295 0.172314 0.150913 -0.0158398 -0.115296 0.0488904 -0.0476037 0.0568298 0.0103418 0.107009 -0.227779 -0.025538 -0.16165 0.20928 0.00479082 -0.00405402 -0.109571 -0.146921 0.0284448 0.254537 -0.240491 -0.119754 0.158309 0.30213 0.0698393 -0.27046 0.0868556 -0.185752 -0.168492 0.0393507 0.00998626 -0.0622046 0.169828 -0.118082 -0.102414 -0.0687497 0.0455824 -0.101398 0.0857131 -0.0323065 -0.254356 0.148867 -0.117334 -0.0924876 0.257756 0.0496444 -0.0266004 -0.2586 -0.00641357 0.0402888 -0.029453 0.118268 -0.0762961 -0.043907 0.0871415 -0.00305477 0.0372502 -0.211054 -0.173801 0.240672 -0.0974766 0.168761 -0.0925178 -0.231219 0.0195014 0.0245209 -0.112682 0.0786287 -0.110623 0.0278945 0.26527 0.0187556 -0.235757 0.0253026 -0.0920329 -0.0825833 -0.130967 0.0605278 -0.0420281 -0.128924 -0.0672922 -0.0992792 0.0352505 0.108687 0.271266 0.280527 0.228598 0.0062918 0.0126138 0.0403672 0.0842587 -0.00859638 -0.0953302 -0.0346816 -0.193037 -0.0396238 -0.0708328 -0.0141367 -0.0524029 0.115739 0.0786448 -0.0545016 -0.026131 0.0408607 -0.0239944 0.0802503 0.207436 0.207793 -0.0499629 0.0655741 0.0130178 -0.203503 -0.0848475 0.0203872 -0.176146 -0.10965 0.105589 -0.0275887 0.0930567 0.0451111 -0.113606
dongdongqiang 0.00389474 -0.142541 -0.148281 -0.0531601 -0.141982 0.0369142 -0.0127578 0.0989779 0.329929 0.0911601 0.0140146 0.102981 -0.0378305 0.0444137 -0.00815708 0.00579675 0.194762 -0.0512716 -0.0287248 0.063166 0.0821834 0.0191927 -0.128691 -0.0639525 -0.0235798 -0.0862569 0.131808 -0.0851152 -0.0256995 -0.024877 -0.0217386 -0.04092 0.136042 0.142414 -0.222142 -0.0184661 0.0423437 0.145454 0.00546221 0.223068 0.022736 -0.247886 -0.0982403 -0.219048 0.125203 0.124635 -0.152155 -0.0666266 -0.0151636 -0.0766376 -0.0172746 0.00890242 0.150069 -0.032064 -0.239011 0.188781 -0.0287426 0.147674 0.218115 0.114138 0.00387862 -0.338603 -0.0534303 0.0822315 -0.340789 -0.0479929 0.0607261 -0.0835996 -0.0375778 0.114231 0.0765398 0.0186228 -0.145306 -0.120368 -0.0291934 -0.050414 -0.0795956 0.315195 0.0900598 -0.0309308 0.0987064 -0.0527905 -0.0450203 -0.216819 -0.154799 0.0374944 -0.101253 0.0527415 -0.216153 -0.0333594 0.258564 0.0272215 0.0834605 0.0572159 -0.209758 -0.11047 0.125794 -0.127679 0.27629 0.016624 0.0864284 0.0281685 0.0355848 -0.198666 0.10059 -0.0118084 0.100426 0.0344376 0.00278153 -0.0199996 0.0922275 0.0527914 0.168151 0.0460715 -0.0936539 0.195453 0.0670142 0.190705 -0.246522 -0.0244401 -0.0158688 0.014814 0.0698663 0.0696856 -0.112098 -0.0778405 0.0982298 -0.172004
douzishushu -0.0954475 -0.213528 0.209085 0.0827235 -0.120055 -0.127484 0.0484818 -0.0238761 -0.153776 0.00665887 0.394892 0.235441 0.141432 -0.205527 0.00360762 -0.184038 0.278237 -0.0445719 0.0657284 -0.00644875 0.0781043 -0.158248 -0.078236 -0.382071 0.155907 0.0998071 -0.0180196 0.093834 0.113779 -0.144033 -0.0541234 -0.0886054 -0.115602 -0.10396 0.10955 0.0604564 0.246317 0.0797117 -0.0746077 -0.0242263 -0.0989993 -0.224709 -0.0723821 -0.00135256 -0.0405828 -0.0201838 0.0280522 -0.145308 0.112387 0.119821 0.241412 0.0960663 0.195064 0.212319 -0.0555947 -0.0813332 0.0639001 -0.0327389 0.130388 0.247665 0.0808189 -0.334748 0.0809711 0.000468186 -0.230847 -0.051902 0.00583884 -0.0436073 0.193884 -0.148414 -0.0116114 0.224527 -0.100567 -0.149623 -0.383715 -0.0455757 0.0551816 0.21017 0.189345 -0.0173745 -0.0586409 -0.00436022 -0.0636629 -0.0612928 -0.0714461 -0.165033 -0.218856 -0.278152 -0.0939099 0.0474687 0.167517 0.0171655 0.215372 -0.0131162 0.0662783 0.0292577 0.0422679 0.00985089 0.215911 0.0893036 0.113963 -0.0652289 -0.125499 -0.0424056 -0.0216667 0.112906 -0.0509287 0.156896 0.232908 -0.0480383 0.0226227 -0.0513698 -0.0129324 0.308626 0.0150625 0.0525582 -0.0983501 -0.0850575 -0.167954 -0.00849781 -0.0192447 -0.0401531 0.0128881 0.100183 -0.085364 0.0456342 -0.126496 -0.252354
e-mo-de-nai-ba -0.0129249 0.0632925 -0.0632886 -0.127058 -0.0313283 0.0322365 0.154938 -0.0138687 0.0682876 0.057425 0.0409955 0.0865215 -0.266945 0.0811025 -0.287929 0.0316938 0.054549 -0.0522696 0.0907898 -0.0647431 -0.254016 -0.133217 0.0407379 -0.108893 0.0835707 0.0910991 -0.0420095 -0.138913 0.0325332 0.0106186 0.217428 0.133753 0.060855 0.11337 0.0160564 -0.00795732 0.0614025 -0.0163453 0.0489442 0.0351468 0.0580691 -0.0142297 0.168794 -0.0158297 0.0305321 0.0397566 0.165823 -0.230128 -0.128674 0.191059 -0.0170346 -0.0845909 0.16491 -0.142748 -0.278943 0.128212 0.0614527 0.0117651 0.192611 0.0808323 0.00785271 -0.048618 -0.0160995 0.0267648 -0.357611 -0.0883673 0.075621 -0.0947134 0.0211195 -0.106165 -0.113985 0.152878 0.0799685 -0.0734024 -0.0892132 -0.0828765 0.126956 0.0935129 -0.0226357 -0.119017 0.139506 -0.0562944 -0.135105 -0.0308875 0.139005 0.219316 -0.0040749 -0.085334 0.0143235 -0.138013 0.226599 0.0253649 0.203966 0.254031 0.050817 0.0315475 -0.043102 0.0113385 -0.0867545 0.140181 -0.0278561 0.151092 0.0595952 -0.204871 0.160904 0.0906315 -0.0926006 -0.0990372 0.0623934 -0.0802774 0.0958095 0.0816433 0.0494032 -0.187569 -0.0351013 -0.0614048 -0.0132454 0.0510947 -0.245856 0.0146788 -0.00884148 -0.0509307 -0.165417 0.122424 -0.186736 -0.092561 -0.0670521 -0.0405291
feifeimao 0.0967251 -0.171605 -0.0396308 -0.150166 -0.0608406 0.0980834 0.00518257 0.0611114 -0.0155375 0.0463084 -0.0829469 -0.0265546 -0.184487 -0.0462837 -0.100072 0.163097 0.240716 -0.11564 -0.166823 -0.0295303 0.06971 -0.0178728 -0.15589 -0.250908 0.145978 0.0463759 0.141725 0.0526888 -0.139887 -0.0533237 0.191505 0.190188 0.196239 -0.0820386 -0.0101308 0.03777 -0.252576 -0.0118991 0.163275 0.0588946 0.113462 0.047664 0.241205 0.0365248 0.17887 -0.0848191 0.0359611 -0.210674 0.0221503 -0.164611 0.00726711 0.0438075 -0.0848935 0.127605 -0.0951838 -0.124327 0.128559 0.144695 0.237644 0.021945 -0.190623 -0.0832664 -0.075029 0.0499697 -0.335462 -0.190786 0.0185039 0.00693335 0.00345339 -0.0986068 -0.0277689 0.1476 0.123428 -0.00334097 -0.0106591 -0.107084 0.0370458 0.167605 -0.0552321 -0.0518464 0.219957 0.0286874 0.0907652 -0.109833 0.0410723 0.0844292 -0.00459137 -0.120854 0.161251 -0.161986 0.0114561 0.1414 -0.0539605 0.178242 -0.048391 0.193849 0.106933 -0.0626308 -0.0251975 0.00320089 0.242613 -0.0208742 -0.164102 -0.047123 0.103692 0.172771 -0.0036055 -0.194293 -0.0659388 -0.0990592 0.0650413 0.0911584 0.0232175 0.0134658 -0.0484278 0.0530525 -0.0535578 -0.180202 -0.064796 -0.294252 -0.0366714 -0.274991 -0.0104801 -0.00585423 0.113486 -0.0503848 -0.113734 0.166574
fox4x4x4x -0.320487 -0.418758 -0.166833 0.00701303 -0.245383 0.0603812 -0.0691341 -0.0662992 -0.0155504 0.0249185 0.403337 0.145181 0.0898039 -0.219227 -0.0652293 -0.288212 -0.0382785 -0.0961477 0.359775 -0.00906621 -0.0880545 -0.296957 -0.0279893 0.0312761 0.200178 -0.113227 -0.242314 0.201962 0.265823 0.249826 -0.0644853 0.0298721 -0.106576 0.0313562 -0.0299072 0.167142 -0.0443488 0.0998952 -0.305252 0.287167 0.210372 -0.277375 -0.333236 0.336116 0.187048 0.115455 0.145525 -0.167136 0.0565428 -0.00930879 -0.0178963 0.0737733 0.512956 -0.183703 -0.31367 0.0887681 0.260407 -0.00363809 0.226272 0.0927405 -0.00689485 -0.0172962 0.0784122 0.101811 -0.113742 -0.148754 0.133176 -0.0225274 0.0945907 -0.104682 -0.0733534 -0.00170957 -0.0358698 -0.365589 0.154594 0.150937 0.0785357 -0.143706 0.0519725 0.1956 -0.114316 0.111953 0.0714475 0.15342 -0.0364917 -0.0239311 0.0904523 0.0344737 -0.0670684 -0.078997 0.28002 0.0310219 0.385438 0.0904151 -0.0939016 -0.156171 0.168999 0.0652074 -0.0298257 0.0276153 -0.138651 -0.0510795 0.144557 0.0484493 -0.341709 0.00384838 -0.185451 0.254239 0.164126 0.19161 -0.0141074 0.0570002 -0.0932096 0.0852637 0.157721 -0.055264 0.0884716 -0.0371811 -0.190525 -0.164454 -0.133871 -0.00990833 0.00251515 0.1498 0.091612 -0.190485 0.155112 0.0103289
fu-er -0.0889609 -0.151675 -0.020822 0.0974278 -0.06438 0.0586446 0.0652919 0.191054 0.174708 0.0688853 0.0281581 -0.0124926 -0.0301508 0.0093658 0.0947584 -0.0185045 -0.0147276 0.00770546 -0.00107008 -0.0601711 0.0607226 0.125154 -0.135206 -0.126465 -0.037397 -0.108716 -0.0796652 -0.0545823 0.0206947 -0.0188255 0.0864436 -0.0650333 0.0616957 0.0244072 -0.0357801 -0.0773018 -0.0911844 0.113031 0.0998425 0.149976 0.0066621 -0.00932464 0.00498492 0.00718312 0.149666 -0.166642 0.104589 -0.28398 -0.118919 -0.015256 -0.00373739 0.162372 0.178208 -0.0284163 -0.179739 0.0740532 0.100418 0.0755067 0.309646 0.0426719 0.0548223 -0.0134128 0.00515683 0.0245658 -0.257515 -0.0775188 0.124782 -0.169723 0.00801237 -0.0119194 -0.117547 0.199644 0.0510355 -0.0525967 0.0512195 0.125004 0.0439737 -0.045559 0.105359 -0.0982152 0.0947934 -0.00552204 -0.0820699 -0.0319776 -0.00308437 -0.0239407 0.132886 -0.0569785 -0.0703845 0.0383879 0.184879 0.0527817 0.126358 0.047928 -0.165569 0.0793171 0.00292385 -0.00867256 0.171136 -0.0384689 -0.0284926 0.0407381 0.0254336 -0.0762134 0.081393 0.0686475 -0.0201777 -0.00431312 -0.087734 -0.0961534 0.0190856 0.155268 0.0018676 0.106816 -0.0260975 0.0977822 0.169471 0.129084 -0.281798 -0.0050792 0.043955 0.0479305 -0.108804 0.0899056 0.0949327 -0.0249014 -0.0914702 -0.0602741
gayscript 0.0479929 -0.243066 -0.0392334 0.00675578 0.153071 0.0953478 0.198371 -0.0153565 0.21089 0.238028 0.014893 0.114013 0.0336872 0.130203 -0.0596687 -0.0770396 0.0420769 0.0290823 -0.153714 -0.200648 0.293708 -0.21983 0.119437 -0.228799 -0.0152927 0.607334 0.0476616 -0.180587 -0.353746 -0.354819 -0.0737112 -0.129312 -0.000176416 -0.12039 -0.160735 -0.0489189 0.21375 0.138014 -0.133699 -0.0875282 -0.212113 0.109606 -0.0884269 -0.217576 0.210263 0.0591849 0.167807 0.150277 -0.127283 0.0781757 0.0882119 0.114676 0.0871358 -0.133193 -0.347437 0.177373 -0.0278924 0.0504485 0.353924 -0.25436 0.360029 -0.149412 0.0752329 0.15716 -0.036006 -0.252964 0.254443 -0.0285288 -0.26306 0.00830166 -0.103818 0.000158624 0.169913 -0.00703791 -0.162245 -0.150694 0.106902 0.0674919 -0.258412 0.0292529 0.173022 -0.0511065 -0.0630325 0.00654416 -0.043346 -0.144284 -0.179657 -0.097983 -0.0137794 0.00916753 0.207494 0.220994 0.272646 0.443383 0.0507122 0.112397 0.0490448 -0.102327 0.042723 -0.155912 0.257726 -0.128939 0.0399306 0.121632 0.0740233 0.0780384 0.0591218 0.082177 -0.0328214 -0.338706 0.0259497 0.105104 -0.0210275 0.038954 0.13027 0.00735466 -0.0212576 -0.0264662 -0.141797 0.00186634 0.00131851 -0.270354 -0.228491 0.162676 0.0304806 -0.0684398 -0.182282 -0.319567
haoqishiyanshi 0.047038 -0.0526045 0.0381395 0.0381826 -0.0072874 -0.0738182 0.156515 -0.0769096 0.0546694 0.055026 -0.0796192 -0.167237 -0.172575 -0.00308158 0.00449066 0.0649661 0.0467088 0.151556 0.0145452 -0.111287 -0.244409 -0.163801 -0.0942995 -0.168686 0.153935 0.0174031 -0.0579954 -0.0820595 -0.178401 -0.0109043 0.0804596 -0.12336 0.241843 0.160657 0.0113604 -0.0454837 0.179921 -0.0533523 0.0937324 0.169686 -0.0525442 -0.121349 -0.031175 0.0363797 0.217412 -0.111152 0.0567595 -0.412146 0.0534614 -0.138056 -0.00910515 0.0686763 0.0707528 -0.00297016 -0.0321661 0.112838 0.103885 -0.068109 0.288398 -0.133644 0.19732 -0.0632428 -0.0610342 -0.0574852 -0.301093 -0.180908 0.080852 0.0860874 0.0550555 0.037087 0.0878658 0.0735152 -0.0407322 0.0154178 -0.210212 0.0777293 -0.258499 0.110119 0.0976614 -0.0877796 0.0606248 -0.154707 -0.167707 0.207408 -0.0942638 -0.158005 -0.126087 -0.02968 0.000887588 0.186125 0.146568 0.199618 0.103201 0.184871 -0.00367694 -0.0338953 0.0565244 -0.215009 0.0925189 -0.189951 -0.16872 -0.0826208 -0.0253224 -0.0698585 0.169526 0.0147597 -0.132341 0.00670879 -0.122156 -0.0218195 0.202889 0.14599 0.106669 -0.0581673 0.147382 0.0355752 0.0954206 -0.20115 0.0716344 -0.0218456 -0.0458577 -0.0984966 -0.045758 0.00793713 -0.266299 0.214012 0.0625786 0.0447121
huo-zhen-bu-lu-zi-lao-ye -0.125348 -0.151365 -0.224384 -0.0845266 -0.004321 -0.12229 -0.11018 0.107066 -0.0234407 0.000222881 -0.140434 -0.0187286 -0.0609994 0.152918 0.139184 -0.0163212 0.0773298 -0.206784 -0.1424 0.0684955 -0.0846006 -0.11621 -0.208036 -0.37854 0.138631 0.00133909 -0.191298 -0.0769598 0.0974214 0.0260554 0.0401413 0.0488566 0.0620811 0.126632 0.00838547 0.149063 0.0563627 0.060545 0.18753 0.202994 0.190937 -0.271511 -0.0497799 0.0843863 0.0336226 -0.0449711 0.200259 -0.212027 0.0804014 0.119498 0.0277426 0.232139 0.233804 -0.00129805 -0.0866446 0.0591305 0.261291 -0.0320899 0.210331 -0.123289 0.0973867 -0.18435 0.0203039 0.131866 -0.106268 -0.261996 0.0627342 0.163346 0.105139 0.0474252 -0.144087 -0.0296066 0.0118778 -0.200785 0.0147224 -0.101692 0.0397173 0.121253 -0.19032 0.11519 -0.113941 0.0274258 -0.113397 -0.183052 0.0526987 0.09658 -0.0494443 0.032709 0.0334927 -0.0660086 0.0744663 0.0571418 0.261034 0.0366367 0.155597 0.064406 0.102069 0.124733 0.0803393 -0.075352 -0.073362 -0.0686247 -0.0656444 -0.137341 0.111011 0.0183002 -0.249681 0.0137092 -0.161701 0.0669474 0.099765 0.354372 -0.0322191 -0.0499425 -0.138939 -0.159859 -0.0830959 0.146309 -0.019518 -0.24893 -0.0183679 0.09345 0.0528141 -0.00224681 0.00772838 0.0742532 0.0675322 -0.125541
jiaoshoutv 0.094305 -0.324725 0.0279474 0.0757323 0.157948 0.148578 -0.0122912 -0.106553 -0.121159 0.278904 -0.0173885 -0.0789721 -0.115523 0.0115203 -0.149523 -0.0788352 -0.104349 0.0371653 0.0712551 0.058528 -0.238441 -0.0644739 -0.288096 -0.145796 -0.0413479 -0.175429 -0.0712494 -0.000964974 -0.275618 -0.00306048 0.0960814 -0.0270201 -0.101929 0.177233 -0.209524 0.125364 0.21202 0.143718 0.117915 0.08988 -0.167256 0.0899634 0.110117 0.107 0.0619196 0.0613445 -0.0311104 -0.150131 -0.0821221 -0.128309 0.222108 0.140611 -0.0615948 0.0861853 -0.17371 0.0645219 0.222926 0.147518 0.265338 0.155944 0.121307 -0.239064 -0.105397 0.192456 -0.0911196 -0.161429 0.0608788 0.220889 0.160447 -0.321969 -0.220901 0.119606 -0.0943067 -0.132512 -0.052331 0.094336 -0.0534453 -0.0178233 0.0103491 0.0446634 -0.0176681 -0.134306 0.0412024 -0.107978 -0.0327435 -0.0684576 -0.101286 -0.183781 -0.0387415 -0.0825249 0.299072 0.0267344 0.126009 -0.0195307 -0.239429 -0.208827 -0.268066 -0.0464276 -0.0258923 -0.00869927 -0.000547958 -0.00160544 0.102053 0.0459817 0.0591106 0.1042 -0.0785926 0.0441989 -0.304205 -0.110829 -0.0823183 0.019074 0.0772962 -0.0922363 0.192351 0.117749 0.0401345 0.100191 -0.184567 -0.0185467 0.128508 -0.0461224 -0.128316 0.0720174 0.0279559 -0.185172 -0.219241 -0.209416
jixin -0.0815829 -0.189433 0.00114607 0.106181 -0.0119778 -0.0489884 0.072699 0.036245 0.130721 0.0638222 0.118591 -0.178544 -0.0510305 0.131787 -0.0271031 0.118942 -0.0151888 0.0417733 -0.0672019 -0.0267044 0.0306007 0.0465471 -0.0257311 0.0638615 -0.121449 -0.0190456 -0.0483933 -0.182251 0.0668183 0.061961 0.126964 -0.0788259 0.0827708 0.0724687 -0.107168 0.0845345 -0.110264 0.0841006 -0.00154741 0.0733583 0.0819451 -0.163441 -0.0333773 -0.0370883 0.0522741 0.00196316 0.18703 -0.0992982 0.0922834 -0.199281 0.0427885 0.00714242 0.0705321 0.176541 -0.21949 -0.0385093 -0.0478084 0.130326 0.240759 -0.132542 -0.0352702 -0.177758 -0.0917376 -0.0441496 -0.267947 -0.095745 0.0973712 0.0100571 0.168689 -0.000323639 -0.00183801 0.0656486 0.0921588 -0.157739 0.0576163 0.0286575 -0.018275 0.177829 -0.0715561 -0.0462297 -0.0033004 -0.167073 0.0212013 0.0211015 0.0720739 -0.057373 0.0188645 -0.129662 -0.0504528 -0.0633023 0.158134 0.121386 0.364686 -0.0231557 0.0943258 0.174993 0.0859001 0.100136 0.0901047 -0.0838748 -0.111422 0.117991 -0.0457382 -0.149781 0.0291938 0.0867041 -0.0408424 -0.0490222 0.164316 0.0437675 -0.0359574 0.0991423 0.0524512 0.0868759 -0.019805 0.112651 -0.0151461 0.106489 -0.186247 -0.0219528 0.0189483 0.183183 -0.067764 0.0493733 -0.052437 0.0255247 -0.0120188 -0.0173879
kaiserwang730 -0.0737241 -0.0960087 0.131085 -0.196071 -0.118553 0.0347265 0.222453 -0.159759 0.00703158 -0.19998 0.0746472 -0.118147 0.110366 -0.127048 -0.0429139 -0.0713338 -0.0442824 0.0612163 -0.0507263 0.16499 0.0645723 0.00242278 0.119813 0.128401 0.211217 -0.273226 -0.151845 0.182523 -0.10674 -0.140958 0.185204 -0.0688906 -0.0798978 0.0577827 -0.0884906 0.044094 0.0744886 0.0593478 -0.0835304 0.372968 0.0776199 -0.0210669 0.091783 -0.00615942 -0.0615026 0.036318 0.0411969 -0.137763 0.267657 -0.0185026 0.131132 0.293003 0.176927 -0.0674122 -0.161535 -0.0530097 0.270153 -0.212589 0.123984 -0.0717888 -0.0489867 -0.0221853 -0.0931548 0.00285345 0.0837076 0.0846083 -0.0109409 -0.0279134 0.023509 0.203253 -0.225793 0.062833 -0.0851812 -0.181654 -0.131295 0.223951 0.0286464 0.147901 0.00697578 -0.211984 -0.0129782 -0.0935277 -0.0635767 -0.168434 0.22045 0.0952534 -0.0629263 -0.210805 -0.0168891 -0.122379 0.0134924 -0.0314943 0.189887 0.246364 0.0851833 -0.0816963 -0.121764 -0.00265994 -0.0929128 -0.09871 -0.184878 0.0487958 -0.0612398 -0.0920422 -0.165123 0.0881714 0.0267019 0.114543 0.0820282 -0.115453 0.00973966 0.0319544 -0.059497 0.0418948 0.122257 0.137459 0.16176 -0.169053 -0.0811531 -0.0858559 -0.0988883 -0.10738 -0.0771158 0.105891 0.115856 0.0342203 0.0223425 -0.212962
kennethtse 0.113179 -0.350549 0.159538 -0.045563 0.0381116 0.121416 0.132833 0.0944201 0.0244661 0.19051 -0.367812 -0.100683 -0.146974 0.0519447 0.209954 0.262446 -0.0447066 -0.317211 -0.190879 -0.0702301 -0.164291 -0.227644 0.0118093 0.291062 -0.0576382 -0.108801 0.0550752 0.168527 0.18177 0.245633 -0.248179 0.137628 0.148969 -0.19424 -0.0915472 0.245829 0.128939 0.0744059 0.0538515 0.0635805 0.0447651 0.264838 0.0737883 -0.059519 0.14107 -0.00233166 0.17614 0.0712606 -0.0707948 0.194502 -0.167542 0.0881412 0.0785112 -0.164444 -0.151586 0.15352 0.167702 -0.066666 0.095135 0.0995536 0.093042 -0.0427353 -0.116283 0.0352438 -0.422995 -0.03365 0.206804 0.136255 0.234002 -0.0522671 -0.326608 0.203108 0.34614 -0.129668 0.0164676 0.188574 -0.0401043 0.0375229 0.0612558 -0.095623 -0.354368 0.0576567 -0.0226156 0.133338 0.0123681 0.311767 -0.0132681 0.000421353 0.100647 -0.163562 -0.199289 0.304062 -0.0911732 -0.0419198 -0.107516 0.040362 -0.115195 -0.00497069 0.208639 0.219408 -0.00456865 0.135794 -0.00664845 -0.333436 0.0671556 0.161172 0.136326 0.252456 0.325862 0.0176449 0.0627768 -0.00709874 0.0912664 0.0993539 0.159817 0.143475 0.0902595 -0.0198365 -0.184341 -0.463755 -0.0844121 -0.0849368 -0.12192 -0.0414637 0.165868 -0.139989 0.272487 0.144619
lanlingyeyu -0.258438 -0.161182 0.173992 -0.19575 -0.207341 0.0283132 0.167787 0.0931035 -0.0673478 0.146548 0.0618456 -0.210685 -0.0596438 -0.0131793 0.0322765 -0.0851993 0.0791383 -0.0435071 -0.067055 -0.214696 -0.139215 -0.225125 -0.0442619 0.0575693 0.0620981 -0.125306 -0.30514 -0.0618488 -0.0921901 -0.023136 0.110644 0.202792 -0.217422 0.312173 -0.162556 0.386452 0.00983034 0.196738 0.398178 0.160344 -0.109921 -0.0328827 0.125361 -0.0149173 -0.0697203 -0.00474088 -0.213953 0.0106645 -0.17673 0.16657 0.0041255 0.13802 0.159405 -0.0721789 -0.105537 0.111149 -0.234575 -0.0232449 0.049052 0.125214 0.163942 -0.144252 -0.249251 0.177034 -0.201157 -0.318181 0.231799 -0.0146133 0.146934 -0.00397777 0.0275763 0.167389 -0.049747 0.135645 -0.0100342 0.269764 -0.182189 0.0963128 0.295625 -0.152143 -0.00609797 0.243388 0.0548925 -0.124108 -0.0602892 -0.0974798 0.0362043 -0.119226 0.0680189 -0.0864109 0.123515 0.0082974 0.127064 0.0458289 -0.135874 -0.0939097 -0.0540053 0.120259 -0.0489376 -0.144035 -0.012763 0.104107 -0.146847 -0.0613917 -0.0436656 0.112889 -0.0447785 0.0672046 -0.0358711 0.0750709 0.276075 0.114159 0.124255 0.122263 0.239543 -0.143526 0.0914348 -0.15915 -0.0963421 -0.206981 0.194759 -0.166276 -0.00625249 0.194162 -0.0502779 0.0196316 -0.196113 -0.0436715
li-yang-89 0.0557858 -0.215055 0.0603675 -0.0143538 -0.0405218 0.0306334 0.0313207 -0.0707934 -0.0499731 -0.0406013 -0.102111 -0.115103 -0.07638 -0.170572 0.0495492 0.0570097 0.0207832 0.109762 -0.177998 -0.0495872 0.0935018 -0.0611992 -0.0616975 -0.0167675 0.073312 0.101415 -0.00137105 -0.0825424 -0.113218 0.0583121 0.0767368 0.101167 0.181112 0.0308532 -0.036867 -0.103201 0.00681608 0.0117552 0.206334 0.12989 0.00239917 -0.141364 0.0484597 -0.0532052 -0.259969 0.0690605 -0.0787751 -0.159067 0.134863 -0.119358 0.00937967 0.0625506 -0.0713562 -0.230104 -0.284311 -0.0677076 0.0636509 -0.0873681 0.2081 0.0306736 0.0797225 -0.102753 0.0789306 0.0196505 -0.407324 -0.191153 -0.124157 -0.0351353 0.0475459 -0.0199833 -0.274681 0.129282 0.0255423 -0.0766814 0.076706 -0.195178 -0.0783533 -0.00547774 0.0196991 0.136642 0.133782 -0.176176 0.0650457 -0.0579293 -0.0962267 -0.0767983 -0.00450664 -0.148839 -0.169167 0.0255859 0.0778837 0.192669 0.180149 0.0646169 0.0299714 0.086312 -0.132634 0.0232327 0.0586436 -0.0300082 -0.136322 -0.16934 -0.0789292 0.0766195 0.138521 -0.0266675 0.0930422 -0.00848596 0.138772 -0.153701 -0.0857399 0.212083 -0.0820919 0.165441 0.0244588 0.241683 0.0439371 0.00254844 -0.399835 -0.263722 -0.10046 0.145071 -0.103331 0.121931 -0.0123809 -0.00111972 0.0252447 -0.244779
liangbianyao 0.100233 -0.123452 0.127579 -0.189714 -0.0887409 0.116539 0.273232 0.142925 0.0598672 0.115471 -0.104537 -0.00530261 0.0615917 -0.0853779 -0.142761 0.166128 0.0453962 -0.0645994 0.0164313 0.109121 -0.0812717 -0.0651429 -0.0420697 0.0254216 -0.104374 -0.0696009 0.0410628 -0.0398423 0.142456 -0.12152 0.11813 0.00526453 0.0722705 0.146295 -0.0647366 -0.0997171 0.0553675 -0.00901014 0.085736 0.105101 0.14634 -0.0480878 -0.102865 -0.00287634 0.10855 0.104682 0.124418 -0.156036 -0.00482185 -0.049284 -0.146013 0.0125272 0.261123 0.00206374 -0.176149 0.272061 0.119653 0.0712159 0.170785 0.0343581 0.145901 -0.10976 -0.0491681 0.0886011 -0.135682 -0.287785 0.200904 0.0176384 0.0102686 0.142325 -0.0941657 0.0963861 0.065587 -0.108026 0.0257532 -0.0461748 -0.0171946 0.0511753 -0.0488212 0.0338798 0.128801 -0.104132 0.083739 0.123311 0.0268418 -0.0595672 -0.100511 -0.0879418 0.0289988 0.0535494 0.0742969 0.160933 0.115949 0.0928702 0.220477 0.0761935 -0.0661402 -0.14243 0.126398 0.0584656 0.0403203 0.11064 -0.0130574 -0.118364 -0.0931782 -0.121636 -0.00600024 0.04632 -0.0209548 0.0111389 0.00951867 0.138573 0.0553584 0.0155511 -0.0657853 -0.152411 -0.0207036 0.102051 -0.173361 -0.139171 0.00996531 0.0181159 -0.0231709 -0.0383829 0.165824 -0.0952605 -0.150346 0.0537863
ling-hu-fu-gui 0.126743 0.187569 0.00564598 -0.265253 -0.00499425 -0.0733344 0.0978816 0.246442 0.27363 0.0887384 -0.0313799 -0.0414834 -0.277278 0.00532239 -0.0444106 -0.312427 0.293122 -0.212209 0.200454 0.122804 -0.226169 0.0414957 -0.121163 -0.271292 -0.0112388 0.243869 -0.0712294 0.0296642 0.121687 -0.08227 -0.149607 -0.0669994 0.0348554 -0.117591 0.0968091 -0.140879 0.100977 0.183796 -0.020329 0.265855 0.0370284 -0.185678 0.0631769 0.259752 0.0869985 -0.196094 -0.0314498 -0.212454 -0.21275 0.138238 0.13775 0.173422 0.0127333 -0.143631 -0.283487 0.194382 -0.00133662 -0.0358575 0.396843 -0.253781 0.285031 0.0820063 -0.259765 -0.183909 -0.0701245 -0.08813 0.0678167 0.0940748 0.373841 -0.150571 -0.127149 -0.0153705 -0.140794 -0.25417 -0.44637 0.0417991 -0.134116 0.0866727 -0.102552 -0.162833 0.299297 0.26851 -0.151929 -0.0428041 -0.0525916 0.0529431 0.0873831 -0.30597 -0.236459 -0.387747 0.108233 -0.234261 0.242369 0.0320633 0.237368 0.16483 0.0458399 -0.400145 -0.16742 -0.0830811 0.220263 -0.103107 0.0952728 0.100552 0.0624111 0.0555752 -0.276147 -0.0296172 0.0632022 -0.0147163 0.161973 0.00745908 -0.0703221 -0.00836258 0.142268 -0.0787118 0.231014 -0.217349 -0.0426307 -0.239509 -0.149993 -0.219417 0.0051419 0.15967 0.0536078 -0.0641677 -0.123042 -0.0745823
liu-peng-cheng-sai-l 0.00462837 -0.0782942 -0.00907344 -0.0913024 -0.00318341 0.0839302 0.0810685 -0.0132208 -0.105681 0.0892441 0.259587 -0.175717 -0.0559922 -0.171732 -0.330341 0.13694 -0.205806 -0.0293881 0.028431 -0.266385 0.168619 0.00480112 0.0963079 -0.0324827 0.218225 0.205671 -0.391477 0.130414 0.0997129 0.0323909 0.102318 0.119503 0.122233 -0.0914556 -0.170497 -0.104871 -0.188349 0.126658 0.0673304 -0.0974082 -0.0698264 -0.00809552 -0.109696 -0.198974 -0.134713 -0.167901 0.123819 -0.376391 -0.103378 -0.0356248 0.145788 0.139476 0.0362018 -0.0757512 -0.0780224 -0.0218717 0.0910644 0.070657 0.0696632 -0.0176293 0.0955923 -0.115719 -0.0113623 0.144908 -0.270082 -0.046031 -0.0275721 -0.0202007 0.282506 0.055529 -0.090164 0.0453137 -0.0405419 -0.244729 -0.113579 0.160353 0.106209 0.126877 0.0610701 0.0486198 0.0213378 -0.123288 -0.0369178 0.148533 -0.141018 -0.280926 -0.0212594 0.025474 -0.213597 -0.0321657 0.142289 0.307937 0.0735749 0.222557 -0.0956958 0.250904 0.146686 -0.086024 0.263574 -0.133253 0.00874211 -0.144022 -0.00624135 -0.184621 0.0819808 0.291114 0.00602843 -0.0650993 0.0508186 -0.084833 -0.10421 0.198115 -0.0327779 0.106052 -0.0821962 0.286765 -0.0513467 0.10459 -0.171457 -0.15955 0.0202117 0.153786 -0.0476318 -0.0250566 -0.127107 0.01089 -0.0456339 -0.180222
liu-ting-ting-64 0.0514011 -0.230786 0.01736 -0.107065 -0.109431 0.138304 0.0567085 -0.0198795 -0.0243901 -0.0271819 0.0748839 0.0483336 -0.196463 0.0510313 0.00990023 0.0622451 0.0800143 -0.17283 -0.161472 -0.137339 -0.110642 0.0681308 -0.0696348 0.0057883 -0.0534653 -0.0893323 0.172982 0.0189029 0.051455 0.127422 0.0910023 -0.0626067 -0.0503443 -0.0158466 0.0195288 0.17093 -0.206708 -0.0290429 0.104851 0.0472418 0.198952 -0.195645 0.119131 -0.030926 -0.0458702 0.227095 0.0418341 0.156536 -0.116113 -0.0320192 0.0116572 0.262177 -0.0150342 -0.00114915 -0.0560519 0.136145 0.0582538 -0.138276 0.307189 -0.0731707 -0.00106957 -0.190184 -0.377093 -0.156254 0.0376877 -0.323871 -0.04903 -0.222769 0.0713984 0.0340156 0.0344803 0.191005 -0.06129 -0.0388397 0.00638804 0.129782 -0.0830106 0.0313444 0.0813523 -0.0147404 -0.0478309 0.0543594 -0.0267626 0.147929 -0.024649 0.0226443 0.0667581 -0.112725 0.081872 -0.139271 0.174411 0.196752 0.122962 -0.0942416 0.197966 0.0760477 -0.0666339 -0.13659 -0.0128357 0.114814 0.0645962 0.043387 -0.233109 -0.239843 0.0193481 0.137726 0.193722 0.0355187 0.0142711 -0.0235454 -0.0472505 0.117427 0.124675 -0.111487 0.186018 -0.0825911 0.0574106 -0.0415684 -0.0289196 -0.154618 -0.267438 0.00397336 -0.0875706 0.0183824 0.00023553 -0.0365285 -0.00888365 -0.0391964
liu-yi-jie-84 0.0762001 -0.267384 0.183639 -0.0957252 0.0939135 0.15836 -0.18463 -0.117926 -0.0460843 -0.0745699 0.0213662 0.0847684 -0.0109138 0.0362695 -0.222871 0.131201 -0.0183166 0.121948 -0.0809357 -0.0688255 0.290356 0.0508305 -0.158288 -0.105173 0.178539 -0.0711096 -0.0919326 0.0224014 -0.163755 0.151189 -0.129594 0.149203 -0.118151 0.0204868 0.0595385 -0.011748 -0.0632615 0.0993454 0.225996 -0.0118892 -0.00460792 -0.143333 0.0231142 0.0415729 -0.160495 0.066084 -0.0738899 0.0555462 -0.170909 0.101388 0.0355223 0.126911 0.0181941 -0.0419026 -0.0666991 -0.0224781 0.152157 -0.0453413 0.251446 0.0733455 -0.0124698 0.138048 -0.0758262 -0.0313392 -0.309157 -0.166147 0.154655 0.0508164 0.0644843 0.104105 0.0242962 -0.0264433 0.0875934 -0.0666354 -0.0512682 0.0609567 -0.105132 0.129929 -0.0539677 -0.239329 -0.053057 -0.00964781 -0.127211 0.0700845 0.0703501 0.163641 -0.20459 -0.230445 0.0625827 -0.123852 0.147807 0.155484 0.254549 0.122044 0.16737 0.0549314 0.0660978 -0.0586944 -0.131596 -0.0640513 0.00561895 0.131415 -0.0698243 -0.140357 0.0371088 0.0221948 -0.107046 -0.106717 0.0581122 -0.173903 -0.0624732 0.0706861 -0.0485558 -0.168721 -0.0254091 0.192327 -0.088687 0.189558 -0.174187 0.158713 0.0685753 -0.0509633 -0.0766855 0.223958 -0.0438561 0.0225543 0.112625 0.00795967
lzy135 0.150727 -0.268433 0.0700017 0.0219818 0.0181878 0.0120526 0.240813 -0.241749 0.0850405 -0.026298 0.0199738 -0.123172 0.0451478 -0.0120268 -0.1013 0.0431653 -0.03883 -0.0633139 -0.0284557 -0.062866 -0.142684 -0.170946 -0.225547 0.06841 0.0719687 -0.0820143 -0.0476922 0.00927301 0.0984264 0.0174399 -0.0501247 0.0159389 0.0530717 -0.306618 -0.122313 -0.141949 0.0106676 0.0863576 0.0333088 0.319399 -0.0354091 0.0940027 0.0231761 0.0117008 -0.396773 -0.111338 -0.053177 -0.177042 0.00604166 0.047018 -0.0333687 0.0599864 -0.085304 -0.0374423 -0.0795243 -0.00687815 -0.0497166 -0.0758839 0.356823 -0.0964012 -0.00407518 -0.0915409 -0.259714 0.121251 -0.236322 -0.242022 0.148394 -0.161477 0.0975806 0.0100008 -0.0612327 0.226055 -0.0147781 -0.0422183 -0.143069 -0.252086 -0.115789 -0.0741045 -0.0300352 -0.153783 -0.0291613 0.0857813 -0.0393045 -0.0930952 0.0363882 -0.184008 0.0067531 0.049602 -0.0933208 -0.00714845 0.177874 0.223361 -0.130856 0.0163921 -0.194571 0.0747646 0.176683 -0.153522 0.332178 0.0523334 0.11686 -0.0541434 -0.104312 -0.0608134 0.0950072 -0.0187485 0.0555389 -0.09997 -0.0709788 0.0263217 0.12622 -0.0335088 0.0137997 0.0122995 -0.0200878 -0.146576 -0.0905538 0.18287 0.0322805 -0.0354495 -0.0802166 0.0431912 0.200341 0.226939 0.245256 0.0784424 0.193264 -0.0733551
ma-bo-yong -0.00677208 -0.0218218 0.0425746 -0.025364 -0.236201 -0.120487 0.0181618 -0.122057 -0.037098 0.039856 0.267225 -0.0121567 -0.209635 0.0682848 -0.149357 -0.00120829 0.0632501 0.0851971 0.140197 -0.0318081 -4.34001e-05 0.0402277 -0.152081 -0.137218 0.145368 -0.0894186 -0.183804 0.118103 0.0993275 0.0517824 -0.0654773 -0.0711444 -0.0220016 -0.135886 -0.156534 0.00219522 0.195083 0.0846379 0.217347 0.177557 -0.0483617 -0.136658 -0.123159 -0.188201 -0.106587 -0.0387186 -0.0628719 0.0295365 0.205933 -0.170231 -0.279298 0.0484574 0.132724 -0.0101222 -0.280116 0.120538 0.143455 -0.0567452 0.421615 0.223403 -0.186229 -0.14972 -0.139908 0.114358 -0.0905129 0.110114 0.00363911 0.124496 0.0875639 0.0771757 -0.0662983 0.150771 0.00899752 -0.103256 0.0344177 0.127823 0.0593901 0.0314525 0.105697 -0.0402421 0.0936346 -0.0589961 -0.19212 -0.073393 0.0921266 0.0938981 -0.0432449 -0.0439431 0.0775511 -0.0447119 0.18801 0.0637919 0.162467 0.255961 0.188177 -0.0223027 0.144257 -0.005278 0.162911 -0.0190257 0.141328 0.0621227 -0.0229979 -0.270155 -0.0434352 0.295122 0.0998751 -0.00016681 -0.11517 -0.164668 -0.0462969 0.130613 0.0274822 0.103095 0.055837 -0.0385879 0.190978 0.140374 -0.0871258 -0.0873195 0.124437 0.0144425 0.0125044 -0.0584114 -0.131504 -0.0679869 -0.0991724 0.103801
ma-qian-zu 0.124634 0.0142552 -0.0725144 -0.332198 -0.254564 -0.088662 0.127055 0.124824 0.318972 -0.109195 0.0312332 -0.0996071 -0.153782 -0.0469644 0.0984117 0.0826957 0.0584211 0.0686751 0.173886 0.0856872 0.171996 -0.173069 -0.0720961 -0.0763204 0.0249143 -0.201752 -0.246041 0.260791 0.221615 0.186287 0.133841 0.127361 -0.258708 -0.0635838 -0.137535 0.0627958 -0.224049 0.0895936 0.0996124 0.197871 -0.192776 -0.0339891 -0.138506 0.0101294 -0.265978 -0.00842212 -0.158238 0.0427591 0.337594 -3.81496e-06 0.0755696 0.14306 0.541031 0.0656828 -0.25665 0.0284546 0.0402786 0.358493 0.121655 -0.0672397 0.0688541 -0.241332 0.010505 0.297894 -0.11273 -0.261646 -0.120692 0.130733 0.0369007 0.251438 0.101947 0.229949 -0.0151688 -0.280335 0.01425 -0.134625 -0.175609 0.0649966 -0.118674 0.0708426 -0.245614 -0.119095 -0.0229401 0.0648179 0.226732 0.164695 0.180493 0.110846 0.102236 -0.00464315 0.469062 0.00213491 0.086001 0.127846 0.140215 -0.0973356 0.169432 -0.0896397 -0.00288676 -0.148412 -0.115879 0.14287 0.00937879 -0.153066 -0.00376693 0.210795 0.14064 -0.223561 0.123991 -0.104769 0.0313317 0.147387 -0.130861 -0.0927288 0.0357405 -0.171891 0.215537 -0.288588 0.0645527 -0.314018 -0.0380113 -0.0643994 0.063925 0.125016 -0.0829832 -0.0164362 -0.0551655 -0.236298
matt-hartzell -0.175501 -0.285727 -0.0870632 -0.0825795 -0.0777613 -0.0957997 -0.151149 -0.0230526 0.0614644 0.279778 0.156071 -0.0973917 -0.229141 0.0520924 0.00332301 -0.0212162 -0.0369172 -0.0765393 0.0564966 -0.118667 0.137337 0.00591602 -0.0479551 -0.154504 0.145945 0.158637 0.0069611 -0.050124 0.103149 -0.236637 0.168984 0.0819425 0.102485 0.0979775 -0.114815 0.0284996 0.0493379 -0.0351972 -0.0553967 0.0310634 -0.0114086 0.0596441 -0.268191 -0.081581 0.0446746 -0.0701854 0.356793 -0.0590111 0.059621 -0.0947555 0.424741 0.272512 0.103488 -0.0543367 -0.05323 -0.0102533 0.0773605 0.302441 0.281679 -0.00247821 -0.228574 0.33744 0.0112744 -0.0245222 -0.218143 -0.294492 0.0921337 -0.0335516 0.0854027 0.126716 0.0998815 -0.018984 -0.144559 -0.314107 -0.098297 0.103557 -0.0665313 0.0617261 -0.169698 0.0843451 0.236379 0.00584121 -0.123531 0.069041 0.161259 0.070715 -0.220117 -0.000479552 0.00925933 0.0054255 0.23467 0.150372 0.245871 0.0101389 -0.135549 0.114549 -0.216878 -0.0790613 0.057491 -0.16712 -0.18146 0.129965 0.152985 -0.146036 -0.0770979 -0.0390504 0.150123 0.157178 0.00341653 -0.0328162 0.136707 -0.0342749 -0.0137097 0.0786762 -0.179255 0.169218 -0.491141 -0.184243 -0.068675 -0.214075 0.144769 -0.275549 -0.0867883 -0.0101435 0.0239523 0.131039 0.176581 -0.16414
max-king-48 0.0676264 -0.336771 -0.0616377 -0.0610444 0.0532886 0.334615 -0.0200083 -0.0573636 0.1453 0.256105 0.0417977 0.322522 0.217955 0.202468 -0.257921 -0.0451802 -0.0166065 -0.0363146 0.0445109 -0.0447084 -0.0588112 -0.253255 -0.075768 -0.160137 -0.0494694 -0.197642 0.0566094 -0.137215 -0.131232 -0.077215 0.0889825 -0.122908 0.0467306 -0.19019 -0.191131 0.0949755 0.066405 0.0586367 -0.0759788 0.358917 0.00797826 -0.0260841 0.0898791 -0.0187271 -0.234896 0.000759616 -0.191778 -0.107958 -0.172043 0.16899 -0.153488 -0.059602 0.00113418 0.0692726 0.00440038 0.0977634 0.21474 0.00663975 0.134665 -0.0793693 0.257489 -0.260813 0.0385395 -0.0278393 0.0225729 -0.120669 0.309048 -0.0132041 -0.28814 -0.0597595 0.133054 0.0875911 -0.0674936 -0.201389 0.0196016 0.0728217 -0.150556 0.188418 -0.0205807 -0.0997523 0.0251696 0.0491469 0.227855 0.266362 -0.0654195 0.191736 -0.0311433 -0.0494034 -0.0605846 -0.212147 0.0161157 -0.167826 0.332789 0.145369 -0.210527 0.0780477 0.117006 -0.0593171 0.0448203 0.191566 -0.147959 -0.0315331 -0.0835937 -0.252478 0.28451 0.371452 -0.040834 0.167078 -0.0698632 0.0546643 -0.154778 -0.0919184 0.139169 -0.0418253 0.0852691 0.0567365 0.163162 -0.120938 -0.166472 -0.259826 0.100776 -0.202015 -0.13049 0.178326 -0.179774 0.0108503 0.0354578 -0.0958137
metrodatateam 0.168955 -0.0299515 -0.0595694 -0.00218583 -0.1557 0.312392 0.176371 -0.0408159 0.0441479 0.114234 0.202042 -0.0388861 0.0319737 -0.0277473 -0.106382 -0.106554 0.0859447 -0.0649718 -0.245176 -0.129748 0.0330324 -0.112033 -0.279166 -0.00968066 0.166081 -0.0393733 -0.132723 -0.241142 0.0138119 -0.242762 0.246815 0.044349 0.00159716 -0.130788 -0.0986105 -0.00416941 -0.180468 0.0621245 0.0477732 0.00935433 -0.00115253 0.0273941 0.11265 -0.202654 -0.0775401 -0.00106724 0.0455361 -0.23104 -0.065886 0.127272 0.0721763 0.25719 0.0248987 0.0137394 0.0581149 0.0186085 0.108463 0.200303 0.298461 0.246845 0.0710928 -0.179366 0.196164 0.186992 -0.134159 -0.277413 0.00568647 0.014545 0.433059 -0.108478 0.123223 0.000715095 -0.283243 -0.282718 0.313286 0.196119 0.14488 0.0872864 0.0482063 -0.146993 -0.118618 -0.0993816 -0.145463 -0.109447 0.0904508 0.012979 0.133405 -0.192825 -0.0343107 -0.0323392 -0.150446 0.196655 0.404623 0.185349 -0.0511226 0.14994 0.400656 -0.169458 -0.127197 0.0547759 -0.000509566 0.0528983 -0.20992 -0.137848 0.341905 -0.172323 0.00409519 0.0720425 -0.213678 -0.115829 -0.254932 -0.268438 -0.146389 0.0463056 -0.0153507 -0.140229 0.0116588 -0.077407 0.034806 0.0539312 -0.164359 0.13227 -0.0172075 0.101632 0.196585 0.141914 -0.0620597 0.103628
miaomiaomiao -0.0647128 -0.0656042 0.149009 0.0162383 -0.0289759 -0.0121803 0.15165 0.076874 0.127822 0.0594589 0.0331979 -0.0106182 -0.150248 0.102955 -0.0855614 0.134183 -0.0783291 0.0414219 0.0439712 -0.141263 0.145924 -0.014936 0.0752345 -0.0277911 0.0479488 -0.0679561 -0.0843289 -0.102838 -0.0774567 -0.0369421 0.0900486 -0.0582739 -0.0820433 -0.0439456 -0.0979365 0.175678 -0.00436995 0.00740627 0.109516 0.171983 0.0387616 0.00492613 -0.0453049 -0.0944192 0.0161865 0.0595983 0.174644 0.0365998 -0.166039 0.108688 -0.102807 0.201541 -0.0516263 -0.0549864 -0.0581456 0.0595961 -0.0362223 0.00947598 0.228169 -0.061816 0.0641608 -0.0788198 0.0641729 -0.0213546 -0.283426 -0.104007 -0.0172853 -0.0919515 -0.0506256 -0.0281686 -0.159796 0.136172 0.0376221 -0.0628848 0.0418542 0.0870179 0.0149382 0.156249 -0.00773936 -0.0806516 -0.00483615 -0.161038 -0.0139776 -0.0359775 0.0924019 -0.0984304 -0.0143077 -0.106892 0.0539706 0.0545149 0.153305 0.134826 0.0908416 0.0799252 0.139161 0.206978 0.0934388 -0.152516 -0.023252 -0.0975567 0.137813 0.0410699 -0.0797843 0.0976109 0.0311141 0.11103 0.115796 0.0385339 0.0257424 -0.0477211 -0.0109413 -0.0342859 -0.0336866 0.0769928 0.02997 0.102749 -0.0801864 -0.045517 -0.182156 -0.127498 -0.115517 -0.0277527 -0.00986675 0.028978 0.0826994 0.0498662 0.03414 -0.08927
mr-neverdie 0.0374574 -0.0193268 0.126964 -0.0385522 0.100233 0.0896802 -0.00165296 -0.220539 0.186118 0.173554 0.0227789 -0.262316 -0.254296 0.112584 0.212762 -0.0680831 -0.016884 0.144174 0.014999 0.217778 0.0448062 -0.00156148 0.099179 -0.171738 0.171357 -0.050549 0.00777466 -0.141641 -0.0475825 -0.0144403 -0.112927 0.0306309 -0.168413 0.0204798 0.140991 -0.0589655 0.106214 0.248059 0.0856774 0.303598 -0.0169243 0.0835081 -0.0428607 0.254918 -0.196246 0.34549 0.0814753 -0.44533 -0.0395065 -0.154343 0.0935402 -0.0372582 0.358905 -0.296352 -0.371829 0.178865 0.152077 0.0651833 -0.0280752 -0.335615 0.112517 -0.0921808 -0.105786 -0.178121 -0.0803228 -0.193492 -0.0828925 0.0104409 0.265679 0.0121773 -0.209459 0.558307 -0.0396313 -0.30717 -0.246328 0.13531 0.165878 0.125003 -0.00582805 -0.388188 -0.178294 -0.213124 0.0965553 0.131035 0.297628 0.0826451 -0.0397227 0.00997565 0.100576 0.0296544 -0.218717 -0.0214793 0.0741364 -0.0396272 -0.12635 -0.0750227 -0.0184749 -0.0810232 -0.0360936 -0.127219 -0.021773 0.0996024 0.062258 -0.142702 0.170739 0.0010211 -0.0913384 -0.105423 -0.241145 -0.102282 0.0599784 -0.0896345 0.207284 -0.255706 0.172114 -0.00459098 0.013452 -0.021539 -0.0259782 -0.122204 -0.0932366 0.00917669 -0.0572874 0.0567063 0.0702023 0.028988 0.136531 -0.0155114
raymond-wang 0.0269803 -0.0753963 0.104143 0.0943424 0.0142378 0.159771 -0.00331949 0.238741 0.123181 0.0826154 0.0574663 -0.204563 -0.0364525 0.0767363 -0.00835997 -0.0722254 0.0436678 0.113002 -0.00798851 0.0637761 0.0313884 0.171461 -0.0849827 -0.00345733 0.00672342 -0.169 0.08579 -0.240979 0.117053 -0.17747 0.0188235 -0.0849956 0.122032 0.0216018 -0.0869558 -0.00723541 -0.0837668 -0.027791 0.0359177 0.214247 0.124538 -0.135586 -0.0147048 0.00302385 0.0984497 -0.0632848 0.220443 -0.192424 -0.239214 -0.00991796 -0.0140425 -0.00361877 0.0534109 0.20901 -0.196172 -0.0953827 -0.136208 0.14125 0.280227 -0.00498318 -0.114699 -0.125266 -0.129384 0.0732386 -0.291226 -0.118296 0.136424 0.0626069 -0.0996718 -0.119682 -0.00621709 0.142537 0.131245 -0.03427 0.0891001 0.0100593 -0.152202 0.032765 0.144097 -0.0655087 -0.0733172 -0.226911 -0.186174 0.006855 0.0987463 -0.104011 0.0185679 -0.204884 -0.158384 -0.0740064 0.1795 0.140666 0.314279 0.23215 -0.0843877 0.00232825 0.0414774 -0.0116464 -0.0844604 0.00122745 -0.085778 -0.0299937 -0.106178 0.0378691 0.107134 0.0421004 0.0464438 -0.0946403 0.127665 -0.140315 -0.048518 0.146496 0.0553454 0.168702 0.13222 0.0643022 0.212353 -0.0272241 0.12438 -0.0603933 0.0229269 -0.00540158 -0.0369337 -0.0639766 0.11536 -0.0332802 -0.110513 -0.157546
sizhuren -0.0507744 0.0103682 0.0173614 0.0537266 0.0247412 0.162366 -0.0121116 -0.0530446 0.105709 0.0931008 -0.171105 -0.0849445 -0.156926 0.0494623 -0.0424604 0.048189 0.0799788 0.13281 -0.09836 -0.0157301 -0.0545004 0.120978 -0.080485 -0.0876047 0.0489097 0.00188898 0.0608117 -0.14474 0.133889 0.0432988 -0.0633143 0.0372092 -0.0497124 -0.1077 -0.1275 -0.117141 -0.0266471 0.0616809 0.0663444 0.137408 0.0890236 -0.101125 -0.0806893 -0.186478 -0.115852 -0.116985 0.0155233 0.0483095 0.12439 0.0520461 -0.109869 0.0413648 0.162059 0.363699 -0.229085 0.168328 0.0489922 -0.0681171 0.268897 -0.156874 -0.301854 -0.0845313 0.105396 0.0964778 -0.0792173 -0.184275 0.134155 0.0797868 0.28938 -0.0172361 -0.158892 0.191599 -0.199972 -0.123643 -0.182368 0.12475 -0.000676487 -0.114243 -0.215245 -0.0991006 -0.102955 -0.0280491 0.0181099 -0.0463873 0.0747556 0.0471876 0.110695 -0.223108 -0.146861 -0.00941183 0.304886 0.296931 0.17425 -0.063133 0.0712482 0.0487899 -0.107893 -0.0889289 -0.0672648 -0.0399477 -0.0751533 0.00934251 -0.0909325 -0.0221328 0.0624379 0.144832 -0.149162 -0.0479214 0.0182236 0.0512881 0.0521789 -0.0702304 -0.12114 0.184211 -0.177913 0.218566 -0.228233 0.0964968 -0.00696621 -0.256695 0.029402 -0.10286 0.104296 0.0786064 0.0762093 -0.0362434 -0.00187619 -0.0128993
sotrudy 0.0684108 -0.125779 0.0523934 -0.0503199 0.194088 -0.0800746 0.0873045 0.012419 0.124339 0.369748 0.0529726 -0.385836 -0.022015 -0.0697784 -0.0204959 0.161065 -0.159812 -0.0689851 0.334735 0.129878 -0.0885791 -0.115686 -0.0190747 -0.225597 -0.203656 0.0101245 0.189901 -0.129773 0.0523793 -0.264981 -0.124367 -0.180533 -0.14131 0.0482038 0.295045 -0.0073902 0.181999 0.0990593 -0.00589411 0.470814 0.0635054 -0.0316339 0.143275 0.0535948 -0.0638848 0.0545688 0.0532445 0.017736 -0.0299182 0.167538 -0.308827 -0.00578143 0.235941 -0.05355 -0.0910965 0.21248 0.09519 -0.0564996 0.252283 -0.0501976 -0.262051 -0.0318256 -0.190653 0.107893 -0.226112 -0.275032 -0.120335 -0.217345 0.121979 -0.0872387 -0.177911 0.047995 0.00875948 -0.289196 -0.116099 0.0717033 0.190061 0.0914088 0.00275781 0.0985401 0.0416097 0.24668 -0.241533 -0.0255744 0.0718842 0.0772816 0.141381 0.0741963 -0.0886 0.0440375 0.215281 0.106047 -0.155518 -0.0448923 0.175011 -0.0895904 -0.0215715 -0.183763 -0.082316 0.10736 -0.0350053 -0.00391653 -0.213407 -0.035564 0.135284 0.00935766 0.255513 0.0275204 -0.333043 0.0482497 0.120641 0.043371 0.0956109 0.0852076 -0.0220228 0.244722 -0.00994082 -0.0493471 -0.0764342 -0.105515 -0.0422408 -0.208369 -0.0493124 -0.0874486 0.144404 0.168529 -0.0364052 -0.0226665
tan-man-ru-28 0.0710302 -0.242666 -0.145056 -0.264123 -0.00918966 0.088139 0.134336 -0.191917 0.0490319 0.269118 0.055084 -0.25655 -0.0383779 -0.0128534 -0.0669057 -0.0510228 -0.116686 -0.12887 0.0402306 -0.0321419 0.0862306 0.0381007 -0.143269 -0.207212 -0.0229424 0.118501 -0.0751911 0.281098 0.0633441 -0.0512642 0.183456 -0.0712164 0.123679 -0.12547 -0.0293287 -0.107857 -0.0255548 -0.108898 -0.0409687 0.134421 -0.000860693 0.0875073 0.153228 -0.093711 0.0585314 0.0884383 0.28808 0.0179286 -0.0898392 -0.0194293 -0.0805776 -0.0286099 0.176056 0.265264 -0.224443 -0.155356 0.233974 -0.0692249 0.0682742 0.0223074 -0.237293 -0.366819 0.195103 0.0554105 -0.0913247 -0.221815 -0.112736 -0.255949 -0.0464558 -0.0864052 0.0314765 0.207608 0.197215 0.0304759 -0.111443 0.337211 0.0894557 0.20546 0.446929 -0.108184 -0.0571145 -0.156125 -0.248602 0.0453987 0.344305 -0.371319 0.00810379 -0.205485 -0.249575 -0.207668 0.255759 0.00399979 0.271413 -0.163482 0.225696 0.0550581 -0.289455 0.330675 0.133385 -0.100824 0.0651747 0.161766 0.0129215 -0.173474 -0.0880465 -0.193146 0.182595 -0.117163 -0.23513 0.0633654 0.12926 -0.140186 -0.0972471 0.0211339 0.0117899 0.129442 -0.191528 -0.241524 -0.185395 -0.123606 0.0921387 -0.0395291 0.231418 -0.123444 0.322845 0.0929141 -0.064811 -0.220597
tang-que 0.131383 -0.336766 0.00317258 0.221421 -0.106163 -0.0509422 -0.00438062 -0.467522 0.0978529 0.232272 0.118402 -0.146118 -0.298374 0.0316743 0.330064 0.0981095 -0.120217 -0.0596969 0.139969 0.0326822 -0.129511 0.0170857 -0.159655 0.337875 -0.100474 0.140002 -0.443253 0.0642491 0.0146014 -0.105965 0.143678 0.0500912 0.0885975 -0.0216869 -0.0747842 -0.0771783 -0.0280973 -0.0104305 -0.0627287 -0.154726 0.26838 -0.261828 0.109378 0.113325 -0.00474705 0.0320876 0.035202 -0.209451 -0.0406406 0.125542 0.00987385 0.0151799 0.125957 -0.0655185 -0.378241 0.332875 -0.00882803 0.140308 0.143496 -0.00377032 -0.197139 -0.0587083 0.216789 0.127057 -0.143275 -0.0724568 -0.0214529 0.382749 0.182463 0.0491343 0.00934174 0.392882 -0.173267 -0.372754 -0.182327 0.098351 -0.0777066 0.0772195 0.146547 -0.16443 0.167757 0.0493561 -0.199031 0.147621 -0.105075 -0.00989249 -0.0658419 -0.17749 -0.0285321 0.0230621 0.0834116 0.118324 -0.00450035 0.010473 -0.00614867 0.0715434 -0.129472 -0.287581 -0.128135 0.00346054 0.16151 -0.202603 -0.113277 -0.0979199 0.238886 0.0873104 -0.170542 0.156097 -0.0313684 0.077108 -0.0192892 0.397252 0.107755 0.145961 0.178999 -0.397164 0.0042588 0.0611972 -0.32236 -0.13306 0.0222931 -0.0285972 0.337364 0.0344805 0.0891355 0.30742 -0.308611 -0.0863177
wang-dan-5-78 -0.0183443 -0.150837 0.0222479 -0.114618 -0.211636 -0.289113 -0.0189482 0.153667 0.094139 -0.0718154 0.102587 -0.0634698 -0.0543861 -0.176278 0.12701 -0.212536 0.160724 0.0279097 0.113557 -0.0339826 0.0172326 0.066608 -0.12448 -0.0359678 -0.0378279 0.15906 -0.0849171 -0.0585384 0.103639 0.0109534 0.458542 0.218943 -0.215168 0.00472449 -0.0118609 0.124264 -0.143554 0.0630742 -0.0865705 0.0656219 0.182711 -0.14216 -0.145982 0.254658 0.0618396 -0.0980114 -0.0607447 -0.262476 -0.324031 -0.157347 0.00193493 0.00481724 -0.287308 -0.126142 -0.125736 0.0709226 0.198839 -0.186268 0.26154 0.16173 -0.16423 -0.116411 0.227341 -0.246571 -0.132821 -0.261414 0.0520713 -0.162317 -0.265855 -0.137017 0.148207 0.0589935 -0.1887 -0.198154 -0.040697 0.0499047 -0.27448 0.0793415 -0.0766061 -0.348934 0.159366 -0.271226 -0.231267 -0.138402 -0.292686 -0.149628 0.236352 -0.101258 -0.0142807 -0.413167 0.488726 0.320469 0.26638 -0.00461907 0.0439597 0.100404 -0.0679133 0.0737133 -0.0827409 -0.254034 0.546584 -0.0909541 -0.214339 0.0162306 -0.0751397 -0.0981905 -0.307278 0.0932267 0.00383293 0.169055 0.0866719 0.180658 -0.149885 -0.193301 0.185461 -0.0850887 -0.0636391 0.416532 -0.0539 -0.20402 0.110325 0.0534083 0.0928711 0.191921 0.044068 -0.0740161 -0.209101 0.0304033
wangnuonuo -0.178917 -0.211092 0.0700622 -0.115101 0.0494702 0.140082 -0.000192335 -0.101576 0.0456747 0.113856 0.117229 -0.130772 0.0980181 -0.0870546 -0.068837 0.0784019 0.103238 -0.226063 0.0219134 -0.0228477 0.0855947 0.0172647 -0.210973 -0.151006 0.0789445 -0.031769 0.0109582 0.0548207 0.0575109 0.0732754 -0.0128016 -0.0190581 0.0428658 -0.0765314 -0.0958937 -0.00152245 0.165879 -0.0321188 0.0979167 0.172775 -0.12197 -0.0355686 0.0956526 0.0136741 -0.0541803 0.034455 0.0437856 -0.249514 0.171293 -0.109686 -0.0459721 0.0906825 -0.144865 0.0994364 -0.267013 0.102295 0.22468 0.0422646 0.135041 0.02597 -0.0685413 -0.131129 -0.10445 0.0217573 -0.215485 -0.203484 0.193222 0.0411386 0.160414 -0.0623897 -0.0580181 0.160182 0.190133 0.0404124 0.0681258 -0.0222227 -0.0361358 0.140671 -0.159798 0.179044 0.103854 -0.088763 -0.0500232 0.0326355 -0.19627 -0.122412 0.0480435 -0.124051 -0.054777 -0.0987661 0.0639608 0.141151 0.0776522 0.049975 -0.0178353 -0.0038378 0.0974602 0.105927 -0.00202119 0.0481465 -0.257271 0.150793 -0.0519298 -0.142884 0.0370067 -0.165774 0.0655663 -0.107741 0.0205603 0.0323316 0.0271273 0.0665126 0.197616 0.0740637 0.0985238 0.00345968 -0.0602797 0.198454 -0.0316657 -0.120445 -0.0951768 -0.0647674 0.150232 -0.0124002 0.255692 -0.0163441 -0.0453478 -0.0510255
wangxiaofeng -0.133753 -0.133471 -0.382114 0.0388666 0.0504852 0.0505681 0.299728 -0.194851 -0.000859137 -0.0107956 -0.0370259 -0.0809063 -0.110105 0.0469374 -0.040302 0.00294202 -0.0427289 -0.00269323 -0.223282 -0.0794243 0.144616 0.334256 0.0590023 -0.0600002 0.262982 0.105354 -0.17252 -0.183333 -0.0322919 -0.102876 0.187197 0.14137 -0.0465909 -0.0441092 -0.228778 -0.161361 0.212636 0.0110511 0.0802192 0.287231 -0.169051 -0.10895 -0.0115475 -0.356472 0.0793012 0.114617 -0.0556295 -0.21538 -0.179504 0.0427374 -0.0572331 -0.00358974 0.0776026 -0.285835 -0.27344 0.363105 -0.0822804 0.0376026 0.0275801 0.169731 0.0314182 0.171245 0.0503506 -0.193333 -0.221149 -0.16402 0.0706117 -0.0353412 -0.17052 -0.281603 0.00543765 0.0754308 0.092326 -0.0778602 -0.0252057 0.0319818 0.0399564 0.240195 0.0102213 -0.102902 0.000299962 0.113015 -0.0928897 -0.19235 0.00363528 0.0462479 -0.120465 -0.178043 -0.123144 -0.178346 0.328791 0.0606705 0.126246 0.124787 -0.0676349 0.114496 0.109201 0.165723 0.138539 -0.140319 0.0544172 0.112048 0.0192354 0.121746 0.213414 0.0662001 0.112837 0.108266 0.117816 -0.00211751 -0.227021 0.12912 0.0299184 0.0421822 0.155289 -0.0596956 0.102615 0.0289788 -0.200523 -0.317941 -0.151858 0.0164745 0.155852 0.163058 -0.0730285 0.0493954 0.153398 -0.179298
whiteheart -0.362223 -0.0633985 -0.00407169 -0.0252603 0.222438 0.0774743 -0.0140481 0.306633 -0.0866768 0.0299152 0.0426228 -0.340393 -0.265194 -0.0787083 0.070013 -0.178249 0.223369 0.0859714 0.135366 -0.150355 0.100006 0.096049 -0.0254985 -0.0551755 0.180344 -0.0333134 0.199259 0.24619 -0.3118 0.00966498 0.337098 0.224193 -0.159334 -0.226055 0.19835 0.206416 0.168533 0.25082 -0.224462 0.144192 0.0120893 -0.267339 -0.0133842 -0.194633 0.0266211 0.00237256 -0.0345519 -0.281688 0.382747 0.0869173 0.259719 0.14534 0.214003 -0.238775 -0.209671 0.145387 0.142688 0.0372948 0.258524 -0.317385 -0.255956 -0.00250949 -0.281697 0.147152 -0.312481 -0.256363 -0.151083 -0.0261385 0.15769 -0.1451 -0.178037 -0.0414495 -0.0310337 -0.316946 -0.056736 -0.0603462 0.214586 -0.0862233 -0.0414095 0.0782315 0.233121 0.0959282 0.0273895 -0.0474646 -0.124188 -0.109507 -0.000984075 -0.0942894 -0.03884 0.0327612 0.047852 0.000918412 0.199451 0.137063 -0.0446683 0.111073 -0.0265169 -0.0608272 0.035618 0.0125016 0.0340579 -0.116302 0.0808445 -0.0682902 0.0587661 0.0479375 0.118892 0.131951 -0.0402129 0.089024 0.0475694 -0.0404235 0.162966 -0.0255686 -0.359934 -0.0276482 -0.0695391 -0.0404142 0.0234818 0.0822385 0.0741922 -0.149984 0.0802286 0.135247 -0.103004 -0.0437391 -0.0470046 -0.0917958
windleavez -0.109794 0.15109 0.105265 -0.219287 -0.181517 0.0704047 0.375636 0.037985 0.110229 0.29818 0.105173 0.0188194 0.153642 -0.0709908 -0.170808 -0.0237913 0.222286 -0.0137404 -0.0966397 0.131237 0.216289 -0.111919 -0.0630505 -0.0787032 0.027107 -0.0988486 -0.0386601 -0.0823833 -0.0346026 -0.0191296 0.221772 -0.00492195 0.100401 0.0310013 0.208875 0.163597 -0.0670251 -0.140107 -0.00757332 0.362786 0.0280982 -0.2417 -0.195101 -0.139893 -0.0326299 0.0586304 0.284336 -0.0852392 0.0374654 -0.134266 -0.0873933 0.0416398 0.0653457 -0.150981 -0.0502207 -0.0632522 0.146258 -0.129782 0.355465 -0.0579117 -0.0897688 -0.0900668 -0.0404943 0.0476325 -0.218056 -0.200172 0.182354 0.0617293 -0.00467645 -0.0812148 -0.141983 0.147095 0.126665 -0.134127 0.0945925 -0.0435651 -0.139529 0.256848 -0.0231683 0.00854887 -0.0144807 -0.294574 0.0138132 0.137831 0.0309972 0.0106075 0.186237 -0.121494 0.237031 0.158275 0.362144 0.0669441 -0.0866265 0.129533 0.077618 0.0270991 0.25587 0.002458 -0.217572 0.093992 -0.0448972 0.199461 -0.217254 0.213558 -0.11406 -0.137484 -0.163769 0.229603 0.224579 0.110384 0.0473055 0.0523725 0.0272987 -0.230844 -0.00548114 -0.0877778 0.0928657 0.12293 -0.245751 -0.00189575 -0.0552691 -0.0647941 0.103575 -0.155891 -0.202995 0.143227 -0.0440635 -0.264215
xia-ji-ji-28 -0.273483 -0.518742 -0.337385 -0.0811154 -0.0372521 -0.266334 0.105591 0.297043 -0.000808689 -0.160489 0.207077 0.046181 -0.00592167 -0.259017 0.00711817 -0.161748 -0.220287 -0.198619 0.231944 0.256186 0.341123 -0.271056 0.0751911 0.0750944 -0.185365 -0.290006 -0.120071 0.087777 -0.171293 0.104262 0.120023 0.119697 -0.0144471 -0.0174449 0.104445 -0.115406 0.163717 0.16773 0.343195 0.0943293 0.287821 -0.0153302 0.0559741 -0.0218833 -0.0855851 -0.0235647 0.0858009 0.0752899 -0.119494 0.281558 -0.184242 0.096586 0.0124854 0.25824 -0.187147 0.104434 0.149799 -0.00200851 -0.0012806 -0.20859 -0.183668 -0.0083714 0.29219 -0.246074 -0.246317 -0.257602 -0.14133 0.309718 0.177755 -0.0580109 0.112108 0.249448 0.321514 0.137093 0.110523 0.103292 0.0292637 -0.241776 0.0888364 -0.04099 0.364264 0.0305084 -0.175904 -0.0463546 0.0171542 -0.0112335 0.161289 -0.20454 -0.0909059 0.144192 0.375011 0.21813 0.307156 0.198158 -0.0948952 -0.0662693 0.137499 0.0115877 0.174105 -0.126967 0.0553504 0.24128 -0.0250182 0.131055 0.174101 -0.353793 0.174336 0.178562 0.137543 -0.122708 -0.0657598 0.315234 0.0871016 0.0159178 -0.0130533 0.332403 0.144867 -0.0905516 0.0354242 -0.050578 -0.287379 -0.0569566 -0.351847 -0.0130701 0.0617898 -0.105784 0.0134375 0.250594
xiao-yan-jing-43 -0.319803 -0.308294 0.112027 -0.200488 -0.10088 0.208233 0.0299222 -0.0183191 -0.0221945 -0.0290601 -0.0793957 0.064137 0.0430033 0.0849653 -0.150443 0.0292138 -0.0885992 -0.0662354 0.186529 0.0924793 -0.0323447 -0.00293689 -0.0471849 0.0279676 0.0216969 0.144062 0.087795 -0.111805 -0.0424333 0.0884214 0.0731624 -0.349563 -0.0131745 -0.0786924 -0.253422 -0.0359956 0.00805585 -0.110874 0.195765 0.022868 0.0228458 -0.135611 0.101681 0.0135775 -0.109979 0.117398 0.0888201 -0.127618 -0.0536061 0.0397588 -0.140133 0.379104 0.083491 0.0516974 -0.135183 -0.0447706 -0.0222213 0.0961506 0.109847 -0.134149 0.191341 -0.312653 0.0918174 -0.0518364 -0.0425673 -0.193845 -0.027744 -0.178661 0.0227171 0.0344645 0.172455 0.235426 -0.147581 -0.165241 0.132175 -0.0327955 0.117316 0.0632637 0.0820662 0.0259559 -0.0636018 -0.0902239 0.117838 -0.066428 -0.021473 -0.00301049 -0.0147051 0.0113242 0.0718083 -0.021876 0.30348 0.26468 0.300942 -0.0940721 -0.0755289 -0.155634 -0.166203 0.0166611 0.186489 -0.0124992 0.0293373 0.011693 -0.0842002 -0.226444 -0.0268708 0.171408 0.156019 -0.00226878 -0.0548199 0.0896058 0.0944526 0.27296 -0.108613 0.0474907 0.0308568 0.195244 0.107946 0.181599 -0.147547 0.0614998 -0.171829 0.168599 -0.0184451 0.133227 0.195018 0.0508434 0.0516613 -0.0963452
xiaodaoren 0.0413602 -0.254179 0.0543192 0.107848 -0.0557279 0.0178405 -0.0550213 0.127569 0.0895893 0.0989334 0.0899467 -0.160047 -0.061206 -0.00637098 -0.183674 -0.0258763 -0.0834374 -0.0646618 -0.0848107 -0.120345 0.236701 0.128851 -0.0970257 0.0211081 0.0388479 -0.0752589 0.0363212 -0.0288558 -0.0556777 -0.097578 0.0718012 -0.000259476 -0.00793409 0.0741939 -0.0791747 0.111533 0.0782896 -0.103073 0.228993 -0.0318816 -0.0474543 -0.268157 -0.15509 -0.237098 0.105453 0.00859111 0.123325 -0.00825332 -0.209527 0.0594747 -0.0168383 0.253108 0.171273 0.110665 -0.311394 0.102713 -0.0261291 -0.0245746 0.228077 0.0285019 -0.0990081 -0.225026 -0.143428 -0.0466259 -0.167999 -0.193515 0.0341338 0.108122 -0.0319354 0.0460805 -0.23071 0.0895862 -0.201204 -0.03094 -0.0184548 -0.0297282 -0.0574684 0.0472409 0.0461267 0.00437585 0.0912024 -0.083987 -0.124564 0.0174671 -0.150053 -0.186071 -0.05148 -0.165654 0.125271 -0.182096 0.233758 -0.00613372 0.28595 0.180207 -0.0428922 -0.0347299 0.0376693 -0.0508281 -0.00862458 -0.138052 -0.0539192 0.0215879 0.0278267 -0.132712 0.0505578 0.0702439 0.00648396 0.0675614 0.055779 0.0437599 -0.107496 -0.0572404 0.0457778 0.100199 0.0681372 -0.0350607 0.145317 0.0687699 -0.154415 0.142688 -0.0444201 -0.0262389 0.00283409 0.063904 0.0502454 -0.0249642 -0.0606709 -0.205445
xiepanda -0.00403845 -0.312812 0.0573971 -0.104198 0.209641 0.194187 -0.159613 -0.0362349 0.0645779 -0.163237 0.112425 -0.0821383 0.00704884 -0.0741396 0.135535 0.0348675 -0.0674811 -0.217615 -0.0732131 -0.0816544 0.179485 0.0824424 -0.173544 -0.0204315 -0.0648119 0.0151371 -0.00165168 -0.0874009 -0.158538 -0.0324747 0.225464 0.104017 -0.0806282 -0.0129561 -0.223123 0.0649932 -0.0178203 0.067028 0.0446165 0.18342 -0.116388 0.00709376 -0.136402 -0.0846214 -0.161542 -0.203841 0.0473426 -0.0368562 -0.107615 0.219555 -0.0881284 0.149009 0.0605291 -0.0112366 -0.355934 -0.0439655 0.0684709 -0.0725714 0.135776 -0.139277 0.0237944 -0.0156824 -0.131106 0.0412261 -0.206672 -0.181257 -0.041688 -0.0256444 -0.0742936 0.036882 -0.14221 -0.0256709 -0.161835 0.0279537 -0.0879328 -0.136921 -0.138262 0.0753064 -0.102591 -0.0031562 -0.0880453 -0.0673074 -0.0967185 0.0844222 -0.0259255 -0.138368 -0.10338 -0.217965 -0.0129924 -0.00282012 0.170094 0.107909 0.0257843 0.178132 -0.0687634 0.112892 0.0866989 -0.0549831 0.133261 0.17277 -0.147225 -0.0372371 -0.0642806 0.0122892 0.0994332 0.164052 0.0121849 0.0608065 0.0605246 -0.0831486 -0.133623 -0.00438481 -0.0569333 -0.023851 0.0688752 -0.00212375 0.197619 0.031788 -0.131533 -0.133202 0.0493769 0.0339279 0.0852798 -0.128948 -0.0477457 -0.126856 -0.130622 -0.0504287
xuxiaoteng -0.113043 0.0631257 0.209284 0.00279943 0.0101851 0.140867 0.0315842 0.147583 0.0773218 0.206294 -0.0953443 0.0916575 0.108458 -0.078308 -0.24924 -0.0920783 0.0183763 -0.0661302 0.0114537 -0.153911 -0.0957704 -0.0144329 -0.0483701 -0.291081 -0.0162918 -0.0955562 0.0343855 0.128158 0.00916952 -0.218844 0.103004 0.0121473 0.0856786 -0.122796 0.135686 -0.0552779 0.00956151 0.0963481 0.117225 0.0771861 0.218585 0.0636924 -0.00707251 0.0512369 -0.0254244 0.228648 -0.0728881 -0.236991 0.296404 -0.082106 0.0260833 -0.0964935 0.248873 0.208994 -0.256867 0.37662 0.00187287 -0.0214112 0.254121 0.0326219 -0.0601896 0.0324271 -0.0596628 0.148601 -0.239182 0.0135672 -0.0193925 0.0389907 0.0632299 0.0678496 -0.0265336 0.259821 -0.191834 0.0248635 -0.141572 0.137961 -0.00692087 -0.02074 -0.107131 -0.287978 0.064855 0.0249177 -0.202044 -0.0852614 -0.196937 -0.0991756 -0.115306 0.103617 -0.0381075 -0.176296 0.106337 -0.103474 -0.10619 -0.0408137 0.0899119 0.162059 0.130573 -0.0064869 -0.174555 -0.177988 0.116257 0.052933 -0.156292 -0.158184 0.228062 0.0960464 0.222229 0.00420185 -0.0110821 0.0547191 -0.0643155 0.0834118 0.0575558 0.256568 -0.126037 -0.0376356 -0.0644518 0.129293 -0.00599634 -0.407989 0.116934 -0.00604706 0.0395513 0.139918 -0.0847226 0.106909 0.0439033 -0.150937
zengjiaplus -0.127572 -0.0961856 0.27806 0.125286 0.00853029 0.272546 0.0234048 -0.23681 -0.0794326 0.0861784 -0.0233593 -0.0900181 0.0365377 -0.0473222 -0.166178 0.226231 0.113797 -0.156799 0.0077746 -0.109135 -0.0427696 0.21602 -0.146384 0.0485202 0.006129 -0.216594 -0.128205 -0.160182 -0.0509222 -0.042709 -0.0594131 0.122568 -0.0824341 -0.101442 -0.0580065 -0.0314245 0.118254 0.153096 0.0090291 0.0429344 -0.0489899 -0.129178 -0.0105286 -0.116028 -0.113339 -0.172405 0.0686963 -0.334484 0.0184032 0.0462072 0.0599428 -0.061104 0.130565 -0.0528366 -0.156174 -0.080548 -0.0782819 0.139372 0.20041 -0.20994 0.0614224 -0.138329 -0.123402 -0.224962 -0.118672 -0.1394 0.00140935 -0.0918758 0.118786 -0.113476 -0.0687589 0.123983 -0.0438709 -0.216004 0.0491312 0.0517194 -0.0756437 0.0578554 -0.130814 -0.237178 0.164717 0.071276 -0.13717 0.0264453 0.133761 0.0366963 0.0345261 -0.0773703 0.00686008 -0.0516132 0.19247 0.18156 0.0808268 0.0833981 0.130999 -0.00196891 0.0956569 -0.0165915 0.103215 0.0458464 -0.140138 0.0421477 -0.0246236 0.0639429 -0.0394524 0.0257571 0.171666 0.0382269 -0.148066 0.10879 0.169422 -0.0182511 -0.0295903 0.0618452 -0.018883 0.245436 -0.171635 0.0822306 0.0393551 -0.0139564 -0.0974531 -0.0496744 -0.235136 -0.100063 -0.179995 -0.0192544 0.150786 0.124191
zhang-jia-wei 0.139112 -0.0519454 -0.00187871 0.0198913 -0.10512 0.183602 0.0389366 0.0338249 0.155867 -0.0885268 0.190711 -0.0689415 -0.0464975 0.0609615 0.0430468 0.00539348 0.142804 0.037165 0.137394 -0.126028 0.143725 -0.0880124 0.00931247 -0.156169 -0.00221416 -0.0290491 0.0752897 -0.0134291 -0.0865733 0.0574406 0.133169 -0.0515108 0.0324256 -0.00803313 -0.13584 0.0372713 0.0518809 0.0423531 -0.00367144 -0.0497596 -0.0634884 0.00794912 -0.0214856 -0.126827 -0.103119 -0.00511433 -0.12972 -0.0893603 -0.128711 0.0244214 0.0500085 0.0761999 0.110968 -0.10818 -0.16928 0.100051 0.0816475 -0.178891 0.223321 -0.0678565 -0.148593 -0.193792 -0.0326979 0.00997312 -0.281333 -0.194687 0.139775 -0.0323618 0.261358 0.0324863 -0.110843 -0.00522934 -0.122541 -0.0935327 -0.0492581 0.0746006 -0.00434036 0.0484428 0.0429207 0.0514232 0.125567 -0.0254722 -0.079032 -0.0987009 0.00783142 -0.209993 -0.112878 -0.0950453 -0.0164498 -0.0477297 0.0929174 0.215713 0.318236 0.148057 -0.0285646 -0.0655326 0.0244603 0.00292533 -0.103636 0.080798 -0.0531806 0.22318 -0.0354286 -0.278094 -0.044769 0.0996884 0.0351486 -0.0350391 0.011694 -0.0927455 0.141556 0.232248 0.00983442 0.00386305 0.1361 0.0647307 0.175296 0.0828939 -0.175424 -0.104894 -0.0090166 -0.0901653 -0.0432255 -0.0193557 0.065351 0.181054 -0.145762 -0.0204432
zhang-xiao-bei -0.22617 -0.250842 0.0539868 0.0151432 -0.0978153 0.195846 -0.0259329 0.139828 0.0644558 0.166361 0.128436 -0.0592394 -0.209854 0.0651992 -0.0918465 0.0567385 -0.144465 -0.149777 0.168748 -0.175683 -0.025507 0.040373 -0.139536 0.0196728 -0.0768285 -0.181846 -0.0833341 0.00484673 0.229425 0.0124287 0.0600065 -0.0184588 -0.0940498 0.00521025 -0.132922 -0.00375127 0.223278 -0.0150215 0.0617724 0.165816 -0.247769 -0.00856446 0.0193945 -0.0302721 -0.0225306 -0.12923 -0.0918788 -0.0420764 -0.156204 -0.210049 0.0378153 -0.0452181 -0.041918 0.240584 -0.199442 0.080159 -0.0445474 -0.0125909 0.281656 -0.0179576 -0.0424073 -0.0830066 0.00943963 -0.0036804 -0.261559 -0.269467 0.187872 0.126927 0.0607047 -0.161001 -0.152124 0.180846 -0.0690376 0.0579035 0.0108623 -0.00533487 0.110485 0.215697 -0.00365896 -0.0343388 -0.062591 -0.148474 0.0068158 -0.0832308 -0.0040874 -0.0360887 0.0752675 -0.173753 -0.042288 -0.0162055 0.153646 0.157719 0.160488 0.0130528 0.131385 -0.0522646 0.156303 -0.0785326 0.0190359 0.0344104 -0.125722 0.148153 -0.0425788 -0.232568 -0.00298198 0.224639 -0.0887908 -0.0302949 0.172787 -0.0155797 -0.00623677 0.146872 -0.00537388 0.0350894 0.0819782 0.0946913 0.136958 0.0558221 -0.266737 -0.112526 0.069125 -0.155345 0.0234244 0.102541 0.0649834 0.180402 -0.122408 -0.211754
zhi-shi-jiu-shi-li-liang-13 0.135294 -0.401544 -0.227247 -0.00494329 -0.153595 -0.103908 -0.0381412 -0.172559 -0.0204108 -0.0697502 0.0658004 -0.137311 -0.0241176 0.193808 -0.110551 0.390244 -0.0797731 0.105263 0.0721938 -0.105152 0.154699 -0.156093 -0.0772308 -0.0454391 0.228836 -0.0554162 0.0357254 0.185258 -0.00937078 0.220361 0.122102 0.136283 -0.567172 -0.229465 0.405494 0.132776 -0.117028 -0.0164632 0.0884022 0.331974 0.309095 -0.0156766 0.0984538 0.120735 0.03547 -0.00364878 -0.111152 0.0208133 -0.0900977 0.175079 -0.208443 0.178154 0.0798762 -0.120098 0.142267 -0.154217 0.132513 0.0160439 0.135329 0.0688369 0.255158 0.140554 0.191208 -0.292699 -0.272092 -0.509938 0.131076 0.0680428 -0.000548242 0.0430531 -0.310406 -0.0391521 -0.150106 0.000690916 0.0802351 -0.0715582 -0.227672 0.0447862 -0.159075 -0.062156 0.0787649 -0.0315486 0.241178 -0.357803 0.201366 0.0782297 -0.020404 -0.280815 0.0685633 -0.335697 0.0865431 0.299231 0.131691 0.110635 0.183147 0.065363 -0.309576 -0.191516 0.085271 -0.213839 0.0180887 0.295324 -0.0947133 -0.0478551 0.262029 0.0908917 -0.0416479 0.0258847 -0.0393757 -0.207225 0.0953903 0.0550315 0.0628777 0.336598 -0.0965797 -0.0717765 -0.165782 0.0499036 -0.121469 0.0192866 -0.159725 -0.313314 -0.010303 -0.199637 0.0135862 0.10739 0.0154774 0.196128
zhu-xuan-86 0.0648249 -0.0248549 0.204472 -0.167345 -0.0098381 0.0193717 0.0357657 0.149721 -0.0032211 0.0446178 0.00463106 -0.24103 0.0543648 -0.0304954 -0.126551 0.1337 0.039634 0.00635091 0.0292968 0.0205122 -0.0311101 -0.0887417 -0.152098 -0.13517 0.02049 -0.0120772 -0.00936887 -0.0109749 -0.0322617 -0.200557 0.146661 -0.122903 -0.0481201 0.0538847 -0.184901 0.189539 -0.0874397 -0.115368 -0.0409597 -0.0294182 0.0640372 0.0157182 -0.149704 -0.123074 -0.0648491 -0.0596527 -0.32194 -0.241302 0.0554813 0.186213 -0.0447874 0.137791 0.00661975 -0.10243 -0.186263 -0.0596188 0.0983218 -0.0340772 0.274964 0.0568074 -0.0707018 -0.100724 -0.0409025 0.0679713 -0.214566 0.0809971 0.0688 0.000707657 -0.0184587 -0.19367 -0.0878364 0.163048 0.0722812 -0.0281727 -0.179602 0.0536316 0.0466562 0.223773 0.189808 -0.0563311 0.147417 -0.0921429 -0.124789 0.00990781 -0.00150561 -0.0300892 -0.0958477 -0.00126741 -0.0682304 -0.215601 0.158815 0.209575 0.138097 0.197971 0.0282074 -0.0153872 -0.06127 -0.242278 -0.124264 0.0884894 0.0432107 0.0703222 0.0136558 -0.101301 -0.00444691 0.0800209 0.0812016 -0.111829 -0.0507317 0.00499114 -0.0532077 0.173793 0.142289 0.157823 -0.018968 -0.0103079 -0.0556057 0.0510578 -0.242552 -0.1686 0.0152058 0.0963678 0.128703 0.110325 -0.131071 -0.0113289 -0.0353209 0.0515896
zhu-yu-xin-80 -0.156601 0.132531 0.167675 0.0105921 0.0347214 0.0601096 0.143902 -0.145895 0.0321857 0.170224 -0.0413166 -0.107997 -0.212534 -0.00067181 -0.167314 0.140508 -0.173938 -0.175198 0.183799 -0.241272 -0.0446158 0.037288 -0.31539 0.0415101 0.256983 -0.19354 0.0341354 -0.266763 -0.0234565 0.0941703 0.224939 0.164637 -0.143312 0.0276735 0.00278679 0.0838253 0.0981276 -0.00609947 0.0961256 -0.151717 0.223855 -0.168403 0.0154802 0.11652 -0.171004 0.166719 0.217035 0.0736765 -0.119708 -0.0288628 -0.0708698 0.0518235 0.025765 0.126117 -0.146084 0.0592029 0.220908 0.0232533 0.24849 -0.0737634 0.00339656 -0.00910253 -0.0618337 0.063708 -0.360863 -0.162917 -0.0252987 -0.262442 0.0788013 0.139185 0.132873 0.283379 -0.0786679 -0.271507 0.0543588 -0.025377 0.122519 -0.067327 -0.0576839 -0.00130359 -0.0758048 0.150923 -0.17274 -0.191906 0.00609415 0.24049 0.136987 -0.281294 0.0145815 0.116243 0.101791 -0.185572 0.149294 0.0975692 0.118639 0.0849106 -0.0546848 0.0910383 -0.0569503 0.101482 0.0525559 -0.12809 -0.322167 -0.2966 0.0185859 -0.101558 0.139797 0.017454 -0.210748 0.0256195 0.0513154 -0.0103822 0.2413 0.0900087 -0.0697608 0.000104614 -0.0975249 0.0267213 -0.14843 -0.389825 0.0025075 -0.144101 0.143379 0.110155 -0.129968 0.451979 -0.0310362 -0.131997
BlackCloak 0.0632721 -0.0932144 -0.0702513 -0.176166 -0.115352 -0.00757945 -0.040921 -0.0571745 0.0685293 -0.0530073 0.0391433 -0.18085 -0.178585 0.0968773 -0.0496117 -0.0716361 0.0431041 0.0599801 -0.163484 0.023256 0.0098655 0.0175854 -0.220292 -0.0974309 -0.107701 0.163388 -0.073883 0.278555 0.0178387 0.0546808 0.278686 -0.0135097 0.00722378 -0.0198067 -0.0635282 0.0661118 0.0417335 -0.101252 -0.0113576 0.274758 -0.164709 -0.0715316 -0.198184 0.161266 0.0239073 0.0909796 0.0493577 -0.0797523 0.148002 -0.130647 0.000798337 0.239324 0.108832 0.14437 -0.111818 0.215434 0.0256865 0.0275548 0.293256 0.150314 -0.0879293 0.0335333 -0.214008 0.209241 -0.27615 -0.0856484 -0.0198309 0.0109443 0.0269984 -0.0963887 0.0641664 0.0265426 -0.0886238 -0.169662 0.0572431 0.153314 0.127295 -0.00750287 0.00491672 0.0333891 2.71564e-05 -0.147367 -0.0907048 -0.0838754 -0.0251671 -0.0857161 0.208016 -0.0531348 -0.186726 -0.251902 0.0809944 0.0513621 0.138299 0.24799 -0.202786 -0.0553374 -0.0731284 -0.0235296 0.138996 8.38792e-05 -0.129596 0.270915 -0.297851 -0.218968 -0.134214 0.0337977 0.0309984 -0.0162526 -0.0835898 0.0913785 0.0171212 0.0246913 0.178897 0.0362406 0.0520525 0.120553 0.0188945 0.147956 -0.238805 -0.0354735 0.0574959 -0.0651612 0.199749 -0.0335672 -0.044499 0.0414139 0.0910162 -0.055275
Ivony 0.0633831 -0.114717 -0.151045 -0.167178 0.130034 0.0635075 0.0630882 0.0961779 0.14573 0.163149 -0.0136602 -0.0220936 0.0361465 -0.013334 0.0712457 -0.147036 -0.119623 -0.107539 -0.32495 0.174954 0.214471 -0.0853934 0.208091 -0.195843 0.159883 0.170694 -0.0151454 -0.0358507 0.0610707 0.155717 -0.181181 -0.128002 -0.332291 -0.0275162 0.0426059 0.2639 0.00122487 0.000972502 -0.0808864 0.00890555 0.0617256 0.172763 -0.0305535 -0.0471053 0.125459 -0.0249265 -0.0867884 -0.591696 0.173331 -0.269408 0.155487 0.0555442 0.221104 0.0872809 -0.328308 -0.037334 0.0548577 -0.01807 0.211365 -0.386704 -0.0255732 -0.0647167 -0.0092734 0.116843 -0.0242507 -0.232279 0.117187 -0.159327 -0.109735 0.24661 -0.295833 0.259329 -0.056854 -0.329795 -0.175342 -0.0191372 -0.112312 0.0613993 -0.059914 0.119524 0.0453346 -0.0735424 0.10516 -0.123711 -0.0866264 0.136319 -0.0211632 -0.315827 0.0428669 -0.148655 0.204318 0.238206 0.14392 0.264839 -0.136495 0.157428 0.0350754 -0.0230379 0.0213909 -0.118654 -0.0506485 0.135576 0.0484232 0.0764349 -0.150526 0.0712684 0.152154 0.0331741 0.134126 -0.0686208 -0.148603 0.165775 0.00512538 0.0538473 0.128696 -0.101995 0.121788 -0.0818515 -0.206969 0.015256 0.211242 0.0197051 -0.150283 0.152886 -0.00929743 0.278828 -0.0676005 0.0135796
Jazzlover 0.102884 -0.216161 0.141109 -0.102365 -0.000268661 -0.140177 0.13482 -0.133087 0.0701585 -0.101099 0.207825 0.0312837 -0.00769216 -0.0884106 -0.125905 0.140883 -0.0516247 -0.0977037 -0.0477938 0.0678403 -0.0342916 0.077108 -0.164893 -0.249661 -0.0732038 -0.00923236 -0.0605458 -0.0801868 -0.285145 -0.0110407 0.202086 0.0068887 0.0892313 -0.0655688 -0.0208585 -0.0833527 0.00343176 0.0721361 0.217088 0.220255 0.0545697 -0.179984 0.0669374 -0.12666 0.0376261 0.0111853 -0.205059 -0.117722 0.138825 -0.0876324 0.300207 0.326184 -0.0344289 0.0607663 -0.250296 -0.14554 0.137799 0.0453055 0.199734 0.0610154 0.179292 0.0354562 -0.118405 0.135177 -0.11495 -0.27765 -0.0294686 -0.0279367 0.0438398 0.0771125 -0.173165 0.174838 0.04113 -0.000481951 -0.271345 -0.0827116 -0.152774 0.039549 -0.178032 0.188062 0.202548 -0.203012 -0.16136 -0.0264233 0.122005 -0.23213 0.0611186 -0.193019 -0.0137375 0.0957265 0.0254237 0.0741329 0.107504 -0.168445 0.148051 0.0392232 0.223179 0.0911269 0.0437994 -0.0855061 0.0844735 0.152554 -0.31549 -0.000792288 0.152092 0.0102726 0.07838 -0.01349 -0.273516 -0.17415 0.0702825 0.0818696 0.101577 -0.0955642 0.249009 -0.0616337 0.0286498 0.0983856 0.0603902 -0.0146224 0.0283432 0.0258514 -0.158764 -0.034702 -0.127771 -0.0450322 -0.212438 -0.255988
Tian-Hao- -0.0286547 -0.089825 0.0641897 0.0967198 0.0497111 0.121387 -0.0502856 0.221289 0.127139 0.147523 0.0769638 -0.158524 0.0904462 -0.0336831 -0.0732193 -0.00795898 -0.0298825 0.00405342 -0.137684 -0.0822423 0.122142 -0.119941 0.0249761 -0.220215 0.0851288 -0.174951 -0.0661313 -0.0196625 -0.0822794 0.0631317 0.0900164 0.0949595 -0.0480918 0.112936 -0.260637 0.0644696 0.0438287 0.0941423 0.0473892 0.210366 -0.0425444 0.114647 0.13716 -0.0273286 -0.0411566 0.045139 0.0226704 -0.207611 -0.0164408 0.139109 -0.0428731 0.070084 0.00452218 0.0379526 -0.304812 0.0269525 0.0572684 0.0495042 0.045111 0.111453 0.0280422 -0.0315809 -0.0984546 -0.0553323 -0.28239 -0.14592 0.0968644 -0.0337091 -0.0498723 -0.175239 0.0454029 0.174284 0.0809199 -0.083611 -0.000748877 -0.0520183 0.0197777 0.0429655 -0.037963 -0.0574444 0.0676228 -0.0259544 0.0331688 -0.0242955 -0.00499746 -0.218382 -0.0492957 -0.166244 -0.00614349 -0.101773 0.219292 -0.07292 0.0746793 0.0717895 -0.00714744 -0.0987151 -0.0129655 -0.0999824 0.0894937 0.0611928 -0.0179586 0.0494822 -0.0717123 -0.108138 0.00478791 0.164115 0.219227 0.097514 0.0983229 0.118656 -0.0299417 0.0886429 -0.127055 0.100609 0.134135 0.0938384 0.137685 -0.0926863 -0.194569 0.00458008 -0.0144752 -0.164731 -0.0897409 0.167201 -0.0721691 0.0899923 -0.132417 -0.0389485
acel-rovsion -0.0423127 -0.295224 0.210621 0.156737 -0.310661 0.0243912 -0.117158 0.369163 -0.334548 0.0627624 -0.189859 0.026162 -0.363163 0.304755 0.000287886 0.0300132 0.147521 0.00246099 0.0409108 -0.0998259 0.114136 0.0742723 -0.187489 -0.107486 -0.120967 0.249852 -0.0208878 0.0535991 0.226904 -0.148252 -0.128441 -0.125694 -0.271746 -0.356505 -0.3555 0.0812106 -0.15175 0.0480187 0.11113 0.314277 -0.117566 -0.171927 0.112459 0.116624 0.129137 -0.0459645 -0.234401 -0.224111 0.0911663 0.0744644 0.247205 0.0715201 0.293685 0.347725 -0.151372 0.222433 0.0953065 0.0605382 0.3679 -0.158347 0.024444 0.0427773 -0.0692794 0.327292 -0.401596 0.0401678 0.00250008 -0.182247 0.0911989 0.115196 -0.0848309 0.226166 0.0265022 -0.394163 0.136701 0.0385719 0.189424 -0.0952993 -0.179868 -0.271758 -0.0312397 -0.0285264 -0.152977 -0.0945871 -0.0560123 0.179908 0.0914475 -0.0811048 -0.0638359 -0.191736 -0.130325 0.148471 0.0550826 0.1074 0.0669896 -0.0690318 0.107033 0.0251156 0.200167 -0.150017 -0.0386708 0.108954 0.0230094 0.0363921 -0.1695 0.110977 0.136879 -0.00668231 -0.119093 -0.0338959 -0.0564566 -0.0460315 -0.11631 0.0162548 -0.180552 -0.0690796 0.0258899 0.195649 -0.0926779 -0.157649 0.0630041 -0.188228 -0.122177 -0.0833711 -0.043114 0.100599 -0.0717027 0.00670956
allen-xu-3 -0.219616 -0.0649355 0.0289657 0.242332 -0.12835 -0.0278973 -0.428604 0.133073 0.0451257 -0.23362 -0.00772198 -0.391787 0.0398324 0.119772 -0.247561 -0.0212148 -0.124875 -0.00657881 0.154536 0.184625 0.118116 0.11064 0.196296 -0.34776 0.09546 -0.167062 -0.150011 0.167014 0.155931 -0.406064 0.124334 0.411949 -0.538397 0.00698735 0.125449 0.0300756 0.211811 0.197478 0.234823 0.275242 0.0595791 -0.383472 0.133814 0.0545764 0.190549 0.185484 0.169331 -0.379062 -0.154018 0.127432 0.073458 0.0492428 0.186293 0.229677 -0.365522 0.0980975 0.158109 -0.100544 0.322623 -0.0501961 -0.184039 0.0316298 0.0724837 0.210824 -0.0529427 0.0513512 0.342251 -0.202205 -0.0452309 0.185288 -0.050632 0.225659 -0.087391 -0.31034 0.12461 0.141403 0.0334286 0.502506 0.0249558 -0.00705204 -0.177162 -0.0600946 0.0383551 0.244624 0.0489926 -0.0801427 0.444345 -0.217884 0.0222638 -0.258147 -0.134391 0.224469 0.109109 -0.154911 0.240737 -0.236591 0.0569823 0.158716 -0.132706 0.147654 -0.031143 -0.252537 -0.218376 0.0377796 -0.326006 -0.000581287 -0.0263291 -0.0416515 -0.119707 0.0612305 0.107197 0.196389 0.0149979 -0.170968 -0.112383 -0.0372546 0.0476596 -0.122898 -0.0279282 -0.194115 -0.0672642 0.261595 0.0327671 -0.126128 0.10039 -0.448182 0.0837849 0.161225
arthur-wang-9999 -0.102793 -0.126613 0.0568095 0.0967837 0.0526017 -0.163196 -0.380884 0.283379 0.221567 0.177451 -0.0357253 0.0582026 -0.101207 0.13228 0.141804 -0.116005 -0.0899275 0.0132734 -0.10648 -0.0495824 -0.0569812 -0.0348434 0.067176 0.0400165 -0.0125289 -0.0636767 -0.393064 0.0466703 -0.0827275 -0.193152 -0.0350636 0.0507309 -0.269756 0.233389 -0.119638 0.368771 -0.0145273 0.349385 0.0714953 0.58825 0.0333103 0.131461 -0.166462 -0.2524 0.131619 0.103558 0.197904 -0.289281 -0.218985 0.287962 -0.114919 0.12577 0.11041 0.0447804 -0.35737 0.19897 0.156951 -0.119752 -0.095222 -0.160999 0.0226551 -0.247144 -0.0834215 -0.0609602 -0.128047 -0.0125825 -5.40606e-06 -0.161121 -0.0741235 -0.185895 -0.190446 0.15333 0.150153 -0.0346634 -0.0483566 -0.0758559 0.17319 0.006083 0.011169 0.0853846 0.00397146 0.053167 -0.0284 -0.0325517 -0.171036 -0.120232 -0.0325786 0.106256 0.0944581 -0.145082 -0.0121375 -0.120926 0.112436 0.216175 -0.0853552 0.181534 -0.252064 -0.260573 0.209868 -0.0514301 0.254944 -0.106515 -0.0914564 -0.315155 0.217401 0.097999 -0.0667573 -0.170255 -0.232083 0.0248771 0.131812 0.0781951 -0.0361301 0.238059 -0.121327 0.137631 0.000273596 -0.065092 0.0225147 -0.115033 0.0614854 0.0727043 -0.226377 0.101411 -0.0109808 -0.32675 0.207075 -0.130917
aton 0.0872555 -0.127593 0.0677665 -0.230339 -0.0788671 0.0313218 0.141498 0.0993034 0.0596039 0.000495641 0.249254 0.011543 -0.279606 -0.0309523 -0.0181322 -0.0138881 -0.0801996 -0.164427 -0.102745 -0.221141 0.268642 0.0246558 -0.256315 -0.197186 0.0846107 -0.136937 -0.0348736 0.0511944 -0.00230673 -0.103624 -0.00256736 0.0457476 -0.219539 -0.168678 -0.00957169 0.104832 -0.0402961 0.131586 -0.0986349 0.19032 0.0661272 -0.254431 0.163916 -0.0171148 -0.0141221 -0.00438727 0.0387557 -0.131687 0.0987716 0.0147039 -0.159216 0.116539 0.17093 0.128156 -0.0970878 0.0402281 0.0404338 0.0222658 -0.0371257 -0.154558 -0.036291 -0.104109 0.00993674 0.0943026 -0.149255 -0.0211779 0.0216308 -0.0218942 0.0289248 -0.029132 -0.0926752 0.093919 -0.0959962 -0.125604 -0.0847902 -0.018707 -0.146208 0.102296 0.0286807 -0.077108 0.0882719 -0.0753177 -0.0449989 -0.12949 0.0577369 0.130263 0.00195162 -0.0962793 0.229526 -0.0356022 0.296231 0.268164 0.163387 -0.0326083 -0.0404146 0.136752 0.054136 -0.11567 -0.0624237 -0.039997 -0.222424 0.0797069 0.0293399 -0.0566813 0.158358 -0.111327 0.180024 -0.155918 0.111246 -0.0212651 0.0587434 -0.0495747 -0.0773504 0.0915423 -0.00531769 0.029371 0.0262648 0.0585249 -0.0468861 -0.267642 0.0705851 -0.166775 -0.0214342 0.154184 -0.131883 0.213023 -0.123803 0.0151219
banfoxianren 0.144451 -0.154232 -0.166281 -0.0352065 -0.375087 -0.0950963 -0.144733 0.0600138 -0.0444492 -0.17446 0.255308 0.0946087 -0.16105 -0.194072 -0.282921 0.122425 0.279736 -0.0178145 -0.258029 0.197865 0.0672589 0.128096 0.0175208 -0.0339951 0.244186 0.146593 -0.280042 -0.167081 0.0901515 -0.0648093 0.19473 0.0368097 -0.0805926 -0.275153 -0.0789962 0.241214 -0.10521 -0.118031 -0.164782 0.0892455 0.056975 -0.276733 -0.102101 0.15463 -0.0277514 0.340979 0.172511 -0.34688 -0.0559817 -0.107519 -0.0818849 0.140301 -0.0380772 -0.122556 -0.26172 0.11324 -0.0774774 -0.0590466 0.0437303 0.00167082 -0.273001 -0.155446 -0.204465 -0.0855276 -0.403495 -0.323446 0.377717 -0.221057 -0.196926 -0.22957 -0.384009 0.192607 0.0505134 0.216192 -0.369147 0.455915 0.353626 -0.0214988 0.23199 -0.176877 -0.253882 0.345504 -0.224114 0.0891317 -0.23715 -0.106976 0.0385325 -0.296537 0.263094 0.128979 -0.100848 0.0336016 0.0814639 -0.0132393 0.291232 -0.0679 -0.211584 -0.293615 0.0160169 -0.0937704 0.258137 0.0348539 0.126579 -0.551082 0.172513 0.168582 -0.160467 -0.0546392 0.190389 -0.376947 0.157527 0.444509 0.219029 0.0252853 -0.0990817 -0.389831 0.00508571 -0.508616 -0.0342118 0.048756 0.193293 0.0326407 0.545597 0.312597 0.0745057 0.0722971 -0.327489 -0.190481
ccat 0.0635147 -0.0153592 0.0586186 -0.0208191 -0.0462341 0.118324 -0.0348642 0.0663989 -0.0039212 0.067193 -0.0049221 0.0273363 -0.0610325 -0.111118 0.0526061 0.0528966 0.117005 -0.0919702 0.047396 -0.161219 0.212581 0.00576619 -0.177156 -0.0534475 0.0764986 -0.0684703 0.285298 -0.050852 -0.171646 -0.0894838 0.0958655 0.0124071 0.0558597 -0.035086 -0.0424997 0.106055 -0.0166099 -0.0840585 -0.0101909 0.0642934 -0.107741 -0.107806 0.0850897 -0.132255 0.186585 -0.0671044 -0.015129 -0.0993299 -0.178322 0.0811097 -0.142697 0.157895 0.12916 0.0207119 -0.154129 -0.000960069 0.0269848 -0.0561081 0.155295 -0.0837431 0.122041 -0.00844274 -0.185432 0.209072 -0.0556205 -0.184754 0.112571 0.154005 -0.0377465 0.138243 -0.0280982 0.246084 0.0635478 -0.0864165 0.193203 -0.00376624 0.0254062 0.0405319 -0.164578 -0.211974 0.146159 -0.019821 -0.0714534 0.197351 0.0585312 -0.0800185 -0.0471763 -0.235933 -0.0925161 0.213627 0.14536 0.0334501 0.314218 0.192343 -0.0973252 0.0944345 0.0957564 -0.196974 -0.012611 0.022832 -0.0523491 0.0461351 -0.287532 -0.181424 0.0147929 0.0827966 -0.00419326 -0.0324306 -0.143052 -0.00931162 0.0258677 0.174551 0.0650811 0.134467 -0.11217 0.244717 0.0371549 -0.00909075 -0.00801178 -0.0563171 -0.0210116 0.0854542 0.102773 -0.0475922 -0.0393908 0.1705 -0.160055 0.136265
chibaole 0.0483923 -0.057324 -0.0369534 0.0286402 -0.030085 0.010345 0.000859126 0.00563922 0.08429 -0.0748903 0.0526242 -0.0481761 0.274402 0.202634 0.039851 0.125303 0.0584146 0.0206657 -0.0126755 -0.199634 0.194655 0.0190102 -0.230419 0.110889 -0.189639 0.14316 0.0132251 -0.0926654 0.0402585 -0.102165 0.183127 -0.0583879 -0.269161 -0.0669573 0.14415 0.0559382 -0.0911094 -0.0633114 0.0157529 0.13868 -0.164413 0.304986 0.0340748 -0.0817666 -0.0958683 0.00539087 0.234793 -0.128085 0.0857862 0.00311507 -0.197664 -0.0142642 -0.0768287 0.134276 -0.224061 0.0957955 0.205045 0.102237 0.433654 -0.0293536 0.00862295 -0.194063 -0.0169252 -0.0211038 -0.262892 -0.309798 0.246865 -0.0259188 -0.0465632 0.107952 -0.0608898 0.0667604 -0.0209404 -0.00688541 0.0568255 0.00347762 0.242282 0.00611674 -0.0308849 0.0955452 0.0823765 -0.164172 0.023039 -0.00433694 0.183872 -0.230186 -0.0966502 -0.133404 0.0782057 0.0404696 -0.0246406 0.23088 0.217976 -0.0200939 0.13131 -0.130684 0.237125 -0.180004 0.1404 0.0253405 0.0650663 -0.062807 -0.0331689 0.100545 0.0731077 0.120429 0.0603283 -0.115647 -0.048943 0.114214 0.0928345 0.0988071 0.197135 -0.0100145 0.00889899 0.138361 -0.0974709 -0.0286977 -0.115702 -0.241262 -0.0878852 0.000565464 -0.0889892 0.065044 -0.090127 -0.131998 0.0931196 -0.134761
chivn -0.0196065 -0.131069 -0.0452385 0.133565 0.209441 0.249697 -0.130212 -0.217792 -0.0932803 -0.107508 0.0212512 0.218135 -0.230176 0.253406 0.326884 -0.0744869 -0.322054 -0.051328 0.0714247 0.0196662 -0.000317622 -0.077935 -0.278056 -0.383807 0.222528 -0.120532 -0.185185 0.283344 0.322503 -0.57498 0.559938 -0.30123 -0.0698013 -0.0783212 -0.0121069 0.0178005 -0.252138 0.166003 0.195666 0.323971 -0.344744 -0.368069 0.0299066 0.0226053 0.0777762 0.107282 0.103432 -0.151501 0.569616 0.0373649 0.0815384 0.125464 -0.185194 -0.256147 -0.146411 0.341057 -0.299541 -0.0447223 0.30417 -0.100329 0.297704 0.0804198 -0.210342 0.102258 -0.0326699 -0.020788 0.233172 0.0754556 0.00807256 0.128068 0.347979 0.107536 0.205165 -0.0744787 0.199063 -0.220719 -0.0506225 0.24024 0.114447 0.00879564 0.084933 -0.240385 0.0500094 0.00597845 0.28603 0.181726 0.215099 0.455734 -0.0572018 -0.184463 -0.0194599 0.554969 0.260354 -0.00233152 -0.0399799 0.26132 0.035973 0.154555 -0.165144 0.240645 0.079303 0.223232 -0.0321095 -0.0457485 0.111161 0.26738 -0.110141 -0.0110322 -0.0111831 -0.0242252 -0.0850334 0.136928 0.117106 -0.243331 0.20782 -0.0646791 -0.178995 0.111427 -0.108154 -0.213943 0.0142557 -0.0381095 -0.0704829 0.396256 0.182589 0.199313 0.215458 0.501908
commando 0.0606981 0.0082805 0.0834156 0.0286702 -0.158877 0.0504582 0.104536 0.0627293 -0.009092 0.0542884 0.299448 0.107546 0.0610242 0.141173 0.0906112 0.181039 -0.00921586 0.0630057 -0.0697888 -0.0425617 0.120642 -0.0690069 -0.158924 -0.0443444 0.206332 -0.139295 -0.103445 0.0546117 0.0958127 -0.0329724 0.259519 -0.0356805 -0.0147645 -0.0604809 -0.0457253 0.036997 0.00555384 -9.31587e-05 0.165659 -0.0552963 -0.0428185 -0.247727 -0.0267378 -0.0334065 -0.140123 0.195245 -0.00402673 -0.153531 0.162007 -0.0738726 -0.0677408 0.220454 -0.0247731 0.0678643 -0.339599 0.0696283 0.150522 -0.128402 0.348149 0.151273 0.0103402 -0.17561 -0.14866 0.121035 -0.342526 -0.111569 -0.016673 0.107358 0.017569 0.135127 -0.106669 0.0218569 0.0234264 -0.312715 0.0518997 -0.205552 -0.228142 0.0529044 0.0349719 0.0519561 -0.118527 0.0330213 -0.221656 -0.193176 0.0308383 -0.104032 0.11912 -0.108985 0.250768 0.0771617 0.0760265 0.0659789 0.033516 0.194179 -0.000700217 -0.0835434 0.0385802 -0.0760339 -0.0400214 -0.146983 -0.193146 0.0649234 -0.0730158 -0.0330609 -0.125486 0.189287 -0.0807088 -0.0673436 0.125028 0.101637 0.0105024 0.220335 0.259349 0.107261 -0.036858 0.212483 0.274394 -0.0340372 -0.208198 -0.086547 0.14581 0.00787923 0.0981866 -0.115204 -0.0918397 -0.162536 0.118596 -0.0209877
cworange667 -0.205675 0.116322 0.18986 -0.164141 0.0792344 0.208278 -0.047135 -0.144481 0.0201112 -0.0399977 -0.0673672 0.381675 -0.29476 0.257588 -0.105546 0.190178 -0.103761 0.0452505 -0.074857 0.0858271 0.0727641 -0.473547 -0.128277 -0.0526795 0.199392 -0.195594 0.00276871 0.0324667 0.0646694 -0.0200646 0.312194 -0.155837 0.159142 -0.131014 -0.0706789 0.0672782 0.097864 -0.436956 0.145809 0.0265724 0.013966 0.0547162 -0.128518 -0.0674151 -0.0602916 -0.0160466 0.143906 -0.259543 0.185959 -0.118461 -0.0339313 -0.0528231 0.0653718 -0.0442514 -0.0341865 -0.0332363 0.212488 0.105314 0.258914 -0.10166 0.107709 0.0960548 -0.0733489 0.134213 -0.314603 -0.331393 0.0272971 0.00417914 0.168478 -0.223657 0.132462 -0.0724617 0.00341091 -0.0964862 -0.00344568 -0.133706 0.0938843 -0.0726507 -0.138631 0.242748 0.120912 -0.00297592 0.0109731 0.0755933 -0.130212 -0.151113 -0.0236282 -0.120764 -0.148499 -0.134436 0.283866 0.290865 0.0146085 0.142458 0.0250032 0.134517 -0.303192 -0.142608 -0.0339225 -0.178129 -0.0529225 0.095872 0.106401 0.0903588 -0.0311023 -0.0396872 -0.0286439 -0.264751 0.0436552 0.0849822 0.175129 0.223121 0.120949 -0.0174616 -0.242168 0.156831 -0.178741 -0.056694 -0.0865275 -0.0671699 0.253878 -0.057096 -0.0608664 0.264776 0.067248 0.121326 0.0148027 -0.0745219
