375 128
10082 -0.0797175 -0.0459041 0.174158 -0.0503752 0.0208211 0.18867 0.0803126 0.141913 0.110312 0.0557624 0.0202612 -0.0340788 0.0445039 0.0844134 -0.0121469 -0.133611 -0.112353 0.120628 0.136412 -0.322554 -0.00986203 -0.12952 0.00423731 -0.0915695 0.152749 0.0638744 0.0130837 0.146468 -0.233748 0.0705936 0.0473252 -0.10406 0.25084 0.144853 -0.0516486 -0.0681389 -0.0674524 0.000805245 0.110042 0.0372182 -0.024451 -0.0859235 0.120922 -0.0893255 -0.236123 -0.22508 0.0887424 0.110755 -0.0202092 0.0132875 -0.252706 -0.250934 0.108593 0.0693779 -0.259113 0.224585 0.300027 0.0139412 -0.0506506 0.0670399 -0.265425 0.131432 -0.0266633 0.080833 -0.00535534 0.136472 -0.0856529 0.180045 0.358099 -0.0682402 -0.0243136 0.111513 0.0808314 0.115633 -0.0126934 -0.041009 0.232427 0.187866 0.187114 0.100917 0.108731 -0.231555 0.0567854 0.0105149 -0.291549 0.121653 0.201959 -0.154887 0.0644014 0.201508 -0.0875072 -0.218563 -0.113362 -0.215671 -0.148934 -0.191802 0.179404 0.0097844 0.153029 -0.158154 -0.111291 -0.177728 -0.0266255 0.0448078 -0.0385434 0.0543076 0.0537755 0.214894 -0.00537392 -0.136134 -0.134486 -0.134094 -0.0134032 -0.0296833 -0.0390386 0.0454159 -0.127924 -0.0752958 0.0885947 -0.179487 -0.107876 0.0246591 -0.0294619 -0.00954595 -0.184765 -0.11201 -0.199295 -0.0827154
Andreas-Vladimir -0.0707432 0.271993 0.187065 -0.065561 0.104571 0.248055 -0.107869 0.112349 0.114163 0.107186 -0.0699635 0.0634602 -0.0575608 0.262296 0.101601 -0.0563228 0.028631 0.0865867 -0.164634 0.0906208 0.288665 -0.168691 0.0109491 -0.119906 -0.151428 -0.250815 0.151825 -0.0595611 -0.0589174 -0.1831 0.0841907 0.0185695 0.171046 0.165692 -0.120023 -0.0574625 -0.0656348 0.145481 0.102448 -0.115995 -0.10639 -0.0322926 -0.0611185 -0.133023 0.0752679 -0.241944 0.0925999 0.011319 0.100094 -0.110177 -0.123646 -0.0711671 0.11652 0.161005 -0.125 0.297148 0.0873752 -0.000563096 -0.0925728 -0.0420413 0.242208 0.1213 -0.220514 -0.00577749 0.0730416 -0.0765493 -0.078796 0.0900479 -0.0309284 -0.0421306 -0.138462 0.126605 -0.0481359 0.0394861 -0.147338 0.104263 0.120542 0.0944318 0.0364227 -0.077011 -0.163818 -0.119728 -0.158216 -0.061147 -0.137244 0.119892 0.0794027 0.0810359 0.124531 -0.199441 0.0710599 0.0530189 -0.0447911 -0.0449615 0.0972375 -0.226517 0.0774363 0.150321 0.140964 -0.131383 -0.122459 0.0697455 -0.148401 0.047821 -0.158794 -0.0143638 -0.120687 0.20996 -0.125499 -0.209271 -0.263008 -0.0768989 -0.181816 0.120829 0.0586854 0.0364846 -0.0552548 0.0673888 -0.0639952 -0.0275868 -0.0174281 -0.0266616 -0.0232302 0.14005 -0.11624 -0.207956 -0.282306 -0.057798
Hemerocallis-Yu 0.122646 0.182993 -0.0214161 -0.145508 0.146373 0.185061 0.00583671 0.00459994 0.128834 0.014909 -0.0503637 0.0152908 -0.0349483 0.0988209 4.34198e-05 0.0517974 -0.0832402 0.023543 0.0141248 -0.0869027 0.0638458 -0.182425 0.00602248 -0.0489815 0.0647335 -0.122351 0.181095 -0.0812921 0.055052 -0.0660766 0.12849 0.077333 0.0975218 0.191568 0.0675936 -0.000623407 -0.310326 0.0760492 0.0709275 -0.117407 -0.0678324 0.0581925 0.0581956 0.122058 0.14899 0.00314739 0.0856317 0.141699 0.00604916 0.0192588 -0.308661 -0.0851027 -0.0155169 0.180448 -0.173004 0.0851585 0.0807241 0.1886 -0.133472 0.100243 -0.087273 0.00683996 -0.0989332 -0.102469 -0.0979592 -0.0550551 -0.0201087 0.0479482 0.131395 -0.0603073 0.00287541 0.0679079 -0.084888 0.00918532 -0.0981349 -0.10313 0.085795 0.0775583 0.00576876 0.137387 -0.109006 0.138283 0.0855665 -0.0148841 -0.0699999 0.00906948 0.054445 0.0487904 -0.0653922 -0.123584 0.0641451 -0.0322964 -0.0339952 -0.14614 -0.0771388 0.000693794 -0.0858457 -0.0469866 0.0104478 -0.145711 -0.143563 -0.0258643 -0.125335 0.0882815 -0.0912156 0.107146 -0.115391 0.0743218 0.0618154 -0.0431479 -0.166818 -0.045793 -0.0201373 -0.107691 0.145866 0.0199672 -0.0192686 -0.0193302 -0.0671025 0.0942382 -0.0853846 -0.171807 0.0450956 -0.0370477 -0.176628 -0.131149 -0.418137 0.133018
NicolasYu 0.00837861 0.110777 0.1151 0.0457909 -0.00619031 0.125304 -0.0628415 0.0237541 0.157209 -0.0345748 -0.122073 -0.0700429 -0.13073 0.0603034 -0.0264994 0.0457411 -0.101344 -0.00216605 0.0422259 -0.187269 -0.0571054 -0.0254093 -0.0274372 -0.101424 0.110621 -0.0141787 -0.0708879 0.0617961 -0.0276894 -0.0298363 -0.030609 0.165458 0.201962 0.415362 0.105682 0.111165 -0.069326 0.167779 0.156725 -0.0289664 0.174136 -0.10474 -0.062067 -0.0799824 -0.0138984 -0.0364866 -0.12612 0.0471094 -0.0137523 -0.0590526 -0.204433 -0.0435878 0.036238 -0.0376606 -0.0734501 0.136451 -0.0507413 0.0193042 0.0091705 0.166088 -0.152369 -0.198763 0.0138842 -0.030331 -0.0716116 -0.0166211 -0.0362472 -0.0574634 0.101855 0.0560075 -0.165982 0.0139743 -0.0964048 0.0472611 -0.0966438 0.0432288 -0.0384125 0.149293 -0.0559972 0.0565473 0.0320871 -0.171283 0.129206 -0.0950838 -0.130535 -0.0904465 -0.0428931 -0.077972 0.174104 -0.0321835 0.217421 -0.15102 -0.197611 -0.192994 -0.11184 -0.0051435 0.120824 -0.129102 0.0131839 -0.123602 -0.0169058 -0.102669 -0.0338083 0.0742378 -0.0826491 0.0484932 -0.0378722 0.244799 0.103497 0.0403545 0.000368863 0.0741763 0.0150397 -0.0626911 0.0274849 -0.0161512 -0.142503 0.0929771 0.081218 -0.161973 -0.129078 -0.102226 -0.000312958 0.164765 -0.1702 -0.227966 -0.217325 0.129773
PeterDeng2 -0.103061 0.187263 0.0851167 -0.123956 -0.00931272 0.195182 -0.179913 -0.103035 0.123287 -0.177996 0.0282436 0.0666398 -0.1558 0.0742392 0.0616674 -0.288091 -0.213656 0.186059 0.0654026 -0.113932 -0.0674729 -0.309088 0.0685493 -0.168402 0.0125291 -0.11662 -0.0867765 0.199146 -0.22516 0.0499127 0.242237 0.192862 0.122056 0.114074 0.0789378 -0.109681 -0.0948311 0.19496 0.239254 0.150892 -0.0561152 -0.125447 0.43384 0.118259 -0.0507682 -0.178247 0.103339 -0.133964 -0.126158 -0.210538 -0.29708 0.0601483 -0.0778764 0.143185 -0.196779 0.04731 0.0577317 -0.0355793 -0.00205514 -0.119711 -0.218371 -0.0996237 0.126003 0.119006 0.0359719 0.195746 -0.00583898 -0.111336 0.0773597 -0.0958856 -0.229921 0.289842 -0.0147586 0.0406657 0.130798 0.0490827 0.00159437 0.243546 0.0228538 -0.0068382 -0.0278865 0.1582 0.037753 -0.134754 0.0289768 0.262268 -0.280389 -0.0980243 -0.0262777 0.208106 0.0801949 0.164726 -0.259757 -0.18232 -0.0880327 0.160787 0.18835 -0.405125 0.014348 -0.334109 -0.116486 -0.141015 -0.0730631 0.0980013 -0.0129138 0.0585851 -0.00948947 0.148506 0.152643 0.0162797 0.130173 -0.088623 -0.0175986 -0.0334814 -0.135077 -0.00112895 -0.14254 -0.163379 0.115978 -0.124944 -0.248659 -0.168459 0.184978 0.00704956 0.00961561 -0.0117621 0.142583 0.0381578
TuringDon -0.0374354 0.126088 0.0750468 0.0818677 0.254151 -0.035168 -0.175243 -0.0188345 0.15769 0.0822838 0.0970295 -0.0153489 0.0852747 -0.0965274 -0.0202551 -0.00796446 -0.0995551 -0.0947187 0.171727 -0.27911 -0.0362392 -0.192262 0.208863 -0.114941 -0.183397 -0.488589 0.132284 -0.0780548 -0.22444 -0.158931 0.121923 0.12532 0.209169 0.502915 0.0539611 0.114176 -0.159296 0.0175262 0.413097 -0.144658 0.12082 -0.00326596 -0.0823989 0.0968041 0.0127793 -0.140933 0.0835093 0.0674479 0.0160686 -0.0573833 -0.0900576 -0.328445 -0.0234621 0.100801 -0.317533 0.0327882 -0.0874891 -0.0606896 0.058305 -0.115109 -0.0584383 -0.214285 0.0227613 -0.0412243 -0.115288 -0.0707978 -0.0970449 -0.129567 0.148629 0.0509199 -0.0712704 -0.12995 -0.21425 0.0252111 -0.0599969 -0.111662 0.0446041 0.0300957 -0.0511453 -0.170648 -0.0850921 0.106437 0.159475 -0.0786138 0.045064 -0.00589756 0.100871 -0.0342604 -0.24994 -0.0162999 0.0354769 -0.0092368 -0.215894 -0.070795 -0.210563 0.1017 0.180826 -0.158386 -0.0483178 -0.142296 -0.174493 -0.127009 -0.033696 -0.169333 0.0494498 0.251302 -0.069529 0.407497 0.0959461 -0.023392 -0.0643532 0.161849 -0.00544183 -0.0607573 -0.0747681 0.0340151 0.0457296 -0.11628 0.159988 -0.0637322 -0.223328 -0.0973115 0.16775 0.108979 -0.100349 -0.38047 -0.0923665 0.0654302
WxzxzW -0.180212 0.0922694 -0.0390891 0.165831 0.0551648 0.252015 0.0854078 0.101115 0.19946 0.247805 0.021646 -0.321485 0.124234 0.0664519 -0.0993878 -0.143199 -0.301083 0.114576 0.0830514 0.0235925 0.0483859 -0.131332 -0.0432008 -0.328152 -0.024952 -0.026657 0.070969 0.0733066 0.0508094 0.0738018 0.134161 -0.0210797 -0.110097 0.331917 0.0890114 -0.075498 -0.176577 0.215881 -0.0501928 0.23913 0.0940785 0.0427882 0.0523948 0.128142 -0.00422005 -0.0773387 0.043718 0.0992972 0.0238555 0.0907215 -0.434134 0.0745597 0.0926677 0.0852014 0.00311402 0.223593 0.0852221 0.282257 0.0133455 -0.0925341 0.187159 -0.0434814 -0.0539861 0.0397743 -0.0394039 0.182858 -0.00725816 0.0735451 0.123236 -0.321251 -0.185993 0.157183 -0.109404 -0.124428 -0.138423 0.0894845 -0.0549311 0.288075 -0.177825 -0.207614 -0.029068 -0.11299 0.143751 -0.106981 -0.228897 -0.0112009 0.0460202 0.050349 -0.0232152 -0.0498298 0.21992 0.0266967 0.00587844 0.075229 0.0261897 0.00996529 0.185448 0.0941462 0.0953297 -0.0591345 -0.238002 -0.0716319 -0.0269107 -0.0828582 -0.194005 0.0131986 -0.192537 0.0941391 0.0572065 -0.0111622 -0.0025187 0.0350495 -0.164093 0.136137 -0.161375 0.085229 -0.174498 0.0841937 -0.126575 -0.0336194 -0.0291455 -0.0349765 0.0338384 -0.0517629 -0.223832 -0.17175 -0.362196 0.186721
YSGG -0.210064 0.0754575 0.0372669 -0.12012 0.0707478 0.505002 -0.0378885 0.220982 0.206753 -0.103892 -0.129558 0.359986 0.00083393 0.130261 0.0414138 -0.0269034 -0.0363123 -0.00277651 -0.0855489 0.0312014 0.198829 -0.0890251 0.0868932 -0.0402975 -0.0200586 -0.0541201 -0.0947356 -0.0370463 -0.0692515 -0.225821 0.11567 -0.004574 0.0404213 0.117942 0.0170218 0.0416712 -0.0927521 -0.0829713 0.0563175 -0.114714 -0.0388323 0.149649 0.0927708 -0.111739 0.103129 0.199672 -0.00322216 -0.0763142 0.0519458 -0.124031 -0.228568 0.0343982 -0.178647 0.0301104 -0.176215 -0.118092 -0.136326 0.249814 -0.00239678 -0.0587769 -0.0596169 -0.0248328 0.0589347 0.109161 -0.181529 0.173706 -0.0835099 -0.0489562 0.253634 0.0345944 -0.200306 -0.0290394 -0.0903846 0.0168876 0.0308174 -0.214644 0.109264 0.0436418 -0.0626622 -0.0260995 -0.175413 -0.117483 -0.11864 0.0697767 -0.257455 0.0359131 0.158293 -0.0802476 0.0957825 -0.192974 -0.0823379 -0.0868778 -0.234983 -0.0164505 -0.166886 -0.0440306 0.183148 0.10964 0.0784554 -0.313554 0.0563182 -0.178882 -0.146736 0.075832 -0.39002 -0.0512208 -0.0300964 0.0962022 0.224266 0.115279 0.040556 -0.0578014 0.107372 0.00583827 0.0821614 -0.13101 -0.279182 0.144296 0.0485128 -0.164182 0.0627054 0.140939 -0.11931 0.192845 -0.274205 0.0252887 -0.174043 -0.110466
bai-ru-bing-58 -0.146908 0.00905034 0.0294956 -0.264741 0.0436665 0.184982 0.0391248 0.203359 0.153678 -0.0688322 -0.0355919 0.197546 -0.242795 0.178352 0.0529677 0.0745766 0.050277 -0.0518975 -0.222647 -0.256523 0.0863284 -0.252901 0.152503 -0.0798362 -0.101733 0.0163526 0.000989983 -0.0920536 -0.219939 -0.031271 0.276083 0.092654 0.292913 0.347572 0.379659 0.0877638 -0.0981137 -0.191738 0.499714 0.305753 -0.0513117 -0.116329 0.0213891 0.244628 -0.276632 -0.188227 0.0297081 -0.073846 0.00999178 0.0504099 0.105096 -0.020173 -0.15155 -0.0463333 -0.151888 -0.123548 -0.0137481 0.127182 0.0889185 -0.226673 0.0760809 0.18676 0.0933901 -0.0738463 0.0447964 0.210141 0.106865 0.053588 0.120932 0.0581615 -0.0739211 -0.0602858 0.064693 -0.149455 -0.0850015 -0.0314959 0.0671683 0.21649 -0.21946 -0.16662 0.178865 -0.000826201 0.139635 -0.316332 -0.0991893 0.160686 0.0615031 0.128258 -0.00755975 0.278714 -0.0264456 -0.149343 0.010891 0.0920493 -0.121234 -0.202113 0.36949 -0.105311 0.105759 -0.147497 -0.037361 -0.0318822 -0.0430414 -0.0302142 0.0450771 0.0808526 -0.05354 0.253316 -0.0243927 -0.0513229 -0.0854126 -0.079689 -0.178156 0.0759655 -0.0253875 0.27313 -0.0830747 -0.185285 -0.0845168 -0.179115 -0.10455 -0.14535 0.258228 0.318887 -0.238462 0.138658 -0.368285 -0.0598038
bo-cai-28-7 -0.05542 0.0499344 0.0295471 -0.106261 0.0991336 0.168923 -0.0827294 -0.0343729 0.175198 -0.00901531 0.00907909 -0.0843003 -0.0691981 0.115362 0.0621393 -0.0370686 -0.0656848 0.0264369 -0.101973 0.0122882 0.104674 -0.0130677 -0.0550648 -0.213815 -0.00468009 -0.178831 -0.0369041 0.0924062 -0.0183491 -0.0447934 0.0196764 0.066995 0.114535 0.061809 0.187151 -0.0629227 -0.266242 0.120466 -0.0422681 0.0464518 -0.0261911 0.121004 0.141091 0.0727644 0.0266261 -0.0711307 0.0565921 -0.00296779 -0.108028 -0.0256753 -0.274343 -0.157566 -0.104072 -0.0512216 -0.188804 0.0402336 0.0250857 0.112747 -0.110542 -0.0475198 -0.0155716 0.00434159 0.0490099 -0.121266 -0.0361251 0.101922 -0.0804584 0.0601084 0.26333 -0.0693558 0.0120971 0.0189511 -0.173867 0.0687489 -0.146677 0.0767029 0.0605752 0.227748 -0.00940602 -0.026244 -0.192947 0.0393317 0.0167921 -0.121314 -0.0299932 0.0322077 0.0466926 0.0108886 0.0228436 -0.0842173 0.0562525 -0.154105 -0.170951 -0.109515 -0.104734 -0.0691752 -0.0695781 -0.0382797 0.0750544 -0.145232 0.0717646 -0.149254 0.0187783 0.0784311 -0.0946318 0.151358 -0.208161 0.126721 0.0313996 -0.00868649 -0.00442779 -0.146257 0.0205302 0.0447561 -0.0307958 -0.0173774 -0.148809 0.13164 -0.0186949 -0.162648 0.045139 0.0326334 -0.038636 0.0603349 -0.235785 -0.188841 -0.253497 0.150907
botongli -0.106574 0.07697 0.101398 -0.0649799 0.339627 0.239433 -0.0271221 -0.0504061 0.0843164 -0.0159939 0.0354182 0.0365738 0.108947 0.151891 0.20385 -0.270014 0.226193 0.0730415 -0.0932872 -0.00700184 0.171493 -0.107089 0.214079 0.00865223 0.0665982 0.16123 0.113658 0.108925 0.118496 -0.0984626 0.0223645 -0.0304608 0.155315 0.0573127 0.09666 -0.0404689 -0.158157 -0.0496307 0.0693525 0.0731085 -0.068827 -0.166022 0.342114 0.17888 0.0558102 -0.0851429 -0.0180963 -0.182299 0.078204 -0.0590392 -0.0960219 -0.033848 -0.12699 0.0601052 -0.0683916 -0.0164281 0.115602 -0.0715674 -0.024133 -0.170757 -0.0825288 -0.0744135 0.0334781 0.152477 0.203963 0.168459 0.0820382 -0.0350132 0.177383 -0.174568 -0.0685982 -0.0629505 -0.150193 -0.0281243 -0.107391 0.00706803 0.179752 -0.0907874 -0.0476352 0.117856 -0.128545 -0.0984636 -0.0586662 -0.0563905 -0.0160089 -0.0377812 -0.0192162 0.0630036 -0.037833 -0.00941072 -0.0190086 -0.1518 -0.228713 -0.162389 0.0737592 -0.0127952 0.161994 -0.0227113 0.235094 -0.309895 -0.0417138 -0.06908 -0.199599 -0.000469906 -0.0487364 0.102764 -0.0324789 0.140492 -0.0417471 -0.124392 -0.129307 -0.197837 0.10913 -0.0366965 0.0740884 -0.198642 -0.124417 0.00284805 -0.0215947 -0.0876221 -0.080288 -0.00801351 -0.0782595 0.0273303 -0.219275 -0.095599 -0.169018 -0.0253258
calistawang -0.0553896 0.210423 0.11108 -0.0433664 -0.0274582 0.231167 0.152559 0.050808 0.0244787 0.0157874 -0.0564553 0.0956489 -0.0364715 -0.263726 -0.0896224 -0.211298 0.0966066 -0.0240512 0.0231891 0.0495623 -0.15828 -0.0527198 -0.0314045 -0.220438 0.172505 -0.267502 0.100845 -0.170796 -0.0041448 0.0383045 -0.101029 0.00624344 0.351364 0.239438 -0.105251 0.111039 -0.171791 0.0367552 0.0625236 0.0360251 0.270111 0.0280372 -0.0889569 -0.0637939 -0.047047 0.0270021 0.0905964 -0.15517 0.0491358 0.0870503 -0.140566 -0.10029 -0.0338763 -0.0790334 -0.131415 0.152206 0.0257797 0.200831 -0.121147 0.0504963 -0.118952 -0.106905 -0.011595 -0.16532 0.0852657 0.112529 0.0224669 0.133933 0.214376 -0.0471177 -0.0348436 -0.0104084 -0.237589 -0.0823781 -0.192058 0.0196369 0.113276 0.0456055 -0.0465524 0.150222 -0.183965 -0.038665 0.138429 -0.00238324 -0.123171 -0.206745 -0.0508416 0.185716 -0.0273574 -0.154442 0.19167 -0.176119 -0.118259 -0.175361 -0.215415 0.047529 0.0556819 -0.0337213 0.205938 -0.236592 -0.153586 -0.0619856 -0.0518287 0.0639393 -0.194991 0.0958121 0.0315176 0.260364 0.119984 -0.182565 -0.114362 -0.11756 -0.229802 0.00719939 0.0719449 0.0394155 -0.216909 0.0773307 -0.00996442 -0.107486 -0.19191 -0.114403 -0.177784 -0.0836696 0.0398672 -0.180517 -0.0570002 -0.0131009
chenqin 0.151698 0.269427 0.0118622 -0.0433145 0.186843 0.0441437 -0.0499078 -0.0766124 0.0633032 -7.34171e-05 -0.134363 -0.207783 -0.0702837 -0.224862 0.0549291 -0.242048 0.0292784 -0.133814 -0.355417 0.128805 0.121503 -0.353425 0.0578818 0.0492041 0.153476 -0.224335 0.0981892 0.139581 0.0790064 0.0671043 0.0271898 0.234257 0.206976 0.168818 -0.0791007 0.00565078 -0.229979 -0.10996 -0.0267307 -0.0433021 0.186444 0.0215228 0.36031 -0.0298515 -0.139213 -0.0626791 0.0950392 -0.0718498 0.0516893 -0.0521072 -0.0340564 -0.115728 -0.111193 -0.105039 -0.187362 0.0429536 0.131182 0.0451703 0.0506161 0.103212 -0.0215188 -0.0910785 0.141885 0.135311 -0.00167382 0.107783 0.0598408 -0.0824497 0.127421 -0.218561 -0.0698604 0.217392 -0.0268807 0.0123764 -0.243292 -0.0188596 -0.159585 0.0716089 0.0949157 -0.0882452 -0.0971312 -0.07478 0.294212 0.0447996 -0.11003 0.0984401 -0.0957677 0.127898 0.214798 -0.102534 0.0734936 -0.0554349 -0.0322715 -0.116848 0.0580297 -0.0902991 -0.100616 -0.213629 0.07698 -0.232231 -0.00288828 0.0986421 -0.0912777 0.0141712 0.0337306 0.171353 -0.0627772 0.148748 0.0399561 -0.1809 0.00936072 -0.08118 -0.0340468 -0.0987333 -0.0228206 0.000507628 -0.183995 0.0117469 -0.0645742 -0.121667 -0.141603 -0.101689 -0.114768 -0.0584313 -0.0726896 -0.13563 -0.228997 0.0384255
cici -0.0437945 0.272443 0.153908 -0.103602 0.212169 0.187863 -0.236362 -0.141167 0.069592 0.12145 0.0838982 -0.0648743 -0.0752405 0.128619 0.275084 -0.224387 -0.00512311 0.0722578 0.0231755 -0.141008 0.251401 -0.0808936 0.21099 -0.0251845 0.172681 0.0480111 -0.0166788 0.215395 -0.0626196 -0.0616085 0.00257924 -0.0364138 0.093899 0.186014 0.1136 -0.201165 -0.0950791 -0.0237964 0.0845716 0.0675766 -0.00617125 0.10954 0.244042 -0.0947545 -0.0499358 0.100878 0.105336 0.05456 -0.0314628 0.0791814 -0.188016 -0.15692 -0.213337 0.106588 -0.363391 0.073827 0.0814836 0.0584849 0.20911 0.0712789 0.0465643 -0.118333 0.0522657 0.0901247 0.0219446 0.0951836 -0.0333818 0.0294899 0.181112 -0.292673 -0.06186 -0.0249093 -0.168043 0.226765 0.0301605 0.0889011 -0.0660559 -0.220783 0.158398 -0.0968426 -0.165714 -0.0514951 0.0480826 0.0517502 -0.0207144 -0.0190312 0.0924668 0.117337 -0.137411 -0.0199556 -0.00579151 -0.0921786 0.0535374 -0.0327035 -0.0694829 0.0967632 0.0721577 -0.270069 -0.0603061 -0.127339 0.136893 -0.206525 -0.00161907 0.0950225 0.0559082 0.0119901 -0.0369531 0.14018 0.0872953 -0.077014 -0.00463859 -0.103062 -0.197469 -0.116229 0.0548137 0.0716045 -0.188915 0.066348 -0.0804412 0.103516 0.0349135 -0.0231438 0.00448604 -0.182595 -0.120963 -0.0979899 -0.303047 0.150477
dongdongqiang -0.0861002 0.245969 0.140672 -0.292051 -0.197386 0.14766 0.0551939 -0.0290094 0.0773716 -0.0967581 -0.0230157 -0.255084 0.0722526 -0.0234629 0.239369 -0.18841 -0.116941 -0.184105 0.016984 -0.150606 0.112521 -0.00460822 0.13324 0.169612 0.0902122 -0.21658 -0.0221698 0.105789 -0.114258 -0.140114 0.103364 0.0678059 0.00436642 0.212342 0.0197308 0.0591825 -0.252216 0.16344 -0.150146 -0.100063 -0.075993 -0.163154 0.136833 0.202654 -0.10964 0.188908 -0.0217879 -0.079376 -0.0822521 -0.0316142 -0.239702 -0.0705473 0.052699 0.223313 -0.169986 0.076076 0.0693254 0.0474416 -0.10301 0.0329014 -0.0422366 0.0379764 -0.131213 0.0290579 -0.0979668 0.018133 -0.145857 0.237544 0.116295 -0.114794 0.095288 0.0483515 0.0151739 0.0391721 -0.0646925 0.172962 -0.135693 0.125134 0.018964 0.014314 -0.189957 0.0281849 -0.0768301 0.00916544 -0.0900702 0.190609 -0.174658 0.164261 0.108321 -0.0993832 0.0632105 -0.234738 -0.0875059 -0.101601 0.170697 -0.14102 -0.012318 -0.144524 0.151769 -0.252006 -0.120358 -0.104667 0.0209587 0.096261 -0.118204 0.0639197 0.132508 0.276219 0.151618 -0.199979 -0.210569 0.0491665 -0.0938077 -0.125779 0.0533906 0.0940289 -0.0142677 0.182355 -0.0321402 -0.00493813 -0.0415724 0.028833 -0.0345613 0.0519179 -0.0726327 -0.192076 -0.171594 -0.211748
douzishushu -0.115755 0.123175 0.219417 0.241444 0.0921639 0.279449 -0.0774144 0.176144 0.17126 0.208184 0.0538548 0.0922454 0.0285058 -0.0236848 0.0264078 -0.200234 -0.0952943 0.0981107 -0.0176499 -0.026103 0.197741 -0.0789115 0.256694 0.0635005 0.00384767 -0.0546625 0.094392 -0.172606 -0.149864 -0.101745 -0.134652 0.0234729 0.136805 0.321808 0.0560684 0.145624 0.0207397 0.191035 0.251112 -0.0824893 0.10883 -0.200018 0.044892 -0.181115 0.0165467 -0.0568456 0.00250604 -0.00959418 0.0192839 0.0768236 0.0486719 -0.00908054 0.0817776 0.0614827 -0.113632 0.019429 -0.0685611 -0.0105896 -0.0331015 0.0388603 -0.0366827 0.139312 0.0541953 0.0364173 0.00943893 0.0760175 -0.0278049 0.223819 0.0959765 -0.140896 -0.190043 0.135297 0.178843 0.00494027 -0.0447788 0.0525079 -0.0012959 0.131276 0.0465487 0.147311 0.0777883 -0.172699 0.166702 -0.000216825 -0.051848 0.0712029 0.127059 0.0399892 0.0209352 -0.16926 0.145159 -0.170304 -0.123401 -0.102366 -0.12742 -0.269825 0.157581 -0.0798667 0.101138 -0.332505 0.0436129 -0.0963381 0.104256 -0.120641 -0.120966 0.168336 -0.0104897 0.189335 -0.139099 -0.102423 -0.309173 -0.259633 0.0957829 -0.0118598 -0.0286879 -0.00149904 -0.08431 -0.0695294 -0.0789286 0.0347893 0.0137206 0.126019 0.0391205 0.136693 -0.281078 -0.107096 -0.180403 -0.0492767
e-mo-de-nai-ba -0.0100105 0.224724 0.0384738 -0.0980337 0.10477 0.127101 -0.0105322 0.0530606 0.0691184 -0.0551554 -0.0415782 0.0419023 0.0427413 0.053009 -0.105742 0.0617128 0.00940905 0.0219684 -0.190502 -0.0532311 0.0657187 -0.0359556 0.0720972 0.0976637 0.0629295 -0.0162566 0.0522806 -0.0153543 0.0397187 0.00981238 0.00845577 -0.0219706 0.0927193 0.226607 0.135205 -0.046498 -0.00393502 -0.131854 0.260131 -0.0866773 -0.0280406 -0.236302 0.099345 0.057608 -0.0446459 0.129751 0.0887082 0.0870147 -0.0268808 -0.0520352 -0.100309 -0.141027 0.111398 -0.0609438 -0.125655 -0.104514 0.0444238 0.155102 0.0276927 0.0218339 -0.116207 -0.0172843 -0.130348 0.00866201 -0.0988252 -0.0510872 0.0770275 0.12365 -0.00749479 -0.186715 -0.161022 -0.0272496 0.103606 -0.0384677 -0.227726 -0.14081 -0.0456797 0.18367 -0.0263552 0.00546812 -0.0699045 -0.192411 0.0392888 -0.116444 -0.1778 0.00863092 -0.0104449 0.0578196 0.125329 -0.102557 0.131525 -0.212332 -0.147003 -0.046272 0.0050153 -0.062502 0.00854357 -0.0372526 0.257698 -0.209859 0.0755536 0.0269553 -0.0468124 0.0427866 -0.123001 0.0818308 0.0703316 0.125481 -0.0250015 -0.0980213 -0.0191523 -0.0995599 -0.036329 -0.043138 0.0812727 -0.00723165 -0.131847 -0.032212 -0.0580852 -0.139574 -0.0801483 -0.135811 0.054058 0.211944 -0.254064 -0.0455564 -0.30676 0.0337198
feifeimao -0.0453875 0.0157584 0.0915997 0.135087 0.056157 0.125788 -0.0547961 -0.095078 0.255005 0.032435 -0.0898596 0.0035201 -0.0452351 0.152699 -0.0093545 -0.209368 0.0609834 0.167155 -0.138855 -0.0801452 0.0848215 -0.161858 0.125801 -0.129947 -0.0772242 -0.108388 0.0541077 -0.142295 0.0452199 -0.170644 -0.0571295 -0.0967469 0.00900287 0.22708 -0.0266383 -0.0455327 0.0267459 -0.101057 0.142104 -0.0547724 0.0415195 0.0912231 0.214332 0.0196529 -0.129003 -0.0446766 0.0895984 -0.0294697 -0.0363788 0.021774 -0.0489013 -0.0259845 0.0810617 -0.0088858 -0.0806052 0.0029351 0.192161 0.170502 -0.0386524 -0.154825 -0.0590917 0.0168593 0.122178 -0.27409 -0.0462155 -0.0490558 -0.0660336 -0.0717897 -0.00693532 -0.00527616 -0.0846955 -0.0107838 -0.198956 -0.0544566 -0.0606254 -0.0036184 -0.0266571 0.0649774 -0.0818839 -0.0254392 -0.0171419 -0.154388 0.164523 -0.132172 -0.0097279 0.00919242 0.0567394 0.152082 0.0669989 -0.16198 -0.0519074 -0.0123299 -0.0967387 0.0936047 -0.177639 -0.15648 0.040889 -0.29801 0.32444 -0.257454 -0.250051 -0.141402 -0.110557 0.0830429 -0.109413 0.0811877 -0.0578369 0.276295 0.165731 -0.0777416 -0.022211 -0.0795517 -0.154455 -0.0373563 -0.187989 -0.0348076 -0.120571 0.14132 0.0955556 0.0177737 -0.032101 0.0615917 0.133951 -0.0108694 -0.197667 -0.168283 -0.350134 0.0658212
fox4x4x4x 0.016301 -0.0654047 0.0957544 -0.16387 0.0552659 0.181989 0.119477 0.119544 -0.102864 0.0476612 0.103505 0.0988867 0.00225273 0.425812 0.0167668 -0.0786067 -0.105199 -0.148362 -0.0937564 0.130392 0.181561 0.0642519 -0.0271686 0.177739 -0.120549 0.0213778 -0.18765 0.151357 -0.166348 -0.0660941 0.145514 0.116268 0.198343 0.154313 -0.0323597 0.128107 -0.25907 0.186611 0.266754 0.0408677 -0.0274963 -0.0325742 0.0408922 -0.0162277 -0.128227 -0.0726029 0.181025 0.0364094 0.0813047 -0.0466931 -0.17214 -0.00205746 0.108977 -0.0696959 -0.0870547 0.153836 -0.179291 -0.0560267 -0.00915566 -0.353463 -0.0229817 -0.00488754 0.072244 0.0667441 -0.0053449 0.207757 0.154012 0.294384 0.151433 -0.124971 -0.117647 0.218152 -0.131366 0.0175235 -0.194741 -0.0329289 -0.0150706 0.103288 0.0442676 -0.0506315 0.0356455 -0.159723 -0.0887429 -0.101019 -0.18591 0.00595878 0.144668 -0.00701288 -0.0329817 -0.0512979 0.181041 -0.139059 -0.223972 -0.127446 0.115878 0.0511765 0.285793 -0.28754 0.126889 -0.182265 -0.117886 -0.0817159 -0.203972 -0.0588454 -0.0981615 -0.223244 -0.048938 0.300346 -0.0132912 -0.0734791 -0.21059 -0.155021 0.358357 0.0943213 0.105646 -0.14726 -0.258721 -0.111572 0.0563872 -0.0386664 -0.0548658 -0.0917369 -0.0847286 0.136179 -0.0515745 -0.0970638 -0.293324 -0.188129
fu-er 0.00570132 0.0775153 0.0206855 -0.0976205 0.0608281 0.260701 0.0303558 -0.109929 0.0494263 0.0213137 -0.191535 0.100613 -0.000741532 0.0221584 0.0864795 -0.0272676 -0.0835154 0.028747 0.0498744 0.0592225 0.0704027 -0.231275 0.110948 0.00962463 -0.0916397 -0.0400911 0.161661 0.0484841 0.0150827 -0.0835652 0.0890589 -0.0247954 0.180033 0.107087 -0.0134338 -0.0842948 -0.0793474 0.0471207 0.147418 0.010102 -0.117531 -0.0562952 0.154836 0.0224326 -0.0331001 0.0209259 0.165714 0.0239429 -0.039402 -0.0613018 -0.182109 -0.122014 -0.0317168 0.020524 -0.146311 0.125906 0.150817 0.156928 -0.22356 -0.101739 -0.0249708 0.0462149 -0.0529562 -0.0505618 -0.138224 0.210111 -0.0798819 0.16168 0.0861505 -0.138755 -0.120014 0.10828 -0.113979 0.0310199 -0.0647853 -0.00173394 -0.0179278 0.111168 0.0624157 0.0840846 -0.205384 0.0437177 -0.0546731 0.0888467 -0.106845 0.0508856 0.0059531 0.0934835 -0.0787967 0.0461347 0.138634 0.0113877 -0.2238 -0.0376178 -0.1022 0.00902607 0.0497273 -0.0466444 0.07562 -0.222676 -0.205259 -0.0034061 0.0347323 0.0140856 -0.0409675 0.082963 0.0319864 0.19313 0.0999819 -0.0320564 0.134229 -0.14161 -0.0495053 0.0296305 -0.077836 0.0903952 -0.157426 -0.072209 -0.000721092 0.0622504 -0.0193851 -0.1549 -0.00148592 0.150865 -0.0612806 -0.0818581 -0.26269 0.106938
gayscript -0.0898594 0.0585494 0.0241271 -0.206272 0.182624 0.372561 0.00261655 -0.0501415 0.201259 -0.0431245 -0.0879093 -0.0377482 -0.300902 0.239663 0.169762 -0.099644 -0.0162588 0.124129 -0.17709 -0.163386 -0.0189802 -0.34018 0.18683 0.00156014 0.0429307 -0.0831453 -0.089484 0.177329 -0.0229595 -0.0783206 0.327504 0.228079 0.0391491 0.151342 0.154614 0.0475658 -0.142572 0.048049 0.0635914 -0.0658005 -0.0411217 -0.123926 0.17237 0.00730813 -0.185759 -0.00822216 0.0644149 0.0623221 -0.0118726 -0.0487099 -0.192588 -0.154234 -0.0643006 0.244421 -0.152999 0.185758 0.0313337 -0.00443583 0.0981817 0.166394 0.15067 -0.0987975 0.141047 0.0266768 -0.129041 0.0809584 -0.0978115 0.103105 0.266717 -0.0921866 -0.0973665 0.202425 -0.0571934 0.0127192 0.0571377 0.148259 0.0432689 -0.068631 0.103675 0.137797 -0.14836 -0.240501 -0.0453773 -0.0145401 -0.0888909 0.241933 -0.175072 0.0634878 0.00321685 0.0671815 0.046042 -0.0908298 -0.0657186 0.0872957 0.0189253 0.0984648 -0.0660164 -0.325146 -0.0330129 -0.0754655 0.0542948 -0.0718106 -0.0862348 0.18516 0.0533856 0.215882 0.0411102 0.137601 0.0739277 0.0716378 -0.051189 0.0527773 -0.0760839 -0.0944302 0.0513831 0.0132107 -0.0788258 0.188195 -0.154287 -0.267609 0.0587969 -0.0740246 -0.099582 -0.0709006 -0.282218 0.0462723 -0.135231 -0.0187886
haoqishiyanshi 0.10779 0.125678 0.0372694 0.0376132 0.0893007 0.0505014 -0.0268527 -0.0112391 0.146306 -0.0486362 -0.0614223 0.0472418 0.109235 -0.0436778 0.0805103 -0.15659 0.0111808 0.0541615 -0.184228 0.125667 0.124411 -0.0163778 -0.0687006 0.0324087 0.0326782 0.0950275 -0.050146 0.245911 0.103659 -0.000605218 0.0226506 0.0626753 0.0930499 0.279609 0.0819298 -0.0166192 -0.0808146 0.0880703 0.145259 -0.0195065 0.0179451 -0.146559 0.229497 0.294802 0.10827 -0.0131042 0.18509 -0.23881 0.0492111 0.0709416 -0.190031 -0.016735 0.0337763 -0.109395 -0.235942 -0.200087 -0.00376278 -0.16992 -0.248774 -0.0508781 -0.183052 -0.268652 -0.122228 -0.0752762 -0.269703 -0.057837 0.0186736 0.116965 -0.00170102 -0.187883 -0.0228175 -0.00775208 0.0620198 0.204903 -0.250148 -0.0602365 -0.0506513 0.241862 -0.143489 0.241046 -0.148189 -0.00191914 -0.0432894 -0.148788 -0.0539401 -0.0613386 0.0581821 0.0199383 0.0825617 0.0521374 0.114118 -0.0454893 -0.167389 -0.0340108 0.235304 -0.160163 0.187428 -0.31042 0.0676215 -0.28558 -0.00945089 -0.0895307 -0.00431402 -0.094731 -0.213989 0.0698594 -0.193825 0.157353 0.0327912 -0.0566029 0.0248532 0.176415 0.303591 0.1173 0.099814 -0.0638708 -0.177183 -0.00720984 -0.00132327 -0.090778 -0.114596 -0.242883 -0.0509551 0.0602272 -0.0596179 0.0244049 -0.382453 0.0872723
huo-zhen-bu-lu-zi-lao-ye -0.0725261 0.205112 0.223598 -0.0991783 0.121502 0.15368 0.0516956 0.0331446 0.257175 0.164525 -0.0856987 0.066469 0.158656 0.180625 0.203514 -0.117238 -0.0337656 -0.0883631 -0.0325866 -0.0503942 0.0843252 -0.21771 0.103673 0.00684198 -0.105395 -0.167846 -0.0552119 0.015333 0.0232223 0.089657 0.00291634 0.0332377 0.128316 -0.0233336 -0.106743 0.0863237 -0.220059 0.0783286 -0.00453075 -0.171663 0.0154721 0.015378 0.108285 0.0989364 -0.105739 -0.0355277 0.188419 0.0746664 0.0392304 0.0345565 -0.218231 -0.23887 0.131072 0.0176251 -0.10929 0.0639822 0.112059 -0.0285869 -0.0534111 -0.00595682 -0.122358 -0.00503272 -0.0694858 0.110484 -0.122522 -0.117537 -0.164003 0.246658 0.180641 -0.206519 -0.0582717 -0.0928378 0.0369347 0.0986466 -0.204502 -0.200722 0.0312511 0.177424 0.0343728 0.00856695 -0.141516 0.00347299 0.000149 -0.115482 -0.105577 0.053898 0.0693882 0.0856364 -0.0382669 -0.1337 -0.0639642 0.0113271 -0.0181081 -0.199017 -0.0308204 -0.0871099 0.0247324 -0.03374 0.093243 -0.0964825 0.00230199 -0.168712 -0.149306 0.111489 -0.138376 -0.00376714 -0.00988416 0.213878 0.115842 -0.145927 -0.0893634 -0.045277 -0.012222 0.00937067 -0.0718045 -0.03238 -0.082248 -0.1337 -0.0382534 -0.0718118 -0.023934 0.0625919 -0.1024 0.129293 -0.269059 -0.124102 -0.143999 0.127446
jiaoshoutv -0.0979357 0.173742 0.0741145 -0.326629 0.103595 0.266925 0.0119035 0.0469559 0.154248 -0.0647152 -0.0736294 -0.187771 -0.0476669 -0.0372992 0.14284 -0.131306 -0.162697 -0.142958 0.147948 -0.0906477 0.195106 0.0901323 -0.0365392 -0.0053489 -0.137275 -0.0163166 0.0513688 0.104617 0.0907144 0.173197 0.0812876 0.185515 0.0364838 0.172933 0.154564 0.0606804 0.064843 0.103072 -0.0930677 0.197574 -0.131588 -0.0759357 0.107449 0.130023 -0.0861289 -0.0240275 0.108025 0.0174418 -0.0892766 -0.107434 -0.116852 -0.197813 0.0607283 0.0924629 -0.175446 -0.0596618 -0.00562298 0.0139949 0.0639008 0.0623109 -0.0567567 -0.0531364 -0.0286418 0.205115 0.0829712 -0.0131771 -0.108404 0.0849206 0.162871 -0.275258 -0.00237453 0.0504907 0.0957363 0.187132 -0.0445986 -0.0849123 -0.260576 0.236092 0.147149 0.0293355 -0.0255896 0.0789931 -0.0559275 -0.102646 -0.152415 0.0864438 0.0794146 0.190817 0.163561 0.138644 0.240834 -0.141508 -0.173714 -0.161294 0.000673632 -0.0416638 0.158416 -0.212466 -0.030456 -0.161195 0.0890225 0.0568808 -0.0665658 0.0725269 -0.0683106 0.0714905 -0.052165 0.323527 0.0405378 -0.142145 -0.215257 0.231976 -0.036099 -0.124026 0.0610826 -0.0169191 -0.0961908 -0.00339261 -0.0936564 -0.0447695 -0.0474762 -0.0971901 0.0511504 0.0971615 -0.270006 -0.167875 -0.296088 0.0647045
jixin -0.0302916 0.102771 0.116404 -0.0517435 0.0470639 0.0137711 -0.00750632 -0.0608902 0.174578 0.148175 -0.0339248 0.1123 0.101976 0.0285708 0.155804 0.0409084 -0.0416204 0.0251239 -0.0508706 -0.0323145 0.191368 -0.0416811 -0.0179057 0.0226691 -0.194315 -0.101459 0.14612 0.100089 0.00609126 -0.0363184 0.154464 0.00536993 0.134562 0.19925 0.028908 0.00667141 -0.0620591 0.0890427 0.121906 -0.0610943 -0.0377095 -0.0687476 0.130244 -0.043906 -0.065687 -0.158712 0.140703 0.0270055 -0.00599007 -0.0527526 -0.2668 -0.112103 -0.0742644 -0.00986265 -0.103334 -0.0616835 0.0963682 0.0382038 -0.100353 0.0121619 -0.0770192 -0.0743554 0.0481337 0.0433031 -0.144096 0.00722501 -0.00791123 0.109608 0.087585 -0.0956409 -0.0316089 -0.0230741 -0.0384385 0.100447 -0.0793517 0.0122712 -0.160157 -0.0495752 -0.0765495 0.0151444 -0.13904 -0.015753 0.0546536 -0.00819144 -0.176994 -0.0442999 -0.120746 0.121264 0.0361138 -0.0272432 0.21612 -0.0968297 -0.208622 -0.0202062 0.0657163 -0.0464088 0.0978298 -0.0368876 0.126713 -0.202032 -0.140094 -0.0121858 0.00010923 0.0457333 -0.144741 -0.00289527 0.0325446 0.218287 0.141299 -0.013331 0.0841257 -0.0221025 0.0583276 -0.0572673 -0.140489 -0.0733451 -0.107474 -0.0227289 -0.14967 -0.0659602 -0.0694885 -0.116684 0.0215284 0.133999 -0.120822 -0.10607 -0.345479 0.132648
kaiserwang730 -0.0975415 0.16111 0.183424 -0.151421 0.206237 0.143647 0.264658 -0.189844 0.150986 0.0759695 -0.16261 0.00327183 0.00787296 0.305135 0.0612779 0.154198 0.159449 0.0134069 0.0181814 -0.0193429 0.171158 0.0835264 -0.101208 -0.0333012 -0.0392397 0.19498 -0.225928 0.105528 -0.0254442 -0.0097933 -0.0396345 0.0124429 0.0743115 0.0371544 -0.00449126 0.0738846 -0.248924 0.251571 0.324277 -0.192978 0.232754 -0.166774 0.068572 -0.00111914 0.13627 -0.122852 -0.049809 0.121246 0.150088 -0.074154 -0.185146 0.0641849 0.202189 -0.0172104 -0.240239 0.111223 0.0230913 -0.0473459 -0.165358 -0.112259 -0.192843 0.108369 0.0537708 -0.0961541 -0.068383 0.165285 0.0265153 0.0322589 0.266651 -0.139589 -0.300143 0.103854 0.0213163 0.108458 -0.119108 -0.0470468 0.0899836 0.0962081 0.0596925 -0.0838782 0.0935268 -0.130283 0.215003 -0.236927 -0.176273 0.204402 0.161922 -0.0895267 0.0547177 0.0732819 -0.119877 -0.161 -0.129934 -0.0814266 0.0145909 -0.259337 -0.0516208 0.0638751 -0.0410231 -0.272374 -0.04203 -0.0404922 -0.0518841 0.0595846 -0.0478089 -0.281202 -0.115189 0.179071 -0.133006 -0.104292 -0.195723 -0.142317 0.105351 0.0325408 -0.145807 0.059132 -0.227638 -0.0711325 -0.00491914 -0.105219 0.0446663 0.112757 0.0177609 0.0966275 -0.224222 -0.0552349 -0.383977 -0.132226
kennethtse 0.0845834 -0.0659548 0.00109811 0.116337 -0.193126 0.165129 -0.114504 0.0806591 0.202589 0.0787127 -0.0345832 -0.130203 0.0221755 0.0642932 -0.0199261 -0.138752 -0.153755 0.223424 0.0538064 -0.0492001 -0.329764 -0.0783323 0.167694 -0.0468224 0.0217567 -0.123806 0.0353676 -0.0981847 -0.099415 0.166397 -0.115874 -0.0319485 0.309485 0.287614 0.0456696 0.0854859 -0.27746 0.134665 0.00802015 0.198585 0.0915456 0.0918261 0.0103074 0.1185 0.0364355 0.0931782 0.0448979 0.0115989 -0.30282 -0.112171 -0.331622 0.161401 0.189091 -0.0898196 -0.102971 0.0482227 0.119978 0.187111 0.0633392 -0.180505 -0.132826 0.0892792 -0.0127116 -0.193875 0.00976844 0.119299 -0.0141128 -0.0585914 0.0570946 0.0717993 -0.10872 0.0961747 0.159634 -0.087354 0.0104656 -0.140115 -0.0881887 0.258695 -0.118312 -0.135693 0.0934468 -0.0807258 -0.00297265 -0.10872 -0.0338843 -0.102557 -0.0590812 0.161511 0.0304919 -0.0591553 0.0837482 -0.144111 0.161763 -0.210117 -0.107765 -0.135153 -0.00378707 -0.125434 0.126526 -0.346711 -0.226628 -0.132362 0.0394741 0.00452149 -0.360882 0.0153235 0.163747 -0.0686042 0.0679151 -0.00775079 -0.195926 -0.00354451 0.00519069 -0.0178569 0.0233833 0.185361 -0.234624 -0.114637 -0.204627 -0.0127459 -0.0382767 -0.0702625 0.0196991 0.174056 -0.329477 -0.19218 -0.279763 0.0646823
lanlingyeyu -0.0630286 0.434046 0.0740165 -0.0187385 0.00150396 0.324484 0.0681952 -0.0328712 0.301578 0.121909 -0.221315 -0.0156611 0.185478 -0.0139021 0.0586872 -0.26326 -0.0113525 -0.0780615 0.0625652 -0.00850582 0.136655 0.00315835 -0.126838 0.122719 -0.0894474 -0.199136 0.0737462 0.229691 0.0184607 0.0301507 0.0297353 0.132239 0.108234 0.122582 0.178065 -0.0428822 -0.11792 0.119544 0.298231 0.121187 -0.0396583 0.118837 0.014999 -0.00475534 0.196559 0.0160895 0.0617588 0.12768 -0.115012 0.0768677 -0.048183 -0.0376209 0.233264 -0.0859992 0.0877278 0.0448016 -0.125076 0.129826 0.00871912 -0.142249 -0.0334108 0.133708 -0.000686702 -0.226999 -0.163754 -0.117195 -0.175976 0.0003906 0.197668 -0.269273 -0.165718 0.0427109 -0.0811571 0.188273 -0.0429973 0.170492 0.00545669 0.167111 0.107379 -0.056308 0.0124514 -0.0635033 -0.0340901 -0.2195 -0.0234266 0.239323 0.0105731 -0.0157104 0.0263296 -0.11606 0.245798 -0.25705 -0.176391 -0.0916504 -0.149599 0.0182106 -0.0224129 -0.0057373 0.120807 -0.129847 -0.12861 0.0964851 0.069404 -0.171415 -0.133407 -0.0233508 0.0261256 0.380753 -0.0256952 -0.168863 -0.257589 -0.216544 -0.0310107 0.0309123 -0.140251 0.18488 -0.184983 0.0618266 -0.028711 0.0833352 -0.0335354 0.0952793 -0.0479201 -0.124063 -0.162035 -0.425324 0.0356088 -0.221989
li-yang-89 -0.0880286 0.253902 -0.0318579 -0.172083 -0.0452187 0.283504 -0.284478 -0.0769611 -0.0154037 0.0334667 -0.0544985 -0.0152223 -0.185031 -0.120083 0.09959 -0.0548969 -0.0144331 0.0630231 -0.11418 -0.0200402 0.0877982 0.0186672 -0.0210489 -0.0971781 0.0800862 -0.0552235 -0.0288022 0.111715 0.011776 -0.0212341 0.0771476 0.034498 0.0785625 0.177682 0.130825 0.0295047 -0.111349 0.0649782 0.0655704 -0.0868531 -0.00682198 0.0930083 0.147624 -0.00552227 -0.150647 -0.00936171 0.0929711 -0.0119942 -0.0886486 -0.0873106 -0.15954 -0.0538935 0.130725 -0.0160467 -0.198713 0.0979426 0.213151 0.0388607 0.0990608 0.102269 -0.0552896 -0.118724 -0.0451558 -0.205854 0.0162387 -0.130792 -0.178146 0.0798508 -0.0043237 -0.133953 -0.109238 -0.141241 -0.0620485 0.0869609 -0.108784 0.153375 -0.00998928 0.141922 0.0319281 -0.0358633 -0.189207 -0.050096 0.00905145 -0.116411 0.00982961 0.214684 -0.0581029 0.0365424 -0.0317517 0.0026203 0.157547 -0.111633 -0.165767 -0.090591 -0.137942 -0.130175 0.127743 -0.283836 0.211359 -0.149048 -0.101347 0.0229901 0.0435752 -0.0072978 -0.232345 -0.0363046 0.0654408 0.1936 -0.177055 -0.149487 0.0289364 0.0745546 -0.116786 0.0168596 0.0147585 0.0982759 -0.154514 0.0517653 -0.00737402 -0.0990225 -0.136045 -0.201526 0.0656268 0.0267214 -0.31849 0.0243504 -0.0859241 0.212319
liangbianyao 0.0911089 0.33895 0.139535 -0.042688 0.0838357 0.239965 0.0639129 -0.0265032 0.0515183 0.0290578 -0.0886753 0.0899355 -0.00891608 0.00974325 0.041415 0.0123409 -0.0290841 -0.00233559 0.0491292 0.0877146 0.0326722 -0.122443 0.0593715 0.0513294 -0.0320261 -0.0623335 0.0143927 0.034451 0.0118235 0.018441 -0.0322869 0.0276311 0.244473 0.130347 0.0981584 -0.0498672 -0.223326 -0.00863369 0.0722198 -0.0566767 -0.205095 -0.0318428 0.224269 0.0318689 -0.0420886 0.0440211 -0.0866877 -0.0255004 0.0358336 -0.125909 -0.194778 -0.121262 -0.0244515 -0.137746 -0.210849 0.053494 0.0800355 0.0427761 -0.164778 -0.0824541 -0.0464684 -0.0621744 -0.0654482 0.00382009 -0.128147 0.0380146 -0.0426013 -0.0255148 0.103152 -0.0692251 -0.189972 -0.0329123 -0.122341 -0.0412132 -0.0922474 0.0566278 0.067216 0.118561 -0.143853 -0.0124888 -0.0631 -0.0830082 0.111311 -0.0445906 -0.0142117 0.0723924 0.0155222 0.0941386 0.0537655 -0.015906 0.0891424 -0.0105503 -0.0642586 0.00246666 -0.0104499 0.0913343 0.037647 -0.119221 0.120615 -0.170823 -0.0261228 -0.157528 -0.0272113 0.109853 -0.056219 0.00340704 -0.153744 0.0613622 -0.0581785 -0.136871 0.0265759 0.0180474 -0.0859809 0.0497294 0.110935 0.0440938 -0.187554 0.0358002 0.0449696 -0.0531104 -0.0703918 -0.140671 0.111026 0.138409 -0.0503769 -0.0461163 -0.275736 0.146272
ling-hu-fu-gui 0.0853186 0.148904 0.124725 -0.175707 0.230246 0.19335 -0.0271867 -0.0410883 0.285519 -0.0430853 -0.156675 0.185312 0.153859 0.0837049 0.107573 -0.0769521 -0.0159937 0.0207428 -0.0451219 -0.178707 -0.00841861 -0.229573 0.04433 0.0308041 0.0390433 -0.152012 0.0439963 0.125481 -0.0323453 -0.0556663 0.09396 0.0392575 0.284822 0.199691 0.156378 0.0919314 -0.026002 -0.122339 0.422673 0.167341 -0.0892778 -0.0247429 0.144032 0.273201 -0.124496 -0.126395 0.0519534 0.0341947 0.0639939 -0.126013 -0.126466 -0.277182 0.00621323 0.0884448 -0.0750381 -0.0738932 0.0742579 -0.0256314 -0.00923574 -0.164074 -0.103282 -0.0498207 0.0765611 -0.086918 -0.0749772 -0.0672721 0.165384 -0.0394814 0.0511671 -0.0500499 -0.111334 0.00382806 0.00119553 0.00180898 -0.15952 -0.132192 0.116597 0.169842 -0.184331 0.024861 -0.0255154 -0.132046 -0.0249728 -0.0848058 -0.0874973 0.148271 -0.0152339 0.0271073 -0.106885 0.188022 0.0735965 -0.0131961 0.0021071 0.0414934 0.087828 -0.071635 0.209575 -0.0772277 0.0176879 -0.165251 -0.0284932 -0.0514559 -0.206877 -0.0337667 -0.110658 0.0840697 -0.0631353 0.118357 0.0642114 -0.0986128 0.0435673 -0.00787475 -0.0097608 0.109615 -0.0469797 -0.150756 -0.179533 -0.204409 -0.0235331 -0.146571 -0.114875 -0.164755 0.230668 0.0345017 -0.145438 -0.136939 -0.166942 -0.00793296
liu-peng-cheng-sai-l -0.137285 0.11238 -0.175248 0.057225 0.191481 0.169341 -0.201262 -0.203668 -0.0478508 -0.00612987 0.278866 -0.123123 0.0330883 0.305177 0.160704 0.00721889 -0.196321 0.0522271 0.0698456 -0.190908 0.0209071 -0.0128981 0.0339735 0.0782847 0.175256 0.127833 0.119501 -0.0157925 -0.126812 -0.111506 0.0806904 0.0904575 0.210928 0.433531 0.0410091 -0.140798 -0.155106 -0.0464182 0.0224024 -0.0959658 0.0955415 -0.25861 0.102476 -0.173005 -0.116453 0.0987853 0.140814 0.227482 -0.0284675 -0.120241 -0.156425 -0.0545326 -0.0872177 0.174634 0.137232 0.134136 -0.117998 0.0949546 0.0768824 0.0794806 -0.21655 -0.22272 -0.338371 0.0309498 -0.0110051 0.315175 -0.125273 0.127757 0.190075 -0.0867102 -0.19421 0.32024 -0.0976686 -0.233353 -0.192665 -0.00156128 0.0874082 0.290998 -0.0423917 0.0058845 -0.189737 -0.0130504 0.198367 0.0173355 -0.047732 -0.0515903 -0.200812 -0.0909744 -0.00100137 0.0349402 0.00839584 -0.0475426 -0.00807081 0.0789825 -0.109896 -0.202458 0.257611 -0.168307 0.393321 -0.315817 -0.0627661 -0.243301 -0.0858478 0.0484105 0.0419885 0.0078686 -0.0267261 0.394981 -0.245798 0.0347913 0.0387928 -0.0724625 0.162103 0.168431 -0.277917 0.129848 -0.0549598 -0.103303 0.113663 -0.169131 -0.188683 0.106587 -0.0415191 0.24981 -0.134936 -0.114106 -0.102095 0.251999
liu-ting-ting-64 -0.0948736 0.0919911 0.0936637 -0.027794 -0.166853 0.272765 0.0012291 0.062056 0.30505 -0.0457 -0.158205 0.0902713 -0.0560355 0.2049 -0.167811 -0.143041 0.0427974 0.097169 -0.0873443 -0.107478 0.0379308 -0.0720421 0.0570149 -0.178229 0.0129763 -0.189727 0.0902518 0.0708611 -0.255386 -0.0349789 0.216122 -0.00972466 0.166577 0.170163 0.0904957 0.14796 -0.129067 -0.0343591 0.10865 0.0818662 -0.0121913 -0.0410815 -0.0406477 0.0871545 -0.0411181 -0.0862303 -0.075982 -0.108753 0.0177308 -0.0962179 -0.191344 -0.025327 0.0113508 -0.0703101 -0.134493 0.156977 0.0376148 0.131765 0.0841383 -0.00122788 -0.044537 -0.0477878 -0.0338069 -0.0471439 -0.0881284 -0.00219067 0.097133 -0.0499771 0.229252 0.0212116 -0.0930387 0.110755 -0.0248814 0.0165378 -0.193206 0.00438151 0.124507 -0.0500944 -0.0370634 -0.00254587 -0.00213604 -0.168019 0.133093 -0.0559753 -0.191939 0.0527109 0.0481478 -0.0366988 0.154255 0.0563669 0.0670894 -0.0884144 0.0208118 -0.0883593 -0.142003 -0.0930163 0.0766949 -0.0715522 0.0272081 -0.121771 -0.0688493 -0.133211 -0.113476 0.0574785 -0.15164 0.0283093 -0.155244 0.0670958 0.149572 -0.0759803 -0.0438885 -0.0497244 -0.128662 0.128737 0.0735904 0.036757 -0.186808 0.104466 0.0268546 -0.132852 -0.0598168 -0.0845589 0.00379046 0.0900321 -0.132415 -0.227971 -0.173313 -0.0463196
liu-yi-jie-84 -0.0354765 0.0838685 0.0925493 -0.102059 0.0988486 0.062528 0.00893957 0.274294 0.112079 0.0237023 0.050605 -0.0667683 -0.120665 0.073315 0.117046 -0.0180655 -0.0860419 0.0686876 -0.0119773 -0.0543178 0.0131575 0.00720905 0.0134483 -0.0457806 0.162763 0.0618795 -0.0891381 0.0717523 -0.168024 0.166016 0.0185094 0.0156733 0.23756 0.276838 0.0342257 -0.143481 -0.228125 -0.0229913 0.164169 0.16451 0.0268331 -0.0049031 0.0496578 -0.0669086 0.0398299 -0.0375094 -0.00612369 0.0680189 0.0072084 -0.0401714 -0.391219 -0.13847 -0.124842 -0.0700467 -0.0108408 0.0567914 0.0317477 0.209295 -0.0138481 0.0922916 -0.183958 -0.0701556 0.00784976 0.0185 -0.111224 0.205468 0.0828563 0.0491913 0.177266 0.0615592 -0.0800511 0.031593 -0.00756135 0.0529315 -0.139215 0.0711269 0.105176 0.0746347 0.0595316 0.0158336 0.0955411 -0.228874 0.00768877 -0.0605783 -0.130587 -0.0575976 -0.0158484 -0.00101151 0.00554659 -0.0169851 -0.0243088 -0.260343 -0.147485 -0.0585534 -0.161019 -0.0379927 -0.0461235 0.0825565 0.244459 -0.132671 -0.0555838 -0.0910698 -0.106836 0.0575616 -0.0778238 0.121202 -0.114334 0.177234 0.102267 0.0127924 -0.197378 -0.300547 -0.110603 0.00911084 -0.0269371 0.00849342 -0.11169 0.0500889 -0.028327 -0.0890679 -0.137097 -0.0532592 -0.0743337 0.0860287 -0.305613 0.0130893 -0.14937 0.0908761
lzy135 -0.0733028 0.295681 -0.00660169 -0.0116963 0.0851964 0.278834 -0.0608219 0.00330985 0.135977 0.0359972 -0.144512 0.054677 0.0691246 0.210186 0.0548711 0.0153636 0.0410721 -0.143315 0.0151384 -0.21582 -0.066412 -0.239971 0.202224 0.0295894 -0.0592828 0.0625484 0.14878 -0.24538 -0.0932387 -0.127594 0.00343009 0.205038 0.184769 0.395715 0.00820586 0.145242 -0.157209 0.0629039 0.109296 -0.0325477 0.0094211 0.0612956 0.0810345 0.175996 0.00493935 0.114744 0.160675 -0.13852 0.184766 0.168984 -0.393599 0.000696339 -0.0863066 -0.0203582 -0.194077 0.0172873 -0.0958344 0.166498 -0.134382 0.0701595 0.0940536 -0.194287 -0.0528598 -0.0175446 0.0621064 -0.0574412 -0.153973 -0.0965427 0.111096 0.0211143 -0.119129 0.0019814 -0.105173 0.0128673 -0.218016 0.0340202 -0.0814663 -0.00562242 -0.203227 0.0583632 -0.187575 -0.0140491 0.0390935 -0.0108884 0.0792171 0.0168551 -0.00556787 0.116275 -0.0366018 0.00537866 0.0415745 -0.0346488 -0.12509 -0.210225 -0.0308026 -0.114922 0.127869 -0.108402 0.014705 -0.101974 0.0399429 0.0401565 -0.107761 0.0715926 -0.15326 0.0685512 0.0358414 0.223652 -0.0603285 0.00688404 -0.0531407 0.178419 -0.0574826 -0.00404766 -0.0273688 0.0686899 -0.0646339 0.0716039 0.0546798 -0.125923 -0.329061 -0.0324659 -0.264377 -0.0436513 -0.0936425 -0.0781968 0.00130645 -0.000922011
ma-bo-yong -0.0403647 0.127307 0.103492 -0.0662878 0.0713957 0.112617 0.117928 0.00758417 -0.144298 0.0845573 -0.0316832 -0.0170059 0.0286342 -0.0896208 0.218836 -0.283407 0.0219756 -0.00330974 0.0333431 0.0431968 0.185554 0.0695702 -0.0813276 0.110488 -0.122203 0.0598527 0.122957 0.0271816 -0.00332353 -0.163416 -0.072554 0.0812284 0.0630921 0.288303 0.0651556 -0.198996 0.0376982 -0.139695 0.154821 0.00825548 -0.0728632 -0.131105 0.210443 -0.109519 0.0407787 0.0299338 -0.00572979 -0.0860314 0.068149 0.135641 -0.126376 -0.201869 -0.0711778 0.124038 -0.147355 0.0997284 0.0251391 0.0863437 -0.108257 0.260755 -0.150534 -0.0939472 -0.0271173 -0.165506 -0.0844461 0.095214 -0.0544843 0.0996708 0.194637 -0.223849 -0.129627 0.00724995 0.0857971 -0.0942557 -0.111916 0.000703385 0.0317414 0.016653 0.144207 0.0534796 -0.215363 -0.140143 0.166681 0.0171811 -0.0992091 -0.012867 0.0213503 0.162768 0.0323046 -0.163082 0.203052 -0.198882 -0.236774 0.0596642 -0.0595945 0.0218685 0.198352 -0.22849 0.297025 -0.168935 -0.0163594 0.0492043 0.113465 0.131131 -0.18482 0.0657903 0.0652446 0.329399 -0.0722904 -0.0793711 -0.235679 -0.0693911 -0.1648 -0.0656177 0.0365812 0.171808 0.0196989 0.0936915 -0.0059088 -0.107655 0.141495 0.052446 -0.108883 0.0854333 -0.0340724 -0.010067 -0.21955 0.0875569
ma-qian-zu -0.197293 0.467656 0.13313 -0.058522 0.159557 0.402988 -0.111202 -0.0510173 0.117715 -0.0979959 0.00251334 -0.107057 0.0699255 0.239718 0.26905 -0.0336074 -0.102644 0.175562 -0.0887702 0.073605 0.287237 -0.140487 -0.0488391 0.107661 -0.01728 0.0629269 -0.0204102 0.128318 -0.141382 -0.365828 -0.138839 0.123873 -0.0244563 0.165932 0.00745945 -0.206139 -0.278378 0.164335 0.258129 0.0304556 0.00695767 -0.0598843 0.0580076 -0.0763923 0.103767 0.158269 0.147237 -0.190526 0.143877 0.117296 -0.146924 0.205653 0.156808 0.177765 -0.186486 -0.235379 -0.0268465 -0.0312521 -0.0639616 0.117615 0.10035 0.235826 -0.111847 0.0475191 0.00122705 0.0568454 0.125653 0.107544 0.175244 0.00314131 -0.135267 0.178341 -0.103557 -0.0126964 -0.0325581 -0.0507046 -0.157609 -0.0804386 0.000712587 -0.180649 -0.13112 0.127412 0.158679 -0.208752 -0.269978 -0.091616 0.0590218 0.06974 -0.018365 -0.153152 0.160754 -0.329259 -0.220491 0.169362 -0.178694 0.237385 0.178992 -0.15886 0.316375 -0.126221 -0.174883 -0.00416201 0.000689176 0.043901 -0.0517269 -0.311135 0.12525 -0.0756981 -0.24201 -0.214099 -0.272735 -0.221105 0.0433374 -0.226035 0.0199003 0.0231732 -0.030766 0.19028 -0.0196466 -0.0703855 0.0642035 0.000123137 -0.153092 0.176676 -0.00699488 -0.06892 -0.173307 -0.0138434
matt-hartzell 0.0282072 0.319566 0.0458242 0.223325 0.233492 0.206974 -0.154751 0.0396303 0.0338366 0.249289 -0.250222 0.0470728 -0.169157 -0.0686602 0.0155528 -0.105172 -0.276755 0.0920873 -0.133393 0.100512 0.221475 -0.100858 0.120717 0.331236 0.0467849 -0.015536 -0.0860781 -0.0307021 -0.0910987 -0.0884479 0.0544419 -0.00828955 0.105506 0.30796 0.127055 0.0944295 -0.115283 0.385501 0.263059 -0.0709623 0.262378 0.0642993 0.115463 0.07009 -0.143629 0.0214031 -0.0962434 0.0278399 -0.0903785 0.0879015 -0.269609 -0.0830782 -0.0854118 -0.121174 -0.249963 0.208347 -0.0146706 -0.0406798 -0.0111736 0.151389 -0.132025 -0.036006 0.0320744 -0.154402 -0.159573 0.1336 -0.119569 0.442904 0.00753514 -0.174232 -0.141328 0.00859701 0.0282081 -0.0936593 0.248298 0.0494343 0.0130079 0.000619409 -0.216294 0.108025 0.228822 -0.0915848 0.139829 -0.123986 0.0952124 -0.05257 -0.235485 0.00257169 0.259898 -0.190425 0.353224 0.102413 -0.0558916 -0.164778 -0.0740505 -0.0651733 0.037342 0.00443304 0.141699 -0.126861 -0.27547 -0.13979 0.0801021 0.118687 -0.195906 0.222251 -0.0709974 0.00527126 0.353727 -0.0961814 -0.0589642 -0.135961 0.177053 -0.121446 0.0698566 0.0537513 0.103463 -0.0603901 0.023285 0.0328884 0.0149115 -0.0510804 0.101463 0.205165 0.24002 0.00231189 -0.253676 0.207233
max-king-48 -0.00701647 0.125158 -0.024982 -0.0133568 0.167111 0.188991 0.148777 0.157491 0.153121 0.176712 -0.106993 -0.0558524 -0.000190556 0.281794 -0.0291872 -0.0684441 -0.0234119 0.0972192 0.0194623 -0.139535 -0.00333847 -0.113201 -0.0195873 0.0115795 0.00435371 -0.213389 0.0218059 -0.0333289 -0.126822 0.035142 0.0831013 0.0917965 0.273133 0.217835 0.118643 0.0576321 -0.110237 0.193352 -0.0444678 -0.00871611 0.00938392 0.0349275 0.0804957 -0.0710707 0.0292556 -0.225326 -0.0999446 0.201626 -0.134486 -0.0731706 -0.319864 -0.0314702 0.00719041 -0.0645567 -0.163132 0.0913017 0.0604173 0.0947547 0.00122122 -0.0686509 -0.170669 0.0351762 0.139102 -0.00541112 -0.0201118 0.22816 -0.0390157 0.0951314 0.0553408 -0.0211779 -0.0628175 0.102737 0.0110691 -0.0810484 -0.073866 0.0206722 0.00843097 0.0865743 -0.157728 -0.0645653 -0.0363951 -0.0668193 0.0995661 -0.0572706 -0.0187224 -0.0368294 0.149392 0.0307685 0.126172 -0.0227236 0.0671396 0.0519906 -0.0116343 -0.118823 0.0787103 -0.136994 0.0510208 -0.130957 -0.00637355 -0.113793 -0.0611248 -0.0279066 0.0205423 0.00209135 -0.0878217 0.0805596 -0.20277 0.0346411 0.0994498 -0.02644 -0.147481 -0.0487346 -0.0346733 0.0620062 -0.114655 -0.00692895 -0.15185 -0.0587308 0.00817004 -0.0482386 -0.0583609 0.0558335 -0.00594031 0.0834814 -0.09446 -0.111096 -0.377365 -0.126686
metrodatateam 0.0641956 0.167919 -0.0597184 0.0629758 0.121641 0.0989137 -0.205279 -0.192352 0.137293 0.157566 0.441158 -0.212927 -0.0736708 0.111969 0.166563 -0.195873 -0.218463 0.0647716 -0.268447 0.0805159 0.153073 -0.226369 0.140952 0.109034 0.0472221 -0.0272965 0.155155 -0.171099 0.00794462 -0.176548 -0.0338455 0.0845169 0.32281 0.152776 0.0226742 0.140025 0.00480762 -0.0436229 -0.0232794 0.0322938 0.138744 -0.0821544 0.125703 0.0559439 -0.011648 -0.10264 -0.116639 -0.00300244 0.0319054 -0.154528 0.0844625 -0.0622035 0.16646 0.16588 0.0224508 0.00227134 -0.185838 0.107243 0.0611756 0.0336528 -0.126207 -0.297154 0.0753911 0.13732 0.205995 0.0064974 0.264874 -0.0164247 -0.142672 -0.277079 -0.185962 0.134468 -0.0358019 0.135979 0.0288318 0.139808 0.186724 -0.244879 -0.0389025 0.00834921 -0.189911 0.0247024 0.0226372 0.0817125 -0.0768392 0.190393 -0.251251 0.119958 0.000201806 -0.0989701 0.302968 0.056309 -0.0131144 0.117685 0.0472032 0.051173 0.268637 -0.236863 0.220772 -0.202988 -0.0474244 0.0319335 -0.351514 -0.193552 -0.0873738 0.21313 -0.0361843 0.311858 -0.115232 -0.272768 -0.221338 -0.126776 0.165649 0.0301105 0.123902 -0.0353053 -0.11567 -0.0734695 -0.144206 -0.0704789 -0.182332 0.086921 0.0541286 0.180819 -0.129829 -0.442081 -0.491055 -0.0298664
miaomiaomiao 0.0413827 0.117711 0.0873438 -0.156427 0.197244 0.142306 0.0446132 0.0497471 0.158161 0.0244325 -0.0697231 0.0344401 -0.00385139 0.0713694 0.0433886 -0.11818 -0.0417156 0.147574 0.00584713 0.0966534 0.0546026 -0.0985317 0.0245324 -0.0673621 0.0534798 -0.0238322 -0.00225182 0.0509768 -0.0346477 -0.154802 0.105818 0.0599965 0.075311 0.28447 0.0416515 -0.0469193 -0.103477 0.0314966 0.143254 0.0635119 -0.0219369 -0.0715046 0.0220942 0.0401142 0.058105 0.0581109 0.0924367 0.15929 -0.115624 -0.0509887 -0.176226 -0.174249 -0.0205049 0.103674 -0.123487 -0.00765534 0.0267414 0.165146 -0.0791721 0.00917603 0.0300115 -0.0534154 0.0578087 -0.00246516 0.0205059 -0.00774416 0.0307992 0.0225697 0.0683513 -0.0975794 -0.100449 0.0874798 0.0112933 -0.0419573 -0.180388 0.0431591 0.0470437 0.0560111 -0.000188747 -0.0416159 -0.0404337 -0.12934 -0.0531687 0.178787 -0.180446 -0.0326455 0.123558 0.0757854 -0.0602736 -0.0681285 0.126211 -0.0217042 -0.216291 -0.148247 -0.0262253 -0.00593089 -0.0459757 -0.117112 0.105695 -0.221985 -0.09465 -0.0168542 0.00880134 0.0927238 -0.0458558 0.0377241 -0.137234 0.127499 0.00769028 -0.07147 -0.105651 -0.0743636 -0.0586447 -0.0354119 0.0444861 -0.0193776 -0.176118 0.0963933 -0.120063 -0.121684 -0.0641042 -0.162664 0.0195295 0.0403927 -0.136326 -0.111472 -0.162944 0.0914349
mr-neverdie -0.0120714 0.158917 0.0697606 -0.177519 0.218194 0.261736 0.167626 0.0475723 0.266719 -0.0456008 -0.234006 0.227884 0.0783871 0.122511 0.146857 -0.0886236 -0.103333 0.011005 0.0923457 -0.0737732 0.0226375 -0.0113654 -0.00355587 -0.0393987 0.00984308 0.0904578 -0.0427471 -0.0983695 -0.0137081 -0.0551871 -0.129766 -0.0399566 0.336145 0.129439 0.129805 0.129568 0.0254814 -0.0403209 0.122391 0.176962 0.0502174 -0.0652598 0.00138129 0.259764 -0.0390951 0.0599969 -0.112673 0.187398 0.0330911 -0.0259363 -0.213009 -0.283023 -0.000588556 -0.02036 -0.0177619 -0.0287127 -0.0122684 0.0935822 0.00577384 -0.054209 -0.0758053 -0.0390275 -0.0573655 -0.0188264 0.0384526 -0.041817 0.0619554 0.0963805 0.172284 0.122048 -0.0934895 -0.082306 0.0546074 -0.053449 -0.11486 -0.0805124 0.0978591 0.151773 -0.267134 0.0456615 0.123825 -0.0845269 -0.053483 -0.00118012 -0.0968895 -0.122964 -0.0182001 0.0606537 -0.0144612 -0.0279588 0.0176025 -0.0586831 -0.0630697 -0.0614329 0.00352023 -0.0193181 0.126574 -0.213104 0.102371 -0.15177 -0.0235163 -0.113864 -0.207828 0.0776917 -0.104064 0.104612 -0.148317 0.193003 0.0117092 -0.257457 -0.0398213 -0.0251695 -0.0594543 0.0407015 0.0819009 -0.0873169 -0.143314 0.0105371 0.0038218 -0.103571 -0.0909088 -0.0139407 0.147242 0.274488 -0.142995 -0.045195 -0.258172 -0.132867
raymond-wang -0.0298612 0.199007 0.167314 -0.0126613 -0.00737723 0.0879904 -0.0916437 -0.0126074 0.070044 0.0912207 -0.0505488 -0.0618077 0.0117319 -0.100603 0.176146 0.109882 -0.0811823 0.0116522 -0.021394 0.0144646 0.0361554 -0.159461 -0.0438768 -0.108106 0.0379228 0.0381493 0.151006 0.0710587 -0.0202427 -0.077488 0.025352 0.0578357 0.169706 0.265535 0.133198 -0.156425 -0.048144 -0.0977019 0.0407399 0.113956 -0.0121827 -0.00421083 0.141264 0.0404088 -0.0282333 -0.0562081 0.10924 -0.159517 0.045391 -0.00825892 -0.228181 -0.0706227 -0.0854068 0.026509 -0.16638 -0.0939012 0.336745 0.108942 -0.0696298 0.0274489 0.0511341 -0.0593331 -0.058034 0.105703 -0.0318334 0.122257 -0.00420823 -0.0331721 0.0641538 -0.03004 -0.0288206 0.0909529 -0.155517 0.11974 -0.0620484 0.0488823 -0.0496136 0.0284865 0.0898476 0.0313523 -0.115184 -0.0192288 -0.0258939 0.0746011 -0.158009 0.00221458 -0.00927666 0.0928068 0.0474908 0.0144544 0.132464 -0.0546927 -0.20856 0.001728 -0.0424013 0.0466142 0.0910021 -0.210193 0.113682 -0.248411 -0.30196 -0.0681684 -0.045085 0.0851826 -0.175559 0.169407 -0.0759998 0.259652 0.0583812 -0.0972525 0.0340035 -0.023104 -0.012777 0.0187459 0.0104601 -0.00319444 -0.111518 0.0267514 -0.068099 -0.0940527 0.0208465 -0.157859 -0.0605598 0.054147 -0.0881128 -0.104188 -0.238235 0.104624
sizhuren 0.0202447 0.1863 0.074704 0.0418816 0.0315937 0.0814677 -0.129279 -0.00902471 0.00243501 0.01684 0.041055 0.0415735 -0.120765 -0.0884496 0.13609 -0.0522498 -0.136377 0.184299 -0.00368735 0.0617042 0.0161518 -0.121889 -0.0516919 -0.0368283 -0.0961795 -0.232648 0.108825 -0.00266271 -0.105736 -0.10924 -0.0679703 0.139852 0.474923 0.24856 0.121617 -0.135438 -0.154306 0.191546 0.0558652 0.041833 0.229685 -0.0193314 -0.0284797 0.0466339 0.108303 -0.0999323 0.132101 0.138161 0.0783861 -0.0348404 -0.148773 -0.116459 0.0441093 0.026993 -0.168588 0.134516 -0.0663707 0.0844659 0.00154214 -0.0446522 0.0468504 -0.115481 0.0231867 -0.0339908 -0.129532 0.0551303 0.018524 0.243199 0.277974 -0.104307 -0.0925129 -0.169342 -0.175813 0.0108863 -0.0105289 -0.00322044 -0.114182 0.0837292 0.141651 -0.0964435 -0.0102321 0.0643407 0.0495833 -0.0478841 -0.0443266 0.132448 -0.115524 -0.092223 -0.0401029 -0.318795 0.250906 -0.147644 -0.166351 -0.0119402 -0.264915 0.0758512 0.0444055 -0.194479 0.135472 -0.100076 -0.161534 -0.129301 -0.26231 0.0769582 -0.22068 0.156179 0.168307 0.202821 0.0916158 0.019807 0.0892575 0.0612937 0.0319238 -0.145772 0.0623761 0.0532051 -0.0515111 0.0489306 -0.0509307 -0.224403 -0.00605011 -0.128721 -0.07101 0.0293235 0.0288966 -0.0957992 -0.143344 0.0100143
sotrudy -0.0809806 0.154029 -0.0256752 -0.238889 0.0313591 0.271113 0.0336217 -0.111704 0.0799266 0.108765 -0.109156 0.0522074 0.212361 0.309318 -0.174585 -0.126292 0.0801602 -0.0145227 0.0943602 0.0221469 -0.0249902 -0.320524 0.0562968 0.0457185 -0.144221 0.000982363 -0.107196 -0.132624 -0.00600028 -0.0498042 -0.152161 0.0328212 0.104568 0.156728 0.0876722 0.0325269 -0.0432563 0.102046 -0.165679 0.0134646 0.0279324 0.0389629 0.0276407 0.0540543 0.0436177 0.0404116 -0.284539 0.0313096 0.0543099 0.0406325 -0.296427 -0.0231923 0.202179 0.113932 -0.0264881 0.0220932 -0.121593 0.379441 -0.0364212 -0.01635 -0.104457 -0.00073171 0.00103775 0.0208066 -0.0811259 0.158418 0.276311 0.233652 0.294726 -0.257486 -0.0952281 -0.114846 -0.0865351 -0.089085 -0.200475 0.0421056 0.0314139 0.0814716 -0.118301 -0.161785 -0.155883 0.0363787 0.0474866 0.0452977 -0.0562577 0.0985467 0.150871 -0.00221709 0.0558169 -0.125474 0.100287 -0.119958 -0.0711179 -0.172486 0.11872 0.0465952 0.113657 0.0338899 0.0414709 -0.248163 -0.0272296 -0.197057 -0.044789 0.153923 -0.229771 -0.0617406 0.0129711 -0.116495 0.324907 0.0291666 0.0300796 -0.00805819 -0.233617 0.025646 0.0427942 -0.00450564 -0.265508 -0.0524918 0.0347839 -0.205859 0.0579746 -0.217342 0.0632181 -0.00215725 -0.0285846 -0.110355 -0.377853 0.274697
tan-man-ru-28 -0.0641311 0.0287675 -0.0217096 -0.0889575 0.128562 0.154845 0.0598877 0.193376 0.0984881 0.237802 -0.0587821 0.117714 -0.0763116 -0.127446 -0.165547 -0.0653261 0.0420112 -0.144411 0.0387214 0.0514507 -0.0952649 -0.157536 -0.0466794 -0.0839451 -0.330604 0.0389147 0.255976 -0.0282862 0.0287575 0.196791 -0.108202 0.0907354 -0.0840768 0.157511 0.0564971 -0.00390486 -0.00867032 0.307659 -0.202935 -0.0609123 0.177269 0.13124 -0.269776 -0.0519798 0.0103894 -0.0447011 -0.128408 0.122348 -0.00245302 0.095371 -0.333959 -0.177914 0.00575657 -0.12266 -0.115459 -0.0364427 -0.216795 0.211905 -0.137627 0.0221943 -0.0590563 -0.224282 -0.161891 0.0143758 -0.127194 0.0348982 -0.0123468 -0.109566 0.29993 -0.0630432 0.0604746 0.230466 0.0386663 -0.25224 0.0431003 0.0717234 0.0650826 0.079985 -0.137144 -0.0598441 -0.145572 0.232131 0.045087 0.0532618 -0.0592177 -0.276267 0.074599 0.0959241 0.277166 -0.0159953 0.240393 -0.246522 -0.183138 -0.240151 -0.0105765 -0.192928 0.196971 -0.22314 0.0385085 -0.408644 -0.069806 -0.323234 0.0970768 0.0159671 -0.412712 -0.0274544 0.0603893 0.297842 0.273219 -0.20389 0.072146 -0.105675 0.0723605 -0.0397605 -0.113036 -0.0839892 -0.352772 0.122686 0.162847 -0.04779 -0.0381457 -0.0340688 0.0103932 0.473871 -0.0102984 -0.234159 -0.234456 0.123295
tang-que 0.0941117 0.105117 -0.00219073 0.00908545 0.23777 0.271145 -0.127212 -0.168383 -0.0227581 0.0123778 -0.118982 -0.237219 -0.0267725 -0.0631939 0.185946 -0.113556 -0.189391 0.157233 0.329233 -0.062722 -0.12242 0.36021 0.0910045 -0.295979 -0.00298837 0.175566 -0.195825 0.00895831 -0.036763 0.0637838 -0.169589 -0.0807971 -0.0804407 -0.15626 0.0558892 -0.0996822 -0.0885754 0.0650137 0.00747782 0.172338 0.0568255 0.0413289 0.076161 0.188435 -0.121992 -0.0995092 -0.0895108 -0.060751 0.0500547 0.078477 -0.0749256 -0.0323886 0.0460885 0.09704 -0.170697 -0.0901246 0.261396 -0.209535 0.0450787 -0.157269 -0.142813 0.172136 -0.236322 -0.0944051 0.105453 0.0320657 0.153535 0.245716 0.382451 -0.0893123 -0.114513 -0.0558969 0.0657448 -0.00668801 -0.0658131 0.27263 -0.0313187 0.213896 -0.136461 -0.0655185 -0.0994788 -0.0582684 0.157333 0.00609719 -0.0418791 -0.0165422 -0.0361335 0.153732 -0.034412 0.200646 0.0938355 -0.179005 -0.254466 -0.191952 -0.225933 -0.179009 0.285613 -0.257709 0.303649 -0.392337 -0.268497 -0.009519 -0.0453218 -0.136632 -0.210915 -0.0209704 -0.184714 0.578325 -0.271918 -0.301825 -0.178557 0.0614106 -0.0700899 -0.0301005 -0.0468542 0.0634608 -0.0591227 0.214546 0.195944 -0.0823791 -0.0161309 -0.178893 0.240717 0.621418 -0.0971612 0.16415 -0.357889 0.128854
wang-dan-5-78 -0.00373724 0.151595 0.00219168 -0.326809 -0.0643949 0.0904458 -0.0141668 0.118482 -0.0586125 0.159784 0.0280756 0.0292682 -0.147482 0.00245831 0.0641565 0.00990351 0.0566765 0.000988523 0.0898435 0.0631628 -0.0149545 -0.13412 -0.0300292 -0.148738 -0.00122638 0.00438327 -0.129011 0.34931 -0.119924 0.171428 0.275808 -0.0658764 0.120727 0.159092 0.121814 -0.164078 -0.127503 0.140951 0.217872 0.00652574 -0.0237941 -0.050168 0.170382 0.100272 -0.34528 -0.239616 0.13833 0.0981588 -0.0371528 0.222606 -0.139768 -0.231028 0.0116129 0.0919351 -0.288043 -0.108368 0.158059 0.0428018 -0.162742 -0.0918071 0.167757 0.343095 -0.10201 0.25842 0.0173284 0.0694671 0.0948854 0.273518 0.290292 -0.165452 -0.0464665 0.0364455 -0.0283649 -0.10463 0.0315132 0.128039 0.029013 0.115026 0.00644461 -0.163043 -0.0920947 -0.0972032 -0.0246273 0.0938794 -0.22367 0.0138901 0.118324 0.0490553 0.134997 0.182795 0.213213 -0.144755 -0.114855 -0.294076 0.0454169 -0.095176 0.340386 -0.268067 0.0800321 -0.298311 0.00379152 -0.201878 0.0156319 0.237326 -0.0151979 -0.118867 -0.153457 0.138814 -0.10719 -0.0643063 0.023168 -0.210154 -0.159546 0.00390191 0.117861 -0.11409 -0.213319 0.0309894 -0.0258286 0.034125 -0.225079 -0.255865 -0.0247007 0.370478 -0.169835 -0.0738716 -0.154411 -0.316088
wangnuonuo -0.100837 0.187888 0.113015 -0.08473 0.139161 0.260869 -0.0310063 0.0607833 0.241119 0.100179 -0.0878049 -0.0380009 -0.035668 0.228576 0.1131 -0.0241456 -0.00174701 -0.0322952 -0.027504 -0.0567391 0.0513 -0.0672559 0.132012 0.0235358 -0.129241 0.0481751 0.198542 0.0690825 -0.0108435 -0.0075912 0.115242 0.143386 -0.0701184 0.247609 0.235334 -0.021226 -0.213177 0.102908 -0.0133918 0.109697 -0.0552445 0.0273079 0.00897866 0.0323442 -0.0191552 -0.00607343 0.0255817 -0.000369125 -0.0637758 -0.00423646 -0.198292 0.0286405 -0.0173821 -0.149133 -0.175893 0.0096472 -0.0421445 0.0792423 0.0497261 0.00262145 0.0436192 -0.125293 0.0171225 0.110333 -0.0812303 -0.0381199 -0.0152878 -0.0420527 0.217119 -0.17875 -0.0446267 0.0419983 -0.130428 0.16052 -0.0807637 0.203611 -0.096479 0.00411339 -0.0584794 -0.0151848 -0.0898022 -0.00655449 -0.0904709 -0.0681074 -0.100599 0.0304753 0.0668867 0.0114902 -0.0702516 0.111171 0.18332 -0.119564 -0.00584216 -0.0878737 -0.0105925 -0.0217216 0.107778 0.0324806 0.169933 -0.125403 -0.0499539 -0.0957607 0.0593286 0.132598 -0.140595 -0.0707543 -0.134547 0.257955 0.0757114 -0.0827788 0.0236162 0.0346574 0.0061211 -0.0144904 -0.0592262 0.0740489 -0.156367 0.0301986 -0.0986061 -0.0553337 -0.0364279 -0.0729639 -0.0960943 0.0532726 -0.239548 -0.184647 -0.138512 0.166994
wangxiaofeng -0.180847 0.165844 0.214657 0.10513 0.0454894 0.0324141 0.014103 -0.165915 -0.0697017 -0.145956 -0.0106009 0.0780301 -0.187033 0.137035 -0.00579514 -0.0699972 0.0739668 -0.202168 -0.10236 0.163819 -0.0443633 0.073662 0.275216 -0.134329 0.072582 0.209931 -0.0200704 -0.0251758 -0.194606 0.00195847 0.0332507 0.302971 0.244092 0.144724 0.0388479 -0.0692758 -0.118476 0.29086 0.0555723 -0.0652211 -0.0663367 -0.207087 0.316466 -0.0551835 0.0362052 -0.0942811 -0.1674 -0.253042 -0.367403 -0.0120915 -0.11234 0.0625356 -0.178886 -0.0319047 -0.227324 0.101185 0.313672 0.0946917 -0.00426647 0.0951787 0.00815583 -0.129346 0.0227911 -0.00225717 -0.184666 0.218498 -0.0854911 0.0295537 0.0873389 -0.0588703 -0.299861 0.0399594 0.0126394 0.322635 -0.0459153 0.127848 -0.12862 -0.0366072 -0.0197324 -0.0633809 -0.129567 -0.222582 -0.0483103 -0.202731 -0.190751 -0.00563736 -0.146481 0.147759 0.237584 -0.0334334 0.16177 0.0413416 -0.234208 0.00875542 -0.210284 -0.171201 0.0553759 -0.286335 0.0798505 -0.293247 0.261648 0.265829 0.0192326 0.317244 0.0383678 0.0487965 0.135013 0.074361 0.141056 -0.0190215 0.0826862 -0.176059 -0.113666 -0.0238861 -0.0395961 -0.00445226 -0.0775942 0.191782 -0.0172402 0.0666318 -0.209584 -0.165683 -0.00109595 -0.00134271 -0.20469 0.125145 -0.326149 0.227618
whiteheart -0.105395 0.00244082 0.0183946 -0.0337463 0.156793 0.0747746 -0.197219 0.00804164 0.075483 0.0122782 -0.0375863 0.00752199 0.012328 0.165895 0.0725179 -0.106154 0.0373701 -0.0301541 -0.0847001 0.010471 -0.0455625 -0.186933 0.133448 0.0838639 -0.106614 0.0240654 0.0387792 0.034535 -0.0299841 -0.0371542 -0.0282012 0.0415181 0.0619033 0.216575 0.0643512 0.0513792 -0.106352 0.151635 0.0479734 0.0436291 -0.0187037 0.0238507 0.0854775 0.117189 0.0561123 0.0307875 -0.0889501 -0.0753907 -0.0860177 -0.0781371 -0.225213 -0.0841529 0.064708 -0.0973558 -0.219505 0.0131091 0.116779 0.0771245 -0.0151461 -0.00255525 -0.0793861 0.0130774 0.156448 -0.143444 0.0867197 0.0438853 -0.0190671 -0.133465 0.06942 -0.123637 -0.176824 0.00051127 0.000860089 -0.0546191 0.0171104 -0.136381 0.152338 -0.000117606 -0.0794758 -0.180348 -0.00647794 -0.00911117 0.12868 -0.146187 0.0497835 -0.000905647 0.00844074 0.064334 0.00183441 -0.0571737 0.234166 -0.0482224 -0.159663 -0.17452 -0.0522617 -0.0686031 0.114564 -0.19467 0.0441523 -0.25615 -0.132697 -0.0960332 -0.0377266 0.0355364 -0.223484 0.0564487 -0.0127155 0.0498234 -0.0122896 -0.0251175 -0.0554936 -0.063162 0.00728394 -0.0199924 0.0747021 0.0408409 -0.0935244 -0.131936 -0.0120196 0.0143224 -0.154551 -0.0808843 -0.00256205 0.241266 -0.133889 -0.164081 -0.262355 0.133285
windleavez -0.262982 0.231856 0.0521821 -0.275149 0.261406 0.320753 -0.0963095 -0.0429661 0.31927 0.162912 -0.111203 0.075415 -0.0176751 0.133678 0.108026 -0.0447957 0.114712 0.144277 -0.290315 0.113175 0.34069 -0.154498 0.207959 -0.0703673 -0.0358455 0.13718 0.235646 0.130472 0.0236509 -0.111422 0.229615 0.0209824 0.00163307 0.242714 -0.17889 -0.111507 0.0497713 0.0327786 0.282208 -0.24436 -0.0337951 -0.220934 0.0555575 0.217864 -0.00523546 -0.0713378 0.0216628 0.013117 -0.000141245 -0.0348196 -0.0591671 -0.106925 -0.0938292 -0.0726836 0.0382463 0.081426 -0.0309293 -0.0299236 -0.149095 -0.120438 -0.16182 -0.117715 -0.0195445 -0.0331061 0.0196669 -0.0737529 -0.185057 0.0219066 0.152806 -0.17299 -0.0806446 -0.0531193 -0.0601815 -0.0772942 -0.291293 0.17301 -0.123678 -0.0807902 0.0189306 0.0103241 0.0596394 0.0291396 0.0460813 0.0128307 -0.0874826 0.209606 0.0120425 0.128273 -0.12705 0.134671 -0.151301 -0.132863 -0.0681366 0.240051 0.0604526 -0.280889 0.316688 0.106406 0.0281271 -0.464657 -0.0147818 0.0659551 0.138038 -0.0860711 -0.271114 -0.212647 -0.0877482 -0.144353 -0.105324 -0.14816 -0.157361 -0.203824 0.357466 -0.113335 -0.0561928 0.0520487 -0.34664 0.0224654 -0.118029 0.0170781 0.0466136 -0.204663 0.06402 -0.0167403 -0.0984562 -0.190758 -0.116029 -0.0351621
xia-ji-ji-28 -0.0964742 0.15292 -0.163843 0.0747353 -0.0421361 0.300433 -0.452582 0.0360246 0.0195666 -0.118154 -0.136376 -0.0320061 0.00302021 0.0699904 0.0452829 -0.214506 -0.312222 0.100068 0.192239 0.240663 0.00492586 -0.0662242 0.156431 -0.104688 0.18157 -0.0864233 -0.19803 -0.00704875 -0.266414 0.0696989 0.214667 -0.00433027 -0.0221485 0.0603825 0.0496791 0.0404486 -0.360714 0.111755 0.149849 0.0344348 -0.0567973 0.113998 -0.0675597 0.018664 0.106025 0.157874 0.171131 -0.0794181 0.170093 -0.318098 -0.182521 0.0730588 -0.089588 -0.0286972 -0.206275 0.0123058 -0.414723 0.383862 -0.0363266 -0.00995098 -0.00946463 0.0529265 0.171128 -0.278173 -0.00954721 0.128385 0.037183 0.0123911 0.181602 -0.00361874 -0.265997 0.0150357 0.0173416 0.207993 -0.117974 -0.0370979 -0.0718363 0.32769 -0.138353 0.00981288 -0.0700095 0.00146397 0.121274 -0.138802 -0.0658321 0.57661 0.0917426 0.0634744 0.304379 -0.34925 0.130531 0.00776429 -0.466991 -0.133502 -0.162824 -0.200406 0.0222355 0.126519 0.0336032 -0.233016 -0.0809253 -0.365105 -0.0815925 -0.0625992 0.082942 -0.145145 -0.248632 -0.0459036 -0.16374 0.276601 -0.0508767 -0.177203 0.17297 -0.0392563 0.133138 0.044356 -0.0304668 -0.00706629 0.0998794 0.103455 -0.136799 0.0296002 0.0169941 0.0639054 -0.426781 -0.178389 -0.425507 0.312594
xiao-yan-jing-43 -0.277165 0.179837 0.167704 0.0920593 0.201 0.229777 -0.0582318 -0.0356646 0.153581 0.158679 0.0176812 0.0386081 -0.179443 0.189032 0.0174618 -0.0880108 -0.00758963 -0.0708818 -0.138446 0.0257937 -0.0575038 -0.0477707 -0.0341486 -0.104535 0.0624445 0.106946 0.118011 0.00962805 -0.06806 0.126003 0.0924067 0.00965445 0.0816626 0.0995335 0.119635 0.0481576 -0.0521731 0.279293 0.130501 -0.0280671 -0.0319388 -0.152058 0.126741 0.160631 -0.139602 0.172116 0.0534215 -0.0384211 0.087634 0.103422 -0.364856 -0.0201646 -0.0920758 0.0288124 -0.185469 0.161449 0.0644631 0.0429918 -0.067662 0.192185 -0.0096648 -0.240527 -0.0329424 0.0246948 -0.122929 0.272475 -0.104152 0.116051 0.0582903 -0.169621 -0.130994 0.132941 -0.0402778 -0.123282 -0.0680816 -0.0443796 -0.0185908 0.0164311 0.00386071 0.0218216 -0.12674 0.0798845 0.0749686 -0.129487 0.00733193 0.0520745 0.0213112 0.0331044 0.0781268 -0.0541319 0.113355 -0.0140603 -0.134415 -0.13109 -0.167795 -0.112323 0.144218 0.0289985 0.112837 -0.0976264 -0.0660374 -0.0594199 -0.00143748 0.11429 -0.213285 0.0533445 -0.0225951 0.0250074 0.00704431 -0.0850804 0.00627605 -0.0708859 0.13366 -0.0405181 -0.0505496 -0.021563 0.0908168 -0.0185805 0.0679001 0.124561 -0.292191 -0.189674 0.122735 0.10095 -0.235232 -0.132312 -0.140812 0.023784
xiaodaoren -0.109073 0.180665 0.140257 -0.0775284 0.00570221 0.142228 0.0691881 -0.000163512 0.231773 0.0352007 -0.110266 0.0255431 -0.106251 -0.040538 0.146834 -0.0562474 -0.0373915 0.0260122 -0.0307122 -0.00504256 0.0617562 -0.188551 -0.0350315 -0.114843 0.0295609 -0.15979 0.0716127 0.0766236 -0.0775672 -0.103089 0.222942 0.117979 0.0524658 0.187398 -0.0624702 0.0382934 -0.112055 0.0274809 0.159209 -0.00646153 -0.018258 -0.0566308 0.106545 0.0288215 -0.0540689 -0.0841029 0.0312096 -0.0208656 -0.0627851 -0.0431745 -0.209291 -0.0946807 -0.0331387 0.0456338 -0.26781 0.0268164 0.0969974 -0.0420985 -0.040556 0.213995 -0.0403536 -0.161465 -0.0467082 0.010951 -0.0952478 0.14722 -0.0377307 0.0347803 0.0527225 -0.0673166 -0.112197 0.110164 0.0437602 0.120306 0.0241589 0.059909 0.0741192 -0.070615 -0.0168239 0.0177533 -0.183873 -0.117557 0.0244075 0.00564263 -0.191005 0.0401039 -0.0745689 0.00131118 0.00715329 0.136789 0.148562 -0.00598318 -0.0602381 -0.162086 -0.0445468 -0.0764764 0.133315 -0.106965 -0.0410011 -0.231752 -0.0720633 0.060759 0.0664646 0.125331 -0.197443 0.142425 -0.0716341 0.173275 0.07732 -0.0631166 0.0106528 -0.0351364 -0.0515445 0.0791513 0.0155473 0.0961825 -0.0426483 0.0972814 -0.044819 -0.103675 -0.0199547 -0.23084 -0.0152217 0.0587237 -0.0946541 -0.0969069 -0.158753 -0.0337234
xiepanda -0.0544198 0.227857 -0.00711178 -0.0692782 0.140866 0.308938 0.0197249 0.0779431 0.206117 -0.0728071 -0.0974388 0.040823 0.0662447 -0.0231916 0.171825 -0.0356961 -0.184555 0.106081 0.0189743 0.0104708 0.0662294 0.0343107 0.0898441 -0.079118 -0.0240725 -0.0310127 0.0720504 0.0738348 0.0148379 -0.146702 0.0518583 0.0202996 0.1107 0.197435 0.0145866 0.0237479 -0.210553 0.0213402 0.0851474 0.0431521 0.124329 0.0288992 0.233623 0.0465368 -0.0167008 -0.0191825 0.097814 -0.045247 0.0634023 -0.0120594 -0.220475 0.0739091 -0.117827 -0.10685 -0.211373 0.0643901 -0.0303447 0.0242903 -0.10271 -0.0733746 -0.0738347 -0.0426758 -0.0326347 -0.0846324 -0.0291525 0.141599 -0.129922 -0.0451575 0.25986 -0.106857 -0.0967534 0.0967416 -0.182355 0.12557 -0.132872 0.172314 -0.22833 0.111836 -0.00750104 0.0696214 -0.183138 -0.0718711 -0.0634484 -0.117969 -0.0988256 0.0987836 -0.0648982 0.0980431 -0.0321765 -0.0416905 0.173671 -0.113482 -0.121329 -0.155121 -0.0495832 -0.016782 -0.0126619 0.00726935 0.0743474 -0.146819 -0.0232172 0.037717 -0.162492 -0.0364957 -0.0927228 0.0616582 -0.0119449 0.206606 -0.0371638 -0.133291 -0.0723942 0.0752228 0.0139241 -0.111886 -0.0597082 0.167034 0.0373288 0.079828 -0.137502 -0.0581025 0.0106975 -0.0151247 -0.117486 -0.0126582 -0.221895 0.0232743 -0.107047 -0.0588597
xuxiaoteng -0.120809 0.195515 0.149197 -0.195258 0.29162 0.0299164 -0.073262 -0.1952 0.269041 0.318157 -0.141588 -0.0938365 0.0772943 0.163899 0.282681 -0.0333677 -0.0439374 0.0529426 0.139541 -0.0896914 0.0765145 -0.214956 -0.0324955 0.00629592 -0.0548845 -0.128972 -0.154452 0.00728266 0.0710504 0.166939 -0.110616 -0.10066 0.207827 0.354827 0.074042 -0.220556 -0.109443 0.134435 0.0460883 -0.0280579 0.127754 -0.031694 0.200671 0.120361 0.140255 0.21502 -0.20753 0.13628 0.0436011 -0.0330244 -0.22821 0.0441061 -0.00477631 0.0166945 0.0828235 -0.0227739 -0.0869083 0.138702 -0.135625 0.0173682 -0.0472421 0.00437405 -0.122189 -0.0635963 -0.160165 0.0948945 0.113345 -0.0525305 0.197354 -0.136704 -0.260926 -0.132336 -0.171559 -0.178192 0.00435461 0.0517502 0.0896183 0.105649 -0.00742987 -0.126861 -0.0239412 -0.171087 0.304548 0.0502905 0.0602413 -0.0946215 0.0514042 0.115033 -0.146332 -0.0745142 0.098415 -0.20881 0.0223339 -0.0563785 -0.150443 -0.0752506 0.118588 -0.0716753 0.0408684 -0.147069 0.0610872 -0.131715 -0.273526 0.189765 -0.171534 -0.070334 0.0428078 0.0755467 0.10869 0.101212 0.114982 0.0895373 -0.169169 0.125442 -2.53463e-05 -0.032977 -0.0358808 -0.0334593 0.0516176 0.0474105 0.000520928 -0.125775 0.090457 0.110384 -0.0647275 0.0055119 -0.300584 -0.0975948
zengjiaplus -0.0280079 0.0485116 0.0334839 -0.195754 0.0579033 0.0508524 0.0498333 0.118293 0.0687422 -0.0330291 -0.124898 0.0248311 0.0168917 0.183385 0.0352851 -0.0166423 0.0214776 0.135865 0.0605213 -0.167532 -0.0378836 -0.257693 0.00662374 -0.112681 -0.0945993 -0.0412602 -0.0449329 0.0324448 0.00940018 -0.0571627 0.122505 0.117299 0.231731 0.232179 0.153218 -0.0506099 -0.138609 0.0447188 0.195577 0.103854 0.0530952 -0.0378781 0.147552 0.0718487 0.195473 -0.0780765 -0.0400424 0.0282985 0.0821792 -0.00711972 -0.254689 0.0205554 -0.0838891 -0.0119251 0.0368157 0.129715 0.0337609 -0.0352064 0.0620616 0.0559403 -0.174888 -0.060124 0.00971897 -0.111814 0.0227397 -0.00357628 0.0968912 -0.0748069 0.0471029 -0.112607 -0.125858 -0.0583556 -0.0201144 0.00058072 -0.25761 0.0364015 -0.0495467 0.0185797 -0.113041 0.1371 -0.0414773 -0.0704349 0.125215 -0.139767 0.00812731 -0.0714265 -0.108801 0.101361 0.105932 -0.0426233 0.176745 -0.0899268 -0.0866239 -0.0984973 -0.0639345 -0.0801594 0.00418012 -0.074954 0.198524 -0.196838 -0.0580206 0.0648711 -0.0414123 0.00472682 -0.157114 0.0259532 -0.0599628 0.156235 -0.0283369 -0.0388703 -0.066912 0.0253986 0.0464617 0.0203832 0.117662 0.188691 -0.0958641 0.0436904 -0.123347 -0.174371 -0.0349403 -0.139868 0.00496786 0.109324 -0.129209 -0.066655 -0.259067 0.166733
zhang-jia-wei -0.0934504 0.328213 0.169829 0.0336092 -0.0198274 0.317346 0.0621005 -0.0247583 0.265724 0.0261405 -0.275794 -0.226197 -0.155159 -0.000729156 0.188212 -0.133794 -0.0508442 0.065132 -0.105153 -0.0762759 0.107603 -0.0217754 0.0959251 -0.116006 -0.00705903 0.174217 -0.0124453 0.04729 -0.0860876 -0.204858 0.0542487 0.114583 0.176109 0.211472 0.069515 -0.1067 -0.0541188 -0.179896 0.0385063 0.0728007 0.0349829 -0.120689 0.0925361 -0.0447732 -0.124764 -0.0302712 0.0395674 -0.00254153 0.0600514 0.125054 -0.11082 -0.189804 0.0849696 -0.0588802 -0.192697 0.0029955 0.068048 0.169412 -0.0831676 0.136251 -0.127306 -0.157519 0.061147 0.0289559 -0.0527396 0.12093 -0.128152 0.278536 0.0568753 -0.192707 -0.114201 0.0686762 -0.0143714 0.0950558 -0.065089 0.042454 -0.0625685 -0.0470881 -0.0351513 0.0363691 -0.152927 0.0372723 0.201877 0.0617798 -0.151139 0.203052 0.0409905 -0.0217924 0.19285 0.0148254 0.103757 -0.0260233 -0.157424 -0.0947122 -0.148817 -0.105177 0.154215 -0.130906 0.146648 -0.0407012 0.0568076 -0.0328427 0.00372843 0.0430635 0.00928606 0.0750465 0.0921475 0.278605 -0.0078515 -0.107844 0.128826 -0.0290252 -0.112839 -0.0428149 -0.128788 0.132465 -0.0274936 0.163448 -0.00344869 -0.0592477 0.0646609 0.0565479 -0.00476453 0.0516948 -0.0579925 -0.0926373 -0.145834 0.0452223
zhang-xiao-bei 0.0439556 0.342796 0.157071 0.0865743 0.128208 0.261811 -0.0264853 -0.00533009 0.0760361 0.212671 -0.162059 -0.113041 0.0408352 -0.080238 0.148287 0.014445 -0.0161455 -0.0750347 0.0423063 0.0346448 0.0514847 0.0284998 0.133508 0.0827266 0.0188079 0.102237 0.21067 0.0630537 -0.0318641 0.0464661 0.118239 0.0524384 0.113458 0.137896 0.0785649 -0.100712 0.00774129 -0.12044 0.0760665 0.0210179 -0.0967424 -0.157483 0.180267 0.0201606 0.0682844 0.0436074 0.0202418 -0.0256845 -0.00762331 0.0174838 -0.191949 -0.065198 -0.0777481 -0.13288 -0.0524387 -0.0865685 0.0941822 0.182098 -0.0564285 0.212365 -0.0739352 -0.0138318 0.126038 -0.0754124 -0.101001 0.202483 -0.112693 0.104853 0.140098 -0.193442 -0.0734972 0.0156739 -0.0132682 0.075249 -0.134114 0.0703237 -0.0541971 0.0231692 0.0333384 -0.031441 -0.0442811 -0.196374 0.105065 0.117653 -0.0264697 0.0894875 -0.00653276 0.0773951 0.0382097 -0.00978602 0.0932854 -0.17706 -0.163024 -0.0821078 -0.143661 -0.133677 0.188446 0.0441138 0.228213 -0.169273 -0.0873077 -0.0856638 0.122829 0.0195219 -0.184015 0.0658682 -0.0239584 0.195077 0.0360513 -0.0757273 -0.0728891 -0.0669031 -0.0586913 -0.0761432 -0.057106 0.0842588 -0.0544348 -0.00178835 -0.0710244 0.144758 0.0360154 -0.14775 -0.0584323 -0.0377595 -0.216812 -0.109489 -0.21271 0.129442
zhi-shi-jiu-shi-li-liang-13 -0.0948338 0.235679 0.180075 -0.196112 0.04195 0.366947 -0.0837993 0.272897 0.0862838 0.0224705 -0.036456 0.0276303 0.0646488 0.263673 0.0557354 -0.216108 -0.125575 0.0869496 -0.178949 -0.0409635 0.110643 -0.233937 0.147023 -0.296427 -0.11465 -0.0307913 -0.102989 -0.0461406 -0.213558 0.19157 -0.0497771 0.0913013 0.188613 -0.0185046 -0.0565644 -0.031958 -0.102819 -0.211973 -0.153149 0.0957266 -0.00370576 0.0897265 -0.0428484 0.0244844 0.0586411 -0.267122 -0.034754 -0.0522746 -0.0521905 0.0479188 -0.449211 -0.0361921 0.0245749 -0.0256545 0.000461433 0.095673 0.227755 0.127813 -0.0170403 -0.12207 -0.128148 -0.152657 -0.0534448 -0.172483 -0.133386 0.106662 0.157333 0.0778079 0.0877967 0.0332017 0.0906509 -0.09916 -0.120926 -0.0437079 -0.291091 -0.0517115 0.043059 0.111597 0.0300419 0.143207 0.0864927 0.105854 0.0559682 -0.124289 -0.0572846 -0.18176 0.0172276 0.218336 0.0854071 -0.0171853 -0.058528 -0.105143 0.012817 -0.124539 -0.0754944 -0.15563 0.0571715 -0.27057 0.0385411 0.0588966 -0.24516 -0.111046 -0.226973 -0.0813635 -0.21441 0.0394219 -0.102998 0.144104 0.171437 -0.0412289 -0.284441 -0.118722 -0.0339631 0.150346 0.197336 0.0690455 -0.230899 0.0185064 0.100445 -0.138625 -0.0958164 -0.0351669 -0.0736052 0.0968904 -0.0690596 0.0543173 -0.192945 0.15464
zhu-xuan-86 0.0483739 0.316139 0.0329354 0.0752585 0.14589 0.21648 0.00804203 0.0320271 0.0715189 0.0707316 -0.104739 -0.0780035 -0.0361435 -0.0271635 0.0502264 0.0235963 0.0196908 -0.000550999 -0.108723 0.0605125 0.0138219 -0.0350321 -0.0479493 0.00592877 0.0302525 0.0611632 0.0929889 0.167061 0.0360645 -0.0264635 0.0554305 0.0374977 0.150782 0.287191 0.0337498 -0.0927958 -0.0713463 0.0753913 0.0950765 -0.0415505 -0.0217972 -0.0837037 0.140165 -0.0235588 0.0412214 0.0679985 0.0192763 0.080361 0.141702 0.0412758 -0.231114 -0.0814447 0.0213676 -0.0453778 -0.10951 -0.0914454 0.0353418 0.0543437 -0.0599912 0.085255 -0.0390768 0.00228387 -0.104823 -0.0423872 -0.0878513 0.104796 -0.109738 0.0729506 0.0216124 -0.185493 -0.0134353 -0.0948563 -0.0388317 -0.00427289 -0.0975172 0.0539026 -0.00265833 0.0874283 -0.0499785 -0.17871 -0.121178 -0.115031 0.0448529 -0.00745134 -0.128058 0.0633489 0.0609669 0.0415756 0.0921452 -0.155051 0.174151 -0.209402 -0.0137279 -0.152769 -0.132011 -0.103654 0.12159 -0.0517383 0.238821 -0.204081 0.0668676 -0.0850919 -0.103035 -0.000811867 -0.111019 -0.0705448 0.0642332 0.235533 -0.0969064 -0.28442 -0.11456 -0.0282252 -0.130497 -0.0787625 -0.0507255 0.0452555 -0.0197512 0.123753 -0.086678 0.0875203 -0.057835 -0.0671061 0.0493807 0.0413897 -0.201703 0.0484227 -0.210714 0.0390806
zhu-yu-xin-80 -0.161152 0.201444 0.12153 -0.133636 0.00580331 0.117676 0.0987918 -0.0768332 0.281098 -0.126478 -0.199487 0.0333908 -0.0345449 0.0912148 0.29625 -0.309281 -0.0867908 0.0580565 0.0591628 0.0803496 0.143344 0.0141053 0.0292532 -0.237825 0.0340694 0.00319471 0.200213 0.00631768 0.0871993 -0.0647601 -0.109257 -0.0791012 0.128238 0.0796626 0.032325 0.0897307 0.0449057 -0.0469801 0.116529 0.18573 0.0640356 -0.150504 0.042057 0.163758 0.168113 0.0785988 -0.0102279 0.165237 0.0338873 -0.0512489 -0.141818 -0.10191 -0.0169865 -0.0360485 0.104011 0.0440418 0.0100768 0.134087 0.0302052 0.129146 -0.0408763 0.0124469 0.11821 -0.156922 0.0108679 0.129223 0.182296 0.0264774 0.239602 0.0687291 0.0764417 0.0261254 -0.0878558 0.16394 -0.271627 0.172439 -0.153615 -0.0660704 -0.120406 0.0330968 0.13543 -0.0766197 0.2067 -0.0703684 -0.147306 -0.185428 -0.035035 0.028485 -0.0845873 -0.0216735 0.0383226 -0.127491 0.0516863 -0.00409879 -0.192733 0.172326 0.170498 -0.115121 0.158455 0.0112989 -0.251928 0.0404998 -0.0328107 0.0962895 0.00334802 0.0436441 -0.0230002 0.0300157 0.168408 -0.259045 0.0542344 -0.0194397 -0.180204 -0.0409816 0.112815 0.1427 -0.143718 0.117868 -0.117877 0.0425327 -0.206234 -0.313248 0.142284 0.180655 -0.357869 -0.165441 -0.472307 0.215445
BlackCloak 0.00561592 0.186351 -0.125959 -0.138731 0.186838 0.298861 -0.0748342 0.017848 0.165199 0.10756 -0.0740845 0.0312649 -0.260204 0.142216 0.063508 -0.123624 0.0414149 0.162967 -0.0605471 0.0187535 0.0589508 -0.086012 -0.00699031 -0.02282 -0.0387853 0.112118 0.0323134 0.0527629 0.0640466 -0.139571 0.00491745 0.000757009 0.263208 0.185466 0.071315 -0.0391279 -0.108553 0.136456 -0.18431 -0.00721567 0.0627329 -0.048964 0.0593316 -0.0492711 -0.128845 -0.0876238 -0.141213 0.0668139 -0.0837743 -0.0605754 -0.131021 0.00315796 -0.0750481 -0.150622 -0.263037 0.0226209 0.112035 0.131311 -0.230495 0.0760574 -0.214264 0.103977 -0.169054 -0.0222958 0.0430181 0.0855233 0.0851101 0.161972 0.160296 -0.0767943 0.101977 0.0867244 -0.156572 -0.114367 -0.0241157 0.106609 -0.109354 0.0495404 -0.0272862 -0.0436305 -0.156394 0.183017 -0.0170724 -0.00315321 -0.0652574 0.0739352 0.0544313 0.113059 -0.0736975 -0.0731728 0.17145 -0.267128 -0.048453 -0.227314 -0.0268943 -0.0919426 0.0270635 -0.219575 0.21392 -0.23704 -0.0412919 -0.00576915 0.0714418 0.171462 -0.181568 -0.091526 -0.0338706 0.125617 -0.0404989 -0.116995 -0.0225854 0.0998343 -0.0506736 0.0269857 0.130553 0.242127 0.152166 0.0150579 -0.117549 0.0490979 0.1047 -0.0466749 0.0391541 0.0667838 0.0352827 0.0787802 -0.305435 -0.0293693
Ivony -0.0172994 0.133564 0.12372 -0.266183 0.26539 0.152536 -0.0318912 0.0488494 0.182989 0.035505 0.0848071 0.0719462 -0.189699 -0.0101449 0.238409 -0.121285 0.0798996 0.0888145 -0.209404 0.0626603 0.0237999 -0.222802 -0.0192864 -0.200537 -0.177785 -0.229217 -0.0728735 0.0315111 0.041845 0.0379823 0.0650587 0.213868 0.279123 0.0126878 0.085873 -0.196878 -0.138702 0.0926515 0.113033 0.0685828 -0.0177789 -0.0250569 0.242433 -0.0185699 0.110513 -0.130265 0.0728879 0.0631208 -0.0428371 -0.00535198 -0.206829 -0.152492 -0.0807138 0.0897506 0.0905792 0.105686 0.182318 0.116182 -0.138877 -0.0672724 -0.12694 0.0304529 0.0316907 0.14265 0.0349231 0.326176 0.0874739 -0.0140291 0.179122 -0.119766 -0.368028 0.0799377 0.00699015 -0.000162611 0.182666 0.300663 0.0741682 -0.0722674 0.00678448 -0.0454008 -0.186861 -0.0144 0.0873158 -0.263718 -0.130567 0.0710007 -0.242115 0.214329 0.0245448 0.0382602 0.0438128 -0.066015 0.0370131 0.063364 -0.150804 -0.15222 0.217781 -0.163719 0.105537 -0.243585 0.0936016 -0.231547 -0.0979965 0.369323 -0.0540979 -0.0903045 0.149807 0.152528 0.124059 0.059193 -0.0153279 0.077557 -0.0933034 0.13567 0.0299249 0.0664549 -0.157491 -0.0567715 -0.320381 0.161677 0.109028 -0.0690561 -0.0411033 0.140992 -0.0827103 -4.04123e-05 -0.0357957 -0.00254825
Jazzlover -0.130463 0.230301 0.0469775 -0.129176 0.140322 0.281189 -0.128159 -0.0167281 0.0470129 -0.0999627 0.007366 -0.0164427 -0.100288 0.131979 0.0663762 -0.257034 0.0435946 0.0451606 -0.255266 0.0476234 0.343906 -0.227481 0.0816078 -0.0327834 -0.0545997 -0.0424099 0.105402 0.198972 0.0744673 0.244923 -0.00026185 0.203511 -0.0747039 -0.0511804 0.0749582 0.0125055 -0.17583 0.0742094 -0.0975931 -0.0221222 -0.128144 0.124339 -0.0847326 0.000745456 0.0936463 -0.154174 -0.0391593 -0.0128079 -0.0145894 -0.0199467 -0.140516 -0.0225223 0.131336 0.0116917 -0.105243 0.145349 0.0324544 0.23226 0.0102758 -0.0215567 -0.11428 -0.178718 0.0122337 -0.110451 -0.147007 -0.159691 0.0765473 -0.111133 -0.0941511 -0.199486 0.0186567 0.0739918 -0.101243 0.0991805 -0.0352529 -0.113016 0.0775842 -0.0450799 0.237104 0.0331806 -0.0292078 0.0510132 0.0271737 -0.180191 -0.164209 0.0449954 0.111688 0.0783349 0.0693134 0.0923282 0.201148 -0.22291 -0.15924 0.0433927 -0.047217 0.0350627 0.0406057 -0.261628 -0.015855 -0.147771 -0.150794 -0.0223495 -0.228714 -0.0363943 -0.174646 0.0418586 -0.143113 0.230387 0.0696811 -0.0839482 -0.258409 -0.207771 -0.0414218 0.110264 0.18714 0.098001 -0.343661 0.188461 -0.0289685 -0.0900259 -0.149965 0.023359 0.026462 0.10949 -0.0910083 -0.159541 -0.20102 0.270481
Tian-Hao- -0.0860403 0.257265 -0.0559735 -0.0543396 0.1062 0.177153 -0.0428964 -0.0163805 0.208728 0.0400352 -0.108362 -0.18285 0.00779015 -0.0148454 0.10886 -0.0196244 -0.140053 -0.0200902 0.064625 -0.060318 0.0690107 -0.161785 0.0557809 0.0180769 0.0847031 0.0310382 -0.0113809 0.0961762 0.0940045 0.0681392 0.0332953 0.0511913 0.133589 0.17859 -0.0460111 -0.00530242 -0.176834 0.0532756 0.107101 -0.0109522 0.100513 -0.0242856 0.107203 0.0639954 -0.0593814 -0.0337771 0.0916221 0.0416269 -0.0679127 -0.137411 -0.0802794 -0.0164947 -0.04795 -0.0189743 -0.181566 -0.0420046 0.00730284 0.0186025 -0.067473 -0.0191539 -0.174522 -0.0707818 -0.0332621 0.149695 -0.0988007 0.00950284 0.0752515 0.0181676 0.0228632 -0.212434 -0.0897763 0.0941074 0.00457987 0.051418 -0.162243 0.0189407 -0.0867163 0.069894 0.0271341 -0.0819827 -0.162616 -0.171802 0.0278824 -0.0923333 -0.19659 0.148541 -0.0384754 0.12073 -0.0969123 -0.00737867 0.0664217 -0.134045 -0.0376461 -0.151253 -0.142625 -0.0523657 0.182052 0.0059318 0.196351 -0.181358 -0.0275893 0.015646 -0.0450437 -0.0705717 -0.162745 -0.0710353 -0.0706554 0.202568 0.0361967 -0.068991 -0.0205096 0.0557706 -0.0514892 -0.0581719 -0.155807 0.156966 -0.0816237 -0.0181724 0.0346986 -0.00502032 -0.0239512 -0.0320117 0.0643473 0.0659768 -0.254092 -0.086542 -0.265561 0.0565042
acel-rovsion 0.0279359 0.310671 0.0515809 -0.122759 0.327608 0.236376 0.0119318 -0.373798 0.0590351 -0.0412511 -0.0203783 -0.188493 0.101892 0.0851344 0.207287 -0.365749 0.033163 0.22638 0.00488251 0.111419 0.242464 -0.20501 0.114962 -0.00588698 -0.302878 -0.111239 0.350852 -0.111597 -0.123958 -0.133273 -0.0505491 -0.00463651 0.316737 0.287419 0.00592116 -0.13777 0.0181346 0.0799691 -0.070818 0.0756981 0.123222 -0.0924151 0.0415412 0.331196 -0.132072 -0.147101 0.0591201 -0.110082 -0.111589 -0.0184651 0.0121571 0.0104237 0.0547118 -0.182664 -0.26869 0.13792 0.176103 0.123134 0.0615694 0.0171908 -0.043703 0.111358 0.0327252 -0.313702 0.0761863 0.308757 -0.107098 0.273267 -0.0156183 -0.299832 0.190358 -0.108743 -0.10149 -0.0236836 -0.187746 -0.259248 -0.0874628 0.021507 -0.145311 -0.109314 -0.181829 0.165653 0.204451 -0.0781123 -0.1053 -0.0480743 -0.0896647 0.0967878 -0.211578 0.0175562 0.252934 -0.21295 0.228292 -0.153835 -0.0607307 -0.162774 0.081112 0.138022 0.119817 -0.329858 -0.180573 0.0705939 -0.0740713 0.196367 -0.294745 0.0204189 -0.0787027 -0.036388 0.13994 -0.0575877 -0.0936784 -0.00641439 -0.252092 -0.157802 0.0123966 0.143561 0.099668 -0.165448 0.0686135 0.0167147 0.0644788 -0.0418613 0.0368783 0.0485395 0.293734 -0.0430657 -0.221263 -0.00355436
allen-xu-3 0.0190834 0.121399 0.0805472 0.0306971 0.069743 0.00345786 0.103582 0.19093 -0.03662 0.0958756 -0.088838 0.138286 0.0393104 0.282009 -0.258748 -0.0151483 0.143184 -0.0818453 -0.0761911 -0.023963 0.229943 -0.317914 -0.170296 -0.188528 -0.22115 -0.151618 0.0858124 -0.151473 -0.246799 -0.386642 0.124851 0.0326499 0.250203 0.201655 0.232545 0.0585916 -0.240929 -0.0767772 -0.108421 0.0780949 -0.0899707 -0.1162 0.116799 0.0260587 -0.18949 -0.0561745 0.103112 -0.0553004 0.187059 0.0823382 -0.182352 -0.0498402 0.0199145 0.14348 -0.565022 0.171624 0.24804 0.181698 -0.0178182 -0.0693954 0.0208682 0.429755 -0.122821 0.0707584 -0.112812 0.116766 0.0936032 0.0373028 0.348612 -0.115132 -0.137897 -0.00766438 0.0153896 -0.0249377 -0.0867128 -0.173911 -0.00963497 0.300643 -0.0174788 -0.244333 -0.0732517 -0.0210743 -0.0264571 -0.196983 -0.363473 0.0728848 0.234877 -0.0979607 -0.0495656 -0.0525475 0.0613247 0.22415 0.261499 -0.106617 0.0811395 -0.0914459 0.124732 -0.0200767 0.165858 -0.119796 -0.124852 -0.10353 -0.0233519 0.227557 0.0184162 -0.133382 -0.0398284 0.125363 0.0380174 -0.35522 -0.1686 0.324237 -0.369745 0.436023 -0.0823172 0.111933 0.0660667 -0.24463 0.00823108 -0.114565 0.00831855 0.0178606 0.0964786 -0.00487665 -0.0742341 -0.0922648 -0.587501 0.131504
arthur-wang-9999 -0.12588 0.170648 -0.108245 -0.0827034 0.141452 0.284425 -0.010071 0.0426761 0.192658 -0.0826959 -0.149712 0.282963 0.117098 0.167048 0.00421704 -0.0719152 -0.0848282 0.0444318 -0.0637256 -0.0949709 0.0833571 -0.335585 0.0628459 -0.04668 -0.158802 -0.160138 -0.000547965 -0.0948679 -0.00968754 -0.260499 0.127749 0.0139006 0.120211 0.168978 0.0701781 0.194099 0.0764759 0.0270735 0.191728 -0.0411656 -0.0676836 0.0417346 0.0724972 0.0685206 -0.0315216 -0.103498 0.0357185 0.14486 0.00976503 -0.158916 -0.216541 -0.181206 0.090635 0.0627804 -0.190195 0.118444 0.0177252 0.0659139 0.0650693 -0.218527 -0.00421851 0.00460312 -0.0365467 0.0490269 0.0139146 -0.0974633 -0.0802919 0.0568487 0.00674429 0.0274101 -0.237998 -0.0589441 0.0445225 0.0299044 -0.0555517 -0.201652 0.0406124 0.187103 -0.15776 -0.111374 -0.134529 -0.236422 -0.0765731 -0.145138 -0.116626 0.150087 0.132873 5.74111e-05 -0.0502104 -0.113323 0.079486 0.0420619 -0.139262 0.0382881 0.0779097 -0.1899 0.0988798 -0.16874 0.043797 -0.274006 0.0663398 0.0490784 0.0205038 0.0356922 -0.141163 0.11921 -0.107368 -0.0148913 0.00993823 -0.0660697 0.0972267 0.0812096 -0.132588 0.0874575 0.0146885 -0.146857 -0.173185 -0.167643 -0.107736 -0.116802 -0.0243881 -0.123869 -0.0323749 0.178331 -0.301248 -0.025791 -0.194289 -0.0568625
aton -0.139688 0.226568 0.106569 -0.0161252 0.166828 0.120242 -0.0519138 0.0481304 0.0837682 0.0646131 -0.157742 -0.0806532 0.0104565 0.0091791 0.219386 -0.179823 -0.0639639 -0.0247885 -0.206041 -0.0063453 -0.0161253 -0.222415 0.00236918 -0.0909966 0.0242261 -0.101 0.0893295 0.115367 -0.063174 -0.0841096 -0.0325145 0.210625 0.128024 0.104569 0.138917 -0.158621 -0.000560496 -0.0177958 0.0335432 0.0377768 0.13592 0.0400785 0.0229468 -0.0904984 0.0625778 -0.102701 0.122399 0.0390014 -0.07287 0.0872737 -0.0858831 -0.0772949 0.0480983 -0.110814 0.0242389 0.0671215 0.139927 0.112879 -0.0820568 0.0687373 -0.0123523 0.190423 0.0033539 0.101529 -0.0167056 0.197336 0.105036 0.104859 0.179281 -0.125747 -0.0382942 0.200689 -0.138724 0.0482421 -0.133287 0.127356 -0.0950498 -0.0330566 -0.133588 -0.0254665 -0.0932972 0.114748 0.0384252 -0.102617 -0.198572 -0.0989464 -0.014761 0.274578 0.333426 -0.256026 0.113145 -0.055011 -0.050049 -0.118886 -0.17319 -0.179408 0.0175074 -0.084155 0.289018 -0.230852 -0.0304646 -0.152151 0.0892678 0.20725 0.0127029 0.0591788 0.0239549 0.0781896 0.129153 -0.146968 -0.114208 -0.0145814 0.0750315 -0.0785525 0.00796793 -0.00874213 -0.183187 -0.0538789 -0.275369 0.107545 0.0717471 -0.104214 -0.153768 0.0094074 -0.161086 -0.213868 -0.172796 0.0744501
banfoxianren -0.0846775 0.283044 0.15536 -0.116812 0.22555 0.150662 0.0821647 -0.0133712 0.0639124 -0.205082 -0.213834 0.158772 -0.118433 0.086349 0.450703 -0.0567163 -0.0186925 0.0533286 -0.127793 -0.23247 0.089198 -0.136296 -0.0213946 -0.0682227 0.0635413 0.140248 -0.130079 0.0719893 -0.0853001 -0.176302 0.0310149 -0.0423067 0.202953 0.100169 0.0470585 -0.119039 0.00434669 -0.122796 0.205934 0.10696 0.0412853 -0.0883352 -0.0507182 -0.0387316 -0.104449 -0.127415 0.0491682 0.2263 0.074683 0.0243341 0.119391 -0.301695 0.0493928 0.0739366 0.0279831 -0.00155261 0.0503871 -0.117539 0.0426293 0.0142676 0.0252581 0.0095275 -0.031704 0.00540552 -0.0299697 0.0110901 -0.0307767 0.156239 0.208668 0.0886617 -0.194815 -0.0494687 0.00666906 -0.0897801 -0.0566495 0.0686507 0.117532 0.132564 -0.125327 -0.158574 0.039626 -0.158378 0.0386068 -0.00576301 -0.158511 0.123842 0.0482254 0.0639527 0.129555 -0.0274502 -0.0240672 -0.178759 -0.179603 -0.013281 -0.173089 -0.311055 0.298378 -0.201485 0.223273 -0.129882 -0.0111792 -0.135457 -0.193934 0.0688164 -0.0988363 -0.110857 -0.022318 0.261135 -0.208256 -0.285933 0.0539826 -0.0926191 -0.0462447 -0.0572115 0.0104047 -0.0120131 -0.285053 0.10439 -0.0595566 -0.212035 -0.11809 -0.0397363 0.00409621 0.432921 -0.211027 0.0201681 -0.166521 -0.0938613
ccat -0.0646323 0.342977 0.082482 0.0496683 0.1311 0.0687128 -0.00358535 -0.0735188 0.21698 0.209574 -0.280198 0.0609831 -0.0268808 -0.0142145 0.188832 -0.0887731 -0.0620125 0.018865 -0.00645874 -0.0100579 0.0889742 -0.0090017 -0.0117629 -0.0629361 0.14003 -0.0366248 0.0509971 0.00187933 0.0327574 -0.0576673 -0.0462185 0.123486 0.257379 0.0990652 -0.0554052 -0.0384874 -0.0667466 0.0529138 0.0904804 0.0129683 0.182333 -0.0249421 0.0228023 0.126608 0.112666 0.0616535 -0.0499671 0.00758428 -0.0198113 -0.0895464 -0.157511 -0.06219 -0.140251 0.00395408 -0.136997 -0.0236815 0.133462 -0.0194819 -0.241153 -0.0324554 -0.0778854 -0.122288 0.0226432 -0.0648514 0.0248683 0.143338 0.0584945 0.0259698 0.0453055 -0.0253232 -0.0479053 0.0402182 -0.116634 0.0328428 -0.0900815 0.133254 0.134556 0.0388325 -0.160686 0.125644 -0.0619311 -0.130962 -0.0113074 0.0592163 -0.127959 0.0353756 -0.127038 0.16412 0.0607554 -0.138807 0.18976 -0.15034 -0.232481 -0.0630613 -0.0884295 0.0249349 0.0791498 -0.179247 0.063094 -0.171556 -0.0642732 -0.010497 -0.107059 -0.0154184 -0.0436478 0.220425 -0.0838858 0.214285 0.0816363 -0.116205 -0.0344859 -0.0439446 0.0230956 0.0112715 -0.110164 0.0316615 -0.153345 0.135268 0.0183063 0.014333 0.0610332 0.0147163 0.00642381 -0.0825196 -0.00925565 -0.0467884 -0.305907 -0.0293388
chibaole -0.0335441 0.301782 -0.0252855 -0.16463 0.175778 0.28959 -0.00109677 -0.197296 0.150588 0.250044 -0.0353383 -0.134391 -0.0348546 0.0342254 -0.0101605 0.0333142 0.0803613 -0.0140065 -0.124165 -0.0206184 0.163489 -0.0763452 0.0217417 0.000169023 0.0779972 -0.182612 0.15268 0.0596074 -0.064743 -0.134646 0.0520002 0.195246 0.106253 0.170573 0.0151624 -0.0509872 -0.0281879 0.0738629 0.0225163 0.0604276 0.0524244 0.00361931 0.134374 -0.0188504 0.00772784 0.103082 0.0278567 0.00230652 0.00652755 -0.0280862 -0.297104 -0.109289 -0.0401101 -0.133278 -0.136478 0.172823 0.309911 0.154354 0.111097 -0.00542055 -0.0528978 -0.071979 0.0195437 0.120751 -0.0411457 0.0884426 0.0200925 0.113619 0.200411 -0.104677 -0.157778 0.0583076 -0.155294 0.0676478 -0.212022 -0.00294055 -0.0129241 -0.111194 0.142594 0.0179931 -0.0713652 -0.131654 0.0803203 0.0987881 -0.036518 -0.0680563 -0.0811868 -0.068999 -0.0606551 -0.016018 0.0336112 -0.103075 -0.0185208 0.14254 -0.00255877 0.0575306 -0.128213 -0.123057 0.12307 -0.330363 -0.113759 0.0794933 0.0914071 0.150148 0.0767823 0.0393525 -0.13983 0.150656 0.149967 -0.0383619 -0.0656396 -0.116669 -0.12136 -0.145269 -0.152185 -0.0739325 -0.144629 0.052673 0.116379 0.0820055 0.166245 -0.0889786 0.0103413 -0.0113275 -0.0664266 -0.0717667 -0.240349 -0.120081
chivn -0.1924 0.31496 0.286973 -0.0139139 0.375009 0.0233262 0.165634 -0.14261 -0.0487093 0.202486 0.0465193 0.183995 -0.0547798 0.227209 0.030192 -0.238606 0.0593351 -0.0530446 -0.298519 0.0518409 0.379194 -0.529367 -0.124245 -0.303239 -0.103102 0.174787 0.121653 -0.00995651 -0.0184083 -0.0553472 0.175258 0.031067 0.262149 0.132562 -0.132204 -0.0169686 -0.125903 0.106794 -0.0661952 -0.0471251 0.0275766 -0.343 -0.0558014 -0.00851414 -0.201956 -0.195071 0.0554678 0.288833 -0.0334276 0.108246 -0.331555 -0.231986 0.24505 -0.0205673 -0.199224 0.115456 0.158739 0.0498656 -0.483243 0.269724 0.0587012 -0.257096 -0.115205 -0.0944244 -0.120681 0.0703096 0.0813428 0.121836 -0.0527833 -0.00365262 0.0392601 -0.20033 -0.0545546 0.138471 -0.109728 -0.00293581 0.267011 0.271289 -0.0984106 0.275732 0.0780479 0.156725 -0.0899128 -0.0483246 -0.227054 -0.159259 0.0623415 0.28056 -0.0253894 -0.120393 0.163692 0.024373 -0.198248 -0.262689 0.000984607 -0.0822619 -0.04962 0.170794 -0.00107659 -0.0410908 -0.0876086 -0.0497097 -0.0566308 0.0829424 0.162927 -0.202452 -0.0112871 0.161719 -0.187497 -0.146866 0.0122399 0.0666716 0.408486 0.222366 0.162455 0.0220538 -0.0127033 -0.0675932 0.149539 -0.0603491 -0.241484 0.0735506 0.147043 0.00827987 -0.0498515 -0.152926 -0.491006 0.0838969
commando -0.0780462 0.354394 0.185505 -0.115884 0.188271 0.248239 0.142796 -0.0194941 -0.0220876 -0.0782607 -0.0617327 -0.0250417 -0.180401 0.0131826 0.278346 -0.29086 -0.0744115 0.0174122 -0.0698227 0.0811443 0.164983 0.0252134 0.110543 0.00974301 -0.028368 0.0455801 0.128776 0.260695 -0.124945 -0.262355 0.231968 0.101393 -0.105978 0.333535 0.0440743 -0.18909 -0.032983 -0.0122059 0.0255654 0.0493201 -0.0238545 0.0366381 0.131653 -0.0759958 -0.00240372 -0.0705174 0.00251882 -0.0471598 0.129602 -0.00862127 -0.293648 -0.043238 -0.00434639 0.134174 -0.156016 0.0171524 0.0713162 0.0769647 0.01526 0.069966 -0.0330645 -0.134027 -0.0962994 -0.166459 -0.1965 0.00351168 -0.0289502 0.0219683 -0.0731401 0.00253352 0.124184 0.0110421 -0.227906 0.052046 -0.0645223 0.167052 -0.111522 0.104631 0.0472264 -0.0108605 -0.256585 -0.107588 -0.0761808 0.101065 -0.0408557 -0.0132245 -0.00303882 0.0952985 -0.0933421 -0.127061 0.0175893 -0.0201902 -0.189909 -0.0092691 -0.0720657 -0.130419 -0.146372 0.102944 0.397142 -0.305089 -0.0527966 -0.0368293 -0.0353284 0.112759 -0.178405 -0.0780273 -0.124254 0.35337 -0.0959916 -0.22605 -0.142131 0.0546359 -0.0498776 0.0344354 0.115921 0.0970006 -0.0888856 0.183529 -0.00182851 0.0298534 0.0206195 0.0150253 0.0162244 -0.0185811 -0.0686165 0.0932856 -0.0970811 0.0619057
cworange667 -0.0892635 0.173506 0.081145 -0.198923 0.122793 0.226785 0.048516 0.089794 0.200738 0.0801682 -0.0374347 0.0234162 -0.0124757 0.203837 -0.0267618 -0.0297791 -0.0745349 -0.102752 -0.0662642 0.0913869 0.0153385 -0.107512 -0.0321424 0.00215261 -0.0787229 -0.0510527 -0.0357332 0.0255144 -0.0765368 -0.0211735 0.13225 0.00469016 0.21546 0.192183 0.0396212 -0.0243519 -0.195621 0.0150304 0.204395 -0.0347427 0.07668 0.0235017 0.00112055 0.0512438 -0.12356 -0.0778123 -0.0607145 -0.0348364 -0.0361162 -0.0497361 -0.201688 -0.137608 0.0416401 -0.0747699 -0.0683812 0.119503 0.0613981 0.0566138 -0.023661 -0.0992566 -0.0344395 -0.0794526 0.0134654 -0.107086 -0.126242 0.0600405 0.00610142 0.099915 0.191752 -0.0423594 -0.0732778 -0.128288 -0.165338 -0.0286286 -0.1771 -0.0368595 0.0178589 0.143091 -0.149183 -0.00885389 0.0260466 -0.0492886 0.147663 -0.244328 0.0222333 0.0802609 0.105009 0.0589676 0.0410563 0.00658776 0.0615723 -0.152311 -0.0757157 -0.0385964 -0.102725 -0.0958197 0.116118 0.0212047 0.111337 -0.117648 -0.0145653 -0.0694803 -0.114012 0.0734747 -0.0745105 -0.0580429 -0.123379 0.104398 -0.0920858 -0.0566821 -0.0521032 -0.01391 0.0836385 -0.0116156 0.140595 -0.0105749 -0.209861 -0.056378 0.0777772 -0.0221359 -0.0720907 -0.0401079 -0.0940577 0.0651859 -0.17767 -0.151555 -0.269807 0.00424059
